time 1.442329 -0.827848 -0.177014 0.352815 0.235041 -0.337140 0.087224 0.844167 -1.119591 -0.336366 -0.075053 -0.011623 -0.259267 0.170180 0.200876 -0.062894 -0.441344 0.191897 0.872397 -0.049101 -0.408229 0.409712 -0.355927 -0.865997 0.187105 -1.294173 -0.395623 1.084208 0.983082 0.237214 -0.127160 0.219582 -0.289815 1.697750 -0.270026 0.022142 0.987580 -1.219156 0.125483 1.014560 0.193423 -0.398374 0.003073 -1.693432 0.386871 1.070725 0.386389 -1.253933 0.747944 1.227666
question 0.623515 -1.608052 -0.193936 -0.650042 1.505251 0.390609 0.768854 -0.215224 -0.917797 -0.828634 0.239676 -0.348130 -0.435274 1.744722 0.534171 0.015537 -0.662177 0.725127 1.613435 -0.365990 -0.049686 0.374847 0.329370 -0.687710 0.464473 -1.005563 1.116224 -0.037974 0.289668 0.153304 0.254049 -0.823236 0.302283 -0.874224 0.052215 -0.340483 0.275739 0.256927 -0.234083 -0.058052 0.639838 -0.609848 0.260006 -1.042243 -0.581946 -0.062255 0.751909 -0.132779 0.180882 0.691079
interact 1.271636 -1.318483 0.349456 -0.131296 0.864436 0.106298 0.916849 1.078147 -0.813811 -1.508409 0.162250 -0.501180 0.186863 1.265310 0.439403 0.065371 -0.730224 0.229468 0.708726 -0.245058 -0.150508 0.431510 0.026103 -0.630323 0.446332 -0.116288 0.188843 -0.268515 0.553234 0.064002 -0.048954 -0.647224 1.112920 -1.470323 -0.616253 0.201648 0.352244 -0.128516 -0.189851 0.124188 0.094497 0.005067 0.511782 -0.358223 -0.076121 0.019398 0.043629 0.341593 -0.179165 0.238777
class 1.287700 -0.235608 0.770231 -0.930849 0.517068 1.051793 1.172845 0.826489 -1.710967 -0.540689 -0.093835 -0.715449 0.133638 0.242482 0.111911 0.775659 -0.409595 0.204108 0.661878 -0.163348 0.635524 0.008314 -0.149325 -1.020472 0.352559 -0.602509 -0.429922 0.537942 0.235747 0.123282 0.211736 0.024778 -0.101368 0.331862 -0.349528 0.006228 0.693928 -0.299313 -0.778744 -0.326300 0.497805 -0.271817 1.081338 -0.794972 -0.482034 -0.446653 -0.162321 0.079735 0.249923 0.865304
lectur 0.739117 -0.353234 -0.412124 0.079284 0.492557 0.448673 0.943751 1.402488 -1.602035 -0.137746 0.318349 -0.640016 -0.114300 0.250365 -0.145354 -0.148197 -0.890176 0.253035 1.176988 -1.338451 0.910123 -0.404658 -0.501348 -0.249478 -0.345762 -1.213054 -0.185410 0.138458 0.185676 -0.442116 -0.543463 0.387826 0.998571 -0.090366 -0.239247 0.256929 0.411734 -0.456043 -0.073470 -0.842457 0.366001 -0.061129 0.083497 -0.799651 0.238274 0.568584 0.299565 -0.643894 -0.090669 0.866489
teacher 0.827875 -0.810667 -0.177026 -0.437885 1.063529 0.074516 0.663818 0.355722 -1.540877 -1.469361 0.188553 -0.334988 0.309775 0.800307 0.182320 0.108754 -0.645920 1.228680 0.583023 -0.199356 -0.680027 0.194643 0.213474 -0.060436 0.029232 -0.609806 -0.327139 -0.134522 0.883515 0.159723 0.517570 -1.099022 -0.085951 -0.951923 -1.034479 -0.799823 1.110159 -0.300713 0.077964 0.426488 0.806199 -1.017127 -0.009735 -0.297047 -0.288240 -0.486914 0.215657 0.088906 -0.229464 0.106042
work 0.803681 -0.381970 -0.239280 -0.241116 0.574524 0.093719 0.604371 0.326936 -0.817825 0.379474 -0.102721 0.189775 -0.138626 -0.007079 0.013968 0.650887 0.069006 0.735471 0.577514 -0.153704 -0.559447 0.125167 0.259252 -0.117720 0.085379 -0.120422 0.107878 -0.008357 1.205147 1.118765 -0.669950 -0.635839 -0.371782 0.633637 -0.675906 0.105277 1.737845 -0.895019 -0.207377 0.878997 0.493662 -0.351416 0.377719 -0.660145 0.664461 0.647781 -0.257763 -0.592437 1.019584 0.454155
live 0.922779 -0.369930 0.130247 -0.713295 0.605677 1.129969 1.187592 0.456836 -1.444284 -0.398919 -0.044913 -0.257172 0.154542 0.487356 0.048281 0.104958 -0.217299 -0.166492 0.518026 -0.743460 0.256176 -0.445641 -0.060784 -0.286212 0.079526 -0.515128 -0.181813 0.328744 0.331618 -0.565240 -0.038631 -0.147801 -0.140734 -0.054911 -0.209875 0.373003 1.051747 -0.575068 -0.330131 0.204047 0.428943 -0.645386 0.803761 -0.667036 -0.388766 0.043459 0.704095 0.110469 -0.001379 1.435842
feel 2.169727 -0.758999 0.293690 0.033777 -0.147545 0.126450 0.555103 0.440992 -0.609633 -0.962105 1.078708 -0.886633 0.313806 0.495918 -0.423202 0.052657 -0.095987 0.545632 -0.066284 -0.173698 0.560641 0.380175 1.014335 -0.408635 0.184034 -0.499975 0.767366 -0.082440 0.407241 0.346774 -0.459210 0.008033 1.162669 -0.769973 -0.459868 -0.127203 0.809318 -1.004041 -0.779124 0.853457 0.982085 0.307934 1.019662 -0.297791 -0.090458 -0.270491 0.255390 0.037447 0.530205 0.003659
learn 1.354403 -0.101806 -0.746537 0.005107 0.505151 0.096621 0.318830 1.359455 -0.575853 -0.412042 0.086393 -0.443986 0.294320 -0.672414 0.642160 0.591638 -0.964843 0.231288 1.151455 -0.022914 0.239815 0.300914 0.226008 -0.158024 0.395842 -0.733284 0.725008 0.477490 1.005429 0.815852 0.065796 -0.803372 1.082577 -0.057482 -0.185102 0.036365 0.659307 0.150503 -0.124252 1.060240 -0.377203 0.527505 0.348004 0.059040 0.121810 -0.128780 -0.197040 -0.832992 0.034565 -0.288018
easier 1.317757 -0.425045 -0.020863 0.187890 0.845478 0.181515 0.105096 0.037072 -0.547553 -0.996869 0.000683 -1.200533 -0.060867 0.278168 0.306399 0.146998 -0.361763 -0.113475 1.188310 -0.128878 -0.291230 0.350335 -0.186514 0.322080 0.272607 -0.216209 0.325388 0.729117 1.572607 -0.087730 1.186512 -0.521830 0.233060 -0.332937 -0.332689 -0.721359 0.842872 0.076816 0.399018 0.274738 0.914257 -0.191765 0.369690 -0.933908 0.001513 0.212766 0.323967 -0.140444 0.208925 0.750113
understand 0.373663 0.016345 -0.429597 0.468403 0.780770 0.188228 -0.151921 -0.137792 -0.604659 -0.313600 0.439663 -0.576211 -0.705454 -0.619120 0.392420 -0.328122 -0.893459 1.180245 1.901312 -0.064098 0.166413 -0.135173 -0.617976 0.179991 0.740042 -1.168166 0.430089 0.132296 0.406388 0.679759 0.954659 -0.468601 0.543172 -0.114849 -0.925949 -0.258499 0.250804 -0.160039 0.196858 0.723315 0.986692 -0.760134 0.132481 -0.804509 -0.265661 0.866137 0.714819 -0.062003 0.861688 0.043324
engag 1.091998 -0.630232 -0.127314 -0.054125 0.853062 0.140378 1.188078 1.030661 -0.402026 -1.090789 -0.034239 -0.720427 -0.316641 0.399000 0.701567 -0.036993 -0.097354 0.010593 1.317585 -0.503212 0.213015 0.362394 0.176337 -0.256851 0.284115 -0.161614 0.514456 0.076083 0.984726 0.111969 0.136981 -0.556697 0.901848 -0.939358 -0.550647 0.405009 0.505945 -0.027796 -0.202256 0.229750 0.013954 0.301728 0.476741 -0.297965 0.087266 0.433838 0.255415 0.357353 -0.010940 0.407191
pace 0.842290 -0.034241 -0.417073 0.077621 0.361155 -0.004870 -0.228355 0.212503 -0.830498 0.688062 0.452038 0.323787 -0.018434 -0.685554 0.039606 0.189511 -0.612408 0.626729 0.920496 -0.137806 -0.251013 -0.301891 -0.314159 0.672507 0.319662 -0.431610 0.058531 0.286796 0.920724 1.107864 -0.033316 -0.290329 0.309521 0.742471 -0.237012 -0.229648 1.209241 -0.372294 0.044371 0.958697 0.612302 -0.390168 0.065720 -0.750823 0.812317 0.851071 0.315205 -1.135244 0.727088 0.132021
materi 0.128928 0.345709 -0.681985 -0.786734 0.590312 0.046075 0.761355 0.673308 -0.823169 -0.162911 0.123660 -0.070003 0.124155 -0.248912 0.186369 0.245288 -0.716350 0.962206 1.184262 -0.625332 -0.020834 -0.555887 -0.039807 0.117430 -0.075717 -0.545432 0.380938 -0.333950 1.064784 0.102478 0.191179 -0.447314 0.395072 -0.243313 -0.590070 -0.228001 1.293807 -0.270667 0.183580 0.640754 0.744658 -0.310460 -0.183399 -0.290732 0.001907 0.515815 0.577730 -0.299701 0.333817 -0.075609
record 0.412610 0.152962 -0.353929 -0.456716 0.195426 0.678344 0.847502 1.049004 -1.394570 0.205423 0.318353 -0.305731 0.008428 -0.274794 -0.185104 -0.251796 -0.494208 -0.001920 0.931239 -1.182866 0.946509 -0.856932 -0.565849 0.249073 -0.408498 -1.119348 -0.398758 -0.208174 0.167647 -0.589296 -0.346954 0.487785 0.863041 -0.214541 -0.310277 0.448085 0.847286 -0.477437 -0.111033 -0.406195 0.544339 -0.129398 0.346982 -0.382097 0.256472 0.325405 0.574111 -0.290296 -0.184167 0.998431
discuss 0.776939 -0.494589 -0.598792 -0.510536 0.422060 1.327004 0.579228 0.290140 -0.159610 -0.670971 -0.318071 -0.323330 0.341149 0.413164 0.764862 0.268833 -0.884034 0.691403 0.941748 -0.342609 0.250341 -0.377370 0.276768 -1.224545 0.704492 -1.086066 0.242040 0.300126 -0.769971 0.186471 0.225092 -1.345783 0.493288 -0.325484 -0.550037 0.536482 0.671784 0.125315 0.099093 0.359952 -0.834475 -0.004807 0.580852 -0.020257 -0.830188 0.411136 -0.150709 0.280749 0.224516 0.455548
watch 0.781620 -0.210505 -0.197357 0.398628 -0.019558 -0.174749 0.044458 0.653805 -1.086064 0.149407 0.226532 -0.261418 -0.199918 -0.601480 0.085849 -0.259639 -0.343806 -0.438112 0.852297 -0.205920 0.447046 -0.130671 -0.592328 0.520588 -0.170211 -1.141591 -0.417408 -0.028837 0.480646 0.013638 -0.358208 0.523831 0.830376 0.563346 0.021639 0.136932 0.462388 -0.391089 -0.067009 -0.165243 1.028645 -0.034932 0.509791 -0.786866 0.707513 0.873935 0.395734 -0.880214 0.120250 0.792804
make 1.656298 -0.716906 0.136180 0.303034 -0.144442 0.331729 -0.018794 0.210826 -0.386803 -0.753084 0.456412 -0.896571 0.230931 -0.033412 0.237913 -0.087659 -0.294496 -0.175529 0.862149 -0.235760 0.062949 0.267916 0.366656 -0.030707 0.251750 -0.700579 -0.354758 -0.123498 0.683158 0.122732 0.050445 -0.159214 0.681249 -0.311230 -0.132192 -0.360538 0.943584 -0.351489 -0.136260 0.055388 0.725780 0.210855 0.645720 -0.334212 0.242223 0.313925 0.370231 -0.122248 0.300333 0.642251
student 0.703854 -0.634658 0.102818 -0.236489 0.564077 0.133268 0.741500 1.158381 -0.464528 -1.023063 -0.002182 -0.111510 0.449006 0.681140 0.436499 -0.295707 -0.240368 0.613314 0.482327 -0.477063 -0.235838 0.092648 -0.120034 -0.829369 0.330320 -0.171834 -0.465274 0.051520 0.003201 -0.094890 0.072084 -0.786883 0.538725 -0.779246 -0.445460 0.258519 0.855702 -0.273417 0.049451 0.358624 -0.776857 -0.403033 0.036499 -0.233395 0.218150 0.256193 0.184733 0.022809 -0.150106 0.580842
paus 0.824965 0.079592 0.192141 0.730508 -0.070678 0.112299 -0.730986 -0.217467 -0.613068 0.462316 0.966178 -0.318091 -0.292783 -0.807079 0.137218 -0.906619 -0.633717 0.019369 1.416076 -0.318001 0.409132 -0.402495 -0.846546 0.899115 0.355321 -0.956174 -0.949259 0.079432 -0.040476 0.309966 0.394441 0.225169 0.779048 0.218158 0.185019 -0.545654 0.580639 0.011611 0.175198 0.112240 1.012436 -0.447822 0.112197 -0.860872 0.664510 0.814249 1.016474 -0.878858 0.338191 0.595028
video 0.793041 0.214941 -0.427319 -0.180097 -0.116616 0.961819 -0.278829 -0.071250 -0.767495 0.515279 0.645485 -0.196770 0.286024 -0.539472 0.203224 -0.545336 -0.481276 0.114218 0.970402 -0.436866 0.640733 -0.854904 -0.275070 0.527827 -0.005514 -1.457827 -0.767202 -0.227241 -0.194459 -0.129074 0.129758 -0.181024 0.630801 0.159337 -0.061424 -0.228081 0.981394 -0.380150 0.106583 0.819349 0.687075 -0.393599 0.551342 -0.143316 0.385139 -0.025473 0.798116 -0.557784 0.017641 0.788714
lesson 1.088816 -0.890174 0.021602 -0.256278 0.484179 0.449345 0.103127 0.114174 -1.676583 -0.598693 0.334843 -0.387072 0.158365 -0.133160 -0.093954 0.349338 -0.684821 0.136918 0.389577 -0.145585 -0.073653 0.286990 0.123863 0.321102 -0.039543 -0.601089 0.094259 0.163925 0.590190 0.715561 -0.241199 0.333772 0.157250 -0.335857 -0.485130 0.337898 0.269895 -0.533087 -0.592520 0.257611 0.974369 -0.251774 0.591876 -0.238234 -0.479463 -0.096556 0.441031 0.102969 -0.059732 0.211627
explain 0.144964 0.027636 -0.992849 0.114515 0.540327 0.223031 -0.120667 0.059723 -1.128841 -0.894906 0.189316 -0.708681 0.022232 -0.372162 0.358205 0.178130 -1.024550 1.369110 1.166272 -0.299569 -0.359533 0.019412 -0.263212 0.290456 0.174465 -0.846255 0.288199 0.178251 0.757247 0.446736 1.119922 -0.708033 -0.053490 -0.376593 -0.799737 -0.699323 0.039457 0.151543 0.290653 0.564917 0.842657 -0.852400 -0.481859 0.010983 -0.785583 0.082772 0.538618 -0.115095 0.334787 -0.369758
real 1.064748 -1.366360 0.484591 -0.070976 0.451506 0.307427 0.246061 0.222388 -1.303243 -1.078342 0.335211 -0.503077 -0.026263 1.077286 -0.319675 -0.004523 -0.904906 0.545982 0.168514 -0.057321 -0.131399 0.809349 -0.002277 -1.166875 0.178433 -0.730038 0.368846 0.487594 -0.491741 0.601713 -0.461166 0.203880 0.081110 -0.510694 0.075306 -0.066895 -0.607587 -0.755075 -0.619873 -0.140168 -0.229854 -0.260680 -0.073679 -0.753585 -1.044641 -0.348228 0.268400 -0.074634 0.241369 0.083922
note 0.632193 0.129900 -0.474345 0.144370 -0.182795 0.311695 -0.514123 -0.338919 -0.510486 0.230167 0.608683 -0.726204 -0.096683 -0.772695 0.222556 -0.371509 -0.535091 0.115615 1.454318 -0.418090 0.344746 -0.343570 -0.214332 0.659821 -0.049861 -1.272879 -0.685724 0.083322 0.216194 -0.163637 0.637625 -0.055390 0.419643 0.273447 0.204518 -0.754509 0.776859 0.279829 0.267785 -0.161224 0.954222 -0.252406 0.161112 -0.578009 0.373395 0.387937 0.821939 -0.826391 0.175966 0.641032
back 0.214961 -0.164910 0.138644 0.089920 0.380250 0.032779 -0.388405 -0.290614 -1.136937 0.328141 0.589948 -0.031739 -0.320709 -0.479582 -0.156082 -0.559410 -0.464194 0.358078 1.094920 -0.382458 0.390276 -0.479350 -0.723481 0.676925 -0.075626 -0.827554 -0.449634 0.061244 0.098590 0.076576 0.390970 0.520267 0.391320 0.211901 -0.021660 -0.357908 0.345097 -0.032745 0.061928 -0.229882 1.350616 -0.516690 -0.056949 -0.938552 0.286772 0.642037 1.022535 -0.566372 0.064380 0.394460
content 0.467769 -0.359039 -0.668052 0.300965 0.745502 0.100123 0.136254 0.148592 -0.632550 -0.363140 0.221004 -0.206203 -0.412667 -0.505228 0.407479 -0.196602 -0.417644 0.686381 1.390495 -0.282016 0.103340 0.067925 -0.080654 0.367142 0.212576 -0.469571 0.537313 0.142229 0.856435 0.524895 0.494476 -0.231381 0.372370 -0.387962 -0.543431 -0.078026 -0.015299 0.009805 0.115028 0.460581 0.483292 -0.131183 -0.131309 -0.060719 -0.060511 0.512468 0.576014 -0.038291 0.277681 -0.313185
face 0.914909 -0.353806 0.501208 0.607043 0.254216 -0.602634 0.374197 1.218196 -0.911679 -1.304927 0.790285 -0.267287 0.415773 0.475025 -0.119860 0.638045 -1.363183 0.270527 0.077186 0.223392 -0.377951 -0.104648 -0.031906 -0.027059 0.306996 -0.233163 0.172961 0.190349 0.050944 -0.210284 0.445588 -0.546846 0.479955 -0.646897 -0.128537 -0.559071 -0.604740 -0.102203 -0.249135 0.229337 -0.456363 0.290108 -0.083320 -0.460290 -0.925443 -0.861060 -0.634342 -0.349821 -0.663058 -0.874732
zoom 1.275822 0.078777 -0.321662 -0.769289 0.203455 1.736188 0.315541 0.170270 -0.724649 0.380577 0.033436 -0.215799 0.340990 0.024536 0.051913 0.165678 -0.312701 -0.128481 0.342892 -0.530146 0.498394 -0.602425 0.224375 -0.243515 -0.053066 -0.814105 -0.137904 0.624031 0.069653 -0.337587 -0.168537 0.126561 -0.328819 0.330873 0.004154 0.107690 1.121491 -0.862228 -0.004677 0.687213 -0.203179 -0.164755 0.698087 -0.110817 -0.176592 -0.500494 0.095166 -0.009890 0.007120 0.779625
thing 0.732976 -0.147305 -0.050450 0.306021 0.361179 0.427143 -0.082477 0.082347 -1.221172 -0.336154 0.226691 -0.768610 -0.247962 -0.514126 -0.234342 0.225553 -1.093085 0.800144 0.911380 0.028273 0.165811 0.205681 -0.675154 0.017062 0.413936 -0.786324 0.190172 0.631565 0.062009 0.977363 0.215182 0.085859 0.246289 -0.086931 -0.325163 -0.217200 -0.246898 -0.334076 -0.232303 0.106397 0.356909 -0.415057 -0.033817 -0.648070 -0.435674 0.025733 0.074542 -0.384579 0.540848 -0.286582
help 0.441012 -0.389223 -0.150825 0.218992 0.513378 -0.163185 0.422166 0.596042 -0.541809 -1.127848 -0.219588 -0.594013 0.028588 -0.402118 0.362378 -0.039033 0.000558 0.238158 0.646326 -0.038836 -0.153512 0.567661 -0.037580 0.090939 0.217981 -0.265065 -0.059548 0.052406 1.279840 0.142145 0.395303 -0.300271 0.396165 -0.423772 -1.158028 0.173093 0.504709 -0.001873 0.233294 0.432884 0.732319 -0.190107 0.306713 0.278887 0.443277 0.230306 -0.135751 0.309712 -0.124143 0.003662
onlin 0.839827 0.294954 -0.126452 -0.867216 0.442016 1.052359 0.487779 0.709559 -1.049128 0.200787 0.048777 -0.185555 0.488134 -0.107794 0.013141 0.737713 -0.585298 0.070083 0.284936 -0.363764 0.111951 -0.461507 0.159757 -0.163936 -0.063718 -0.554046 -0.083576 0.560111 0.442001 -0.001621 -0.109699 0.022895 -0.147370 0.164894 -0.162509 0.282446 1.025686 -0.742356 -0.376379 0.562248 0.014405 -0.115357 0.575601 -0.224041 -0.450540 -0.527202 -0.078518 -0.054128 -0.067261 0.462717
normal 1.028256 -0.876163 0.591348 -0.243865 0.304277 0.042860 0.435139 0.427253 -1.376330 -0.685187 0.441432 -0.420468 0.335063 0.106651 -0.608095 0.602526 -0.770214 0.313389 -0.218597 -0.075275 0.144142 0.545697 0.332217 -0.346455 -0.045082 -0.097138 0.468457 -0.045837 0.393076 0.470146 -0.651270 0.943978 0.315546 -0.537118 -0.337714 0.319595 -0.265524 -0.637950 -0.760445 -0.211848 0.733177 0.283974 0.301277 -0.028320 -0.590845 -0.448607 -0.075701 0.207152 0.054989 -0.450368
email -0.223264 -0.289381 -0.719948 -1.437990 1.054698 0.030898 0.514842 -0.379933 -0.596259 0.190856 0.027814 0.307442 -0.215902 0.866820 -0.061287 0.155643 -0.291475 0.936733 0.726991 -0.250659 -0.112319 -0.396500 0.612999 -0.341474 -0.312800 -0.861154 0.962215 -0.475877 0.633562 -0.212290 -0.154027 -0.309164 -0.360490 0.118885 -0.161764 -0.643124 1.101456 -0.310472 0.047010 0.367190 1.048304 -0.424460 -0.233584 -0.345847 -0.159050 -0.298265 0.724741 -0.220350 0.215033 0.041625
find 0.811727 0.742195 -0.537259 -0.176406 0.436829 1.061075 0.008112 0.410285 -0.109134 0.054785 -0.119926 -0.891119 0.132337 -0.388528 0.351215 0.358078 -0.345673 -0.373253 0.659831 -0.261853 0.521443 -0.430026 -0.220155 0.245388 0.252399 -0.340096 0.544213 0.967924 0.886848 -0.117077 0.856447 -0.418963 0.433637 0.224178 -0.501017 0.094384 1.094098 -0.207732 0.108340 0.948767 0.374119 -0.028770 0.758251 -0.283459 -0.046642 -0.085386 -0.020592 0.102922 0.186787 0.648823
teach 0.613680 0.208297 -0.077093 -0.309757 0.678489 0.396030 0.417530 0.937133 -1.302894 -0.390042 0.361013 -0.319302 0.258005 -0.292135 -0.138965 0.652198 -1.085125 0.558650 0.483562 -0.207277 -0.076877 -0.153905 -0.251201 -0.024751 0.099497 -0.301133 0.506936 0.463673 0.468558 0.353006 0.139068 0.165477 0.161982 -0.523225 -0.205465 0.022838 -0.037078 -0.598023 -0.358161 0.437072 -0.076918 0.039258 -0.179012 -0.187740 -0.851579 -0.581289 -0.049908 0.053544 0.086396 -0.567258
schedul 0.650197 -0.410333 0.320639 0.003961 0.114210 -0.234506 0.203802 0.559660 -0.609892 0.036390 -0.326349 -0.024480 -0.000921 -0.397098 -0.115579 0.305404 0.033013 -0.619311 0.164400 0.099653 -0.228277 0.631417 -0.255975 0.028228 -0.058526 -0.086357 -0.201568 -0.233086 1.427430 0.138969 -0.649209 1.033114 -0.180472 0.600832 -0.304933 0.364481 0.814500 -0.673167 0.018604 -0.125655 0.991345 0.294735 0.277125 -0.213359 0.874659 0.581596 -0.236915 -0.158631 0.405780 0.423548
motiv 0.736515 -0.035686 0.116191 -0.014081 0.311638 -0.090580 0.773744 0.522261 -0.082397 -0.646128 -0.189534 -0.844284 -0.188524 0.229922 0.030772 0.260566 0.570295 -0.308677 0.183574 -0.284829 0.343685 0.356527 0.124844 0.034160 -0.007797 -0.058417 0.369204 -0.057849 1.036593 -0.304597 -0.157820 -0.122134 0.544915 -0.217081 -0.750404 0.329742 1.005580 -0.450509 -0.192108 0.154233 0.716975 0.257674 0.808653 -0.459028 0.562744 0.362362 -0.277353 0.332367 0.147168 0.855718
answer -0.006214 -1.211371 -0.287414 -0.572225 1.145409 0.161162 0.179148 -0.564936 -0.581182 -0.263784 0.166281 0.023121 -0.401502 1.573871 0.121134 -0.204951 -0.462448 0.890307 0.785057 -0.336559 -0.232792 0.233917 0.083651 -0.563679 0.204960 -0.742761 0.922419 0.130559 -0.200530 -0.007659 0.256859 -0.407599 -0.052029 -0.551577 0.163681 -0.368707 -0.265361 0.113941 -0.168536 0.164649 0.221256 -0.844063 -0.401622 -0.833437 -0.651076 -0.177443 0.976510 -0.233806 0.197553 0.414292
prefer 0.167203 0.422303 -0.631621 -1.039629 0.420866 0.588206 0.575729 1.022350 -1.061789 0.376981 0.190419 0.118572 0.545861 -0.437806 0.061343 0.740587 -0.892139 0.244964 0.643805 -0.448421 0.177904 -0.813347 -0.169652 0.053373 -0.139071 -0.883068 0.311819 -0.135189 0.535135 0.078983 -0.280649 -0.140550 0.364432 0.016793 -0.126706 0.245490 1.113739 -0.400067 -0.155539 0.559073 0.228713 0.101814 0.238676 -0.079843 -0.066769 -0.113098 0.158970 -0.445360 0.070799 0.191258
professor 0.382614 -0.513187 -0.108524 -0.248333 0.389695 0.017211 0.403992 0.456797 -0.714200 -0.817295 0.068686 -0.390668 0.122899 0.704966 0.202652 -0.276908 -0.447551 0.712755 0.609279 -0.506462 -0.001361 -0.040674 -0.194413 -0.451762 0.010150 -0.707745 -0.250137 -0.294040 0.025679 -0.374307 0.198543 -0.434337 0.435664 -0.502809 -0.577799 -0.161150 0.549417 -0.128463 0.140292 0.044404 0.397956 -0.483477 -0.059665 -0.433112 -0.160717 0.136946 0.391391 -0.049004 -0.065588 0.554421
inform 0.123166 0.332972 -0.198481 0.159397 0.155051 -0.109221 -0.180424 0.198351 -0.203678 -0.142576 0.383893 -0.129278 0.246708 -0.363949 0.274611 -0.130311 -0.111545 0.226715 0.625357 -0.568502 0.144552 -0.668259 0.062494 0.495850 -0.154886 0.241563 -0.047653 0.529931 0.731105 0.129510 1.122403 -0.454971 0.480339 0.208591 -0.328654 -0.365625 0.541935 0.696050 0.157393 0.423550 0.940137 -0.098203 -0.383409 -0.376276 -0.250050 0.407355 0.625383 -0.248499 -0.174695 -0.021197
person 1.055140 -0.236470 -0.062603 -0.105652 0.099295 0.503692 0.199437 0.628842 -0.939777 -0.699310 0.258233 -0.814234 0.380880 -0.008618 -0.061363 0.560155 -0.706779 0.064064 0.327653 -0.155545 0.093482 0.385000 0.153706 -0.195255 0.089555 -0.424122 0.268608 0.196798 0.667710 0.423790 0.110770 0.160550 0.369240 -0.365487 -0.069774 -0.184412 -0.023124 -0.347629 -0.123396 0.005810 0.334972 0.228111 0.379699 0.131723 -0.452398 -0.579557 -0.221417 0.054843 0.151426 -0.174226
studi 0.339093 0.121864 -0.133727 -0.104043 0.060766 -0.424139 -0.014843 1.005629 -0.338481 -0.074059 -0.057050 -0.194277 0.307114 -0.406497 -0.081382 0.557576 -0.481242 -0.029236 0.121573 0.206787 0.003950 0.143723 -0.647231 -0.158135 0.472758 -0.487417 0.312011 -0.091273 0.573070 0.493961 -0.284400 0.206630 0.803716 0.377878 -0.199103 0.337323 0.916053 -0.440241 -0.075063 0.453244 0.254438 0.122996 0.171622 -0.449676 0.585317 0.672174 -0.209873 -0.439716 0.566507 0.178607
similar 1.198070 -0.690934 0.477688 -0.186070 0.307745 0.512239 0.365186 0.553626 -1.422044 -0.615586 0.297538 -0.565935 0.296124 -0.028503 -0.443186 0.716316 -0.811050 0.120860 -0.099722 0.015738 0.281801 0.761805 0.281403 -0.414718 -0.075393 -0.247425 0.640406 0.352030 0.310734 0.718998 -0.552333 0.987841 0.205667 -0.405743 -0.140692 0.253623 -0.602525 -0.562271 -0.776174 -0.166313 0.414690 0.556150 0.343568 0.087813 -0.796263 -0.909985 -0.368936 0.365002 -0.043596 -0.605411
school 0.690502 -0.498082 0.326299 -0.529409 0.398987 0.047862 0.352880 0.535457 -1.293222 -0.416936 0.060089 -0.152771 0.337569 -0.314289 -0.299027 0.750398 -0.465909 0.196431 -0.137622 0.059141 -0.093179 0.499790 0.252514 -0.146421 -0.138736 -0.108953 0.358113 -0.187906 0.750907 0.700709 -0.718352 0.664914 0.108613 -0.280276 -0.499051 0.404403 0.234572 -0.501310 -0.609663 0.093952 0.850879 0.209676 0.419149 0.253194 -0.212293 -0.406891 -0.196375 0.254388 -0.020239 -0.361684
classroom 0.872719 -0.644902 -0.046748 0.041125 0.399841 0.474600 -0.023785 0.073367 -0.577934 -0.491051 0.110398 -0.284381 0.070860 0.135436 -0.399878 0.610903 -0.387175 0.945828 -0.239832 0.192498 -0.268357 1.097654 0.374156 -0.452442 0.073636 0.062661 1.082665 0.418645 0.335291 1.549976 -0.636703 0.143795 0.119917 -0.410101 -0.552820 0.385902 -0.069417 -0.840654 -0.658165 0.744709 -0.058921 0.297637 -0.174780 0.245449 -0.629148 -0.621756 -0.653231 0.370123 0.465164 -0.873369
easi 0.606145 -0.174332 0.420941 -0.054337 0.292199 -0.140459 -0.256866 0.117731 -0.265353 0.113219 0.410253 0.291366 0.172252 0.291221 0.131995 -0.150994 -0.529702 0.078664 0.448710 -0.156263 -0.171502 -0.359346 -0.114840 0.023453 0.258670 0.100225 -0.109625 0.166540 0.279633 0.039257 0.407988 -0.257328 0.387548 0.266401 -0.092845 -0.233862 0.886043 0.029043 0.130971 0.159662 0.684278 -0.141497 0.069177 -0.952688 0.194176 0.779310 0.354958 -0.455136 0.149789 0.312178
listen 0.365280 -0.112348 -0.465322 -0.264055 0.093039 -0.066775 0.038707 0.433224 -0.870479 -0.147820 0.188104 -0.592001 0.058933 -0.477815 0.108782 -0.106980 -0.158367 -0.021066 0.757758 -0.488970 0.419311 -0.103873 -0.073624 0.419430 -0.502765 -0.940800 -0.344018 -0.097670 0.487071 -0.100644 0.178454 0.016838 0.563373 -0.017807 -0.058989 -0.268982 0.398675 0.102279 -0.031542 -0.293178 0.678372 -0.010216 0.217275 -0.259136 0.250641 0.163122 0.493081 -0.617874 -0.210595 0.547220
peopl 1.023995 -0.457274 -0.294695 0.131952 -0.352092 0.417897 0.256131 0.478534 -0.127844 -0.901369 0.200110 -0.426933 0.427635 0.706708 0.476592 0.080808 -0.291265 -0.031226 0.046397 -0.073427 -0.210446 -0.010729 0.349071 -0.502756 0.358526 -0.832190 -0.426292 -0.145651 -0.216034 -0.100047 0.086668 -1.014430 0.073511 -0.038181 0.038112 -0.331736 0.331315 -0.403209 0.111497 0.434198 -0.497994 -0.420418 0.654815 -0.126879 -0.314726 -0.241204 -0.232093 -0.158466 0.131715 0.446067
day 0.504071 -0.938106 0.302456 -0.179453 0.702815 -0.600832 0.340437 0.328340 -0.702975 0.148749 -0.280411 0.444713 -0.005920 0.268389 -0.104141 0.282650 0.168859 -0.406704 0.090539 0.044061 -0.378327 0.381026 0.205183 -0.362552 -0.081477 -0.090987 0.158693 -0.108452 1.577171 -0.147473 -0.816332 0.989281 -0.280160 0.897737 -0.159172 0.292574 0.890367 -0.601007 -0.090245 -0.152311 1.239657 0.099549 0.287506 -0.368766 0.830328 0.493741 0.108699 -0.262582 0.164557 0.422427
talk 0.713512 -0.518057 -0.579636 -0.219206 0.117521 0.389191 -0.058942 0.227289 -0.535139 -0.733731 0.364380 -0.433696 0.343049 0.591435 0.438894 -0.062734 -0.561055 0.595345 0.428870 -0.125473 -0.107933 -0.063441 0.246397 -0.267988 0.103090 -1.017948 -0.182958 -0.409284 -0.133486 0.155129 0.172165 -0.932686 0.316892 -0.451055 -0.173166 -0.577758 0.376520 -0.162765 0.126136 0.517779 0.034343 -0.500574 0.298345 0.058808 -0.252338 -0.391870 0.087996 -0.263017 0.000874 0.094854
dont 0.377297 -0.102827 -0.095261 -0.262665 0.200155 0.007169 0.085522 0.000468 -0.641223 -0.038559 0.510818 -0.107549 -0.175841 0.050725 -0.020903 -0.206179 -0.385339 0.556164 0.563462 -0.194610 0.217582 -0.179665 -0.067885 -0.024125 -0.006415 -0.904192 -0.003013 -0.355155 0.107100 -0.073725 -0.038177 0.010914 0.306687 0.008231 -0.197355 -0.295308 0.428348 -0.501167 -0.128722 0.284293 0.925698 -0.554819 0.263647 -0.414119 -0.084244 0.065369 0.594617 -0.245302 0.389207 0.274686
upload -0.069163 0.477182 -0.835140 -1.132119 0.390800 0.632604 0.723348 0.217868 -0.912688 0.402567 -0.068711 0.014572 0.279343 -0.295918 -0.257044 0.420920 -0.426850 0.927838 0.766224 -0.905317 0.242425 -0.755748 0.284820 0.117739 -0.727485 -0.677456 0.394091 -0.419796 0.886518 -0.196181 -0.427026 0.013492 -0.103100 -0.160692 -0.486273 -0.115162 1.260782 -0.460589 -0.026285 0.250290 0.769019 -0.036436 -0.221088 0.328122 0.015846 -0.186914 0.372994 -0.033112 0.127207 -0.011924
topic 0.024705 0.042406 -0.764913 0.218839 0.085431 0.234358 -0.219368 -0.002560 -0.127762 -0.513851 -0.097877 -0.560823 -0.075635 -0.349385 0.582261 -0.141093 -0.534017 0.695317 1.029976 -0.007957 -0.033208 -0.105425 -0.365715 -0.076468 0.531541 -0.903640 0.068295 0.097235 -0.014151 0.217526 0.818588 -0.753097 0.393540 -0.000967 -0.577605 -0.199077 0.178476 0.201225 0.595967 0.450283 0.271274 -0.431875 0.004022 -0.170593 -0.371736 0.624552 0.217844 -0.019128 0.396715 0.183042
closest 0.880629 -0.309345 0.520493 0.013440 0.192728 0.618359 0.165726 0.473917 -1.384721 -0.651999 0.361542 -0.854583 0.152354 -0.117019 -0.638549 0.644878 -1.130443 0.591861 -0.063548 0.099605 0.398066 0.640811 -0.246829 -0.547184 0.249706 -0.314825 0.572102 0.678848 -0.391982 0.975958 -0.355889 0.668528 0.411192 -0.682078 -0.094880 0.191145 -1.054976 -0.576286 -0.838845 -0.227060 -0.112730 0.182816 0.062294 -0.128556 -1.141290 -0.911199 -0.345491 0.176244 0.200834 -0.859632
easili 0.443169 -0.337302 0.287278 -0.087581 0.427236 0.059127 0.238280 -0.130855 -0.592203 -0.430549 0.193534 -0.092661 -0.061272 0.316220 0.211412 -0.188238 -0.138134 0.180280 0.580996 -0.091413 -0.275844 -0.221689 -0.182980 0.257527 0.080456 -0.109185 -0.460707 0.022934 0.333926 -0.092842 0.523592 -0.474406 0.017359 -0.090520 -0.352220 -0.233638 0.756843 0.074836 -0.008082 -0.057626 0.584581 -0.669639 0.248491 -0.838122 -0.051481 0.408879 0.407957 -0.157538 -0.110019 0.672848
set 0.657047 -0.642212 -0.238031 -0.256373 0.639270 0.136266 0.310376 0.149203 -0.651257 -0.043844 -0.293893 0.029410 -0.229288 0.339188 -0.082362 0.722163 0.055934 0.445625 0.081522 0.033366 -0.463628 0.699338 0.393906 -0.382499 -0.024065 0.010389 0.837326 0.215314 1.175013 0.927095 -0.583089 0.130760 -0.344724 0.543602 -0.646512 0.466573 0.856402 -0.893739 -0.373683 0.715983 0.724490 0.086357 0.121868 -0.377020 -0.073693 0.151559 -0.366082 0.094288 0.634451 0.177297
call 1.112099 -0.026291 -0.401025 -0.639239 -0.046674 1.475708 -0.037932 -0.229401 -0.158644 0.501922 0.176887 0.069010 0.518530 0.182946 0.191711 0.077284 -0.130556 0.060086 0.041858 -0.242498 0.229141 -0.535227 0.494538 -0.149487 0.187811 -0.642325 -0.105551 0.352029 -0.075245 -0.042635 -0.107742 -0.406727 -0.210066 0.380569 0.068076 -0.065036 1.094851 -0.768270 -0.047656 1.213893 -0.340252 -0.264426 0.564955 0.029977 -0.046991 -0.551418 0.148682 -0.102622 0.141013 0.598443
classmat 0.600836 -0.868773 0.254373 0.056683 0.118988 -0.202514 0.395545 0.493526 -0.423576 -1.369050 0.092093 -0.197101 0.432194 0.802360 0.196600 -0.157332 -0.301301 0.566636 -0.101114 -0.075476 -0.432271 0.351771 0.142891 -0.439617 0.191413 -0.168655 -0.443628 -0.417645 -0.005314 -0.014144 -0.017321 -0.641289 0.315267 -0.746795 -0.774393 -0.064106 0.409327 -0.144576 0.034600 0.116756 0.121958 -0.385053 0.071798 -0.077957 -0.117655 0.050190 -0.073992 0.193751 -0.154886 0.158340
lot 0.701545 -0.174694 -0.153221 -0.035422 0.300910 0.323239 0.337502 0.340519 -0.356415 -0.569536 -0.041824 -0.351728 0.115492 -0.062539 0.271972 0.126099 -0.138785 0.178171 0.443969 -0.164190 -0.095590 0.027401 0.046457 -0.042290 0.149176 -0.251353 -0.131198 0.200131 0.781204 -0.129782 0.311948 -0.229427 -0.074896 0.059154 -0.399966 -0.127687 0.733861 -0.380292 0.141159 0.449930 0.180888 -0.232245 0.235218 -0.218254 0.115527 0.226094 0.162507 -0.008717 0.228153 0.491908
activ 0.840075 -0.185957 -0.344059 -0.020903 0.329271 0.136458 0.994530 0.820368 0.133249 -0.675390 -0.035967 -0.486114 -0.092994 -0.104382 0.715803 0.125710 0.076406 -0.115504 0.903230 -0.182724 0.403940 0.230797 0.408958 -0.186989 0.285590 -0.129880 0.435286 0.008898 0.518490 0.071676 0.237594 -0.801567 0.838343 -0.666471 -0.122655 0.243726 0.357411 0.232780 -0.344109 0.339108 -0.438563 0.541415 0.595216 0.155092 0.055520 0.158635 0.075783 0.064800 -0.156730 0.029268
commun 0.835080 -0.769140 0.609819 0.212157 0.343928 -0.427702 0.317566 0.304727 -0.384684 -1.258094 0.330017 -0.134759 0.243093 0.989963 0.094475 -0.030436 -0.446950 0.275167 0.062876 0.079154 -0.573103 0.113969 0.253728 -0.360997 0.251057 0.127813 -0.170143 -0.002296 0.166288 -0.219623 0.478853 -0.724092 0.146660 -0.648362 -0.208954 -0.519923 0.221917 0.014379 0.032341 -0.006267 0.004561 -0.277617 0.030226 -0.666589 -0.425118 -0.125322 0.099618 -0.046975 -0.267889 0.043516
structur 0.608623 -1.028089 0.197830 -0.044744 0.623607 -0.289425 0.623637 0.404020 -0.577700 -0.341908 -0.312768 0.227664 0.116747 0.161975 0.106243 0.199409 0.225620 -0.508999 0.177894 -0.080062 -0.252624 0.445948 0.399863 -0.105381 -0.075642 0.256765 0.159712 -0.087132 1.509316 -0.093451 -0.624662 0.643989 0.028483 0.167137 -0.324188 0.572460 0.540789 -0.180408 -0.168295 -0.155590 0.737166 0.256790 0.342275 0.107146 0.600936 0.277018 0.026610 0.215867 -0.222518 0.331449
read -0.231910 0.558513 -1.036345 -0.368575 0.117811 -0.014590 -0.085680 0.090458 -0.563689 -0.162510 0.084263 -0.436587 0.171133 -0.763696 0.060396 0.236871 -0.544621 0.685576 0.716585 -0.364995 0.051593 -0.373870 0.004012 0.685547 -0.532982 -0.592329 0.379331 -0.051908 0.885730 0.196277 0.597056 -0.384481 0.281829 -0.082629 -0.520076 -0.565466 0.411302 0.321595 0.199304 0.373912 0.898296 -0.288793 -0.263168 0.226794 -0.228467 -0.080328 0.437205 -0.252998 0.099192 -0.271686
flexibl 0.222792 -0.070853 -0.029162 -0.035064 0.168357 -0.347641 0.181832 0.633197 -0.503494 0.232662 -0.223543 0.200490 0.054390 -0.412686 0.024294 0.133806 0.068599 -0.309485 0.297783 -0.114752 -0.200037 0.021331 -0.270325 0.176867 -0.134595 -0.148199 -0.288226 -0.109265 1.070547 -0.095886 -0.437787 0.591879 -0.038033 0.622050 -0.159551 0.270643 0.834815 -0.461640 0.197166 0.002685 0.514745 0.146554 0.082631 -0.192119 0.858815 0.659046 0.033954 -0.409098 0.162192 0.446718
miss 0.594611 -0.105230 0.634051 0.512075 -0.208081 0.038274 -0.315768 0.014710 -0.572386 -0.108264 0.774760 -0.117561 0.062144 -0.324337 -0.093808 -0.537862 -0.395142 0.065187 0.255080 -0.293210 0.496096 -0.523060 -0.511659 0.217171 0.185045 -0.339085 -1.077954 0.083211 -0.463813 0.087900 0.316027 0.325345 0.623531 0.184818 -0.244923 -0.025560 0.149744 0.090776 -0.104896 -0.290993 0.855546 -0.280635 0.181964 -0.588725 0.152745 0.513666 0.572549 -0.156692 -0.048419 0.349141
actual 1.029318 -0.244189 0.182878 -0.138069 0.146361 0.577281 0.274239 0.558391 -1.191872 -0.691284 0.285388 -0.639711 0.269763 -0.054246 -0.471407 0.518512 -0.871945 0.566220 -0.177623 -0.077671 0.264977 0.388916 0.157456 -0.449476 0.079562 -0.424042 0.471350 0.347908 -0.142399 0.769598 -0.488364 0.373154 0.331300 -0.586205 -0.450781 0.285446 -0.282687 -0.679067 -0.632152 0.152187 0.000208 0.226558 0.267137 0.121479 -0.833812 -0.712472 -0.335659 0.366679 0.026597 -0.558518
access 0.375106 0.032981 0.435529 -0.062479 0.025107 -0.175076 0.118585 0.543796 -0.504749 0.055637 0.172947 0.567662 0.387999 0.176728 0.142717 -0.234329 -0.350061 -0.022431 0.029567 -0.320847 -0.312186 -0.555855 -0.138348 -0.146061 0.057788 -0.003081 -0.811874 0.126818 0.223255 -0.353791 0.205264 -0.148380 -0.140410 0.682239 0.065600 -0.228393 0.846469 -0.245026 0.182678 0.135258 0.344364 -0.448962 -0.176243 -0.864987 0.118585 0.786576 0.442299 -0.602079 0.003544 0.496489
complet 0.389778 -0.027923 -0.473226 -0.148960 0.328277 -0.178646 0.079987 0.052316 -0.101243 0.496900 -0.125769 0.315479 -0.214997 -0.265106 0.057701 0.373144 0.106638 0.538202 0.432494 -0.028890 -0.439584 0.082662 0.190561 0.145200 0.047892 0.038300 0.504176 0.029930 1.069090 0.786590 -0.297035 -0.104518 -0.294520 0.669322 -0.358927 0.052650 1.011950 -0.522408 0.118790 0.748237 0.446844 0.029148 -0.092514 -0.440907 0.518499 0.690792 -0.003235 -0.366542 0.778344 0.057614
connect 1.078506 -0.024872 0.733135 0.078222 -0.756215 0.062466 0.525417 0.831182 -0.141198 -1.049068 0.244557 -0.033459 0.691914 0.558007 0.127663 -0.502630 -0.069936 -0.394372 -0.935235 -0.219649 -0.322970 -0.244733 0.415334 -0.514755 0.371788 -0.099935 -1.240893 -0.345355 -0.496803 -0.700949 -0.156657 -0.676316 -0.337652 -0.132453 0.251582 -0.457262 0.671870 -0.669011 0.003342 0.101691 -0.388817 -0.606576 0.399539 -0.193745 -0.287532 -0.153872 0.126156 -0.042930 -0.031715 0.468467
rewatch 0.101580 0.305082 -0.123257 0.475188 -0.021349 0.078591 -0.573756 -0.212060 -0.626083 0.499228 0.731367 -0.069112 -0.358611 -0.996590 -0.073742 -0.554539 -0.621176 0.334811 0.989404 -0.175475 0.639713 -0.495679 -0.795515 0.700440 0.124776 -1.025645 -0.373082 -0.108353 -0.269795 0.260820 0.255129 0.509599 0.697176 0.281895 -0.088791 -0.112436 -0.009095 -0.089403 0.041456 0.158929 0.947096 -0.410956 0.041439 -0.538547 0.281681 0.598886 0.788404 -0.553017 0.313081 0.109995
forc 0.655387 -0.337918 0.211926 -0.139679 0.217411 -0.060453 0.989399 0.622351 0.000934 -0.246947 -0.584364 -0.294432 -0.287231 0.303885 0.229181 0.141768 0.905831 -0.932489 0.248398 -0.206900 0.099953 0.448829 0.259528 -0.134337 -0.253764 0.467018 -0.158900 0.087846 0.916025 -0.323356 -0.401671 -0.058616 0.029013 -0.064521 0.108038 0.545617 0.514991 -0.142928 -0.251769 -0.310613 -0.104028 0.525469 0.628393 -0.117574 0.446355 0.421938 -0.216920 0.123654 -0.157480 1.057418
particip 0.906718 -0.425111 -0.141195 -0.184993 0.259150 0.427417 0.936579 0.564093 0.101479 -0.510503 -0.144831 -0.379124 -0.058670 0.364742 0.606137 0.109911 0.298193 -0.477605 0.540275 -0.200530 0.354693 0.227476 0.559440 -0.388769 0.247027 -0.035671 0.271695 0.107616 0.177669 -0.112841 -0.043954 -0.644063 0.520141 -0.488503 0.163784 0.434186 0.254595 0.106455 -0.425553 0.111419 -0.610589 0.457089 0.840842 0.066364 -0.124638 0.043045 0.092407 0.224904 -0.216894 0.502325
follow 0.517150 0.011551 0.266055 -0.070437 0.445773 0.381658 -0.253772 -0.149751 -0.198492 0.309083 0.191431 -0.183704 -0.105741 -0.083226 0.078357 0.108448 -0.325679 -0.272932 0.610374 -0.196918 0.159536 -0.168106 -0.184263 0.302373 0.285740 0.048598 0.321924 0.317770 0.512547 0.029949 0.369039 0.135727 0.300991 0.277004 -0.149111 0.089223 0.684359 -0.094999 -0.026639 0.124499 0.855960 0.047785 0.400840 -0.741632 0.149522 0.576634 0.261261 -0.142123 0.358690 0.450307
hear -0.161495 -0.334177 -0.469719 0.175607 0.047304 -0.283174 0.032627 0.484469 -0.381692 -1.454068 0.212351 -0.482044 0.389879 0.233721 0.293768 -0.069091 -0.414054 0.761084 0.351232 -0.418546 -0.247758 0.087407 -0.324295 0.130598 0.106035 -0.711698 -0.313840 -0.239499 0.055647 -0.199818 0.860833 -0.824263 0.385797 -0.602011 -0.666936 -0.455884 -0.186789 0.483246 0.534084 -0.059749 -0.019704 -0.674850 -0.270331 0.229067 -0.121349 0.081454 -0.040491 -0.088042 -0.345811 -0.010824
attend 0.840313 -0.165115 0.554392 -0.272457 0.101377 0.335883 1.100629 0.748574 -0.493221 -0.027720 -0.230028 -0.252696 -0.135709 0.189674 -0.052763 0.143238 0.634854 -0.666604 0.165660 -0.497451 0.447300 0.168549 0.212075 -0.499956 -0.229115 0.110688 -0.403763 0.122366 0.509940 -0.272058 -0.751228 0.231056 0.093043 0.117842 -0.095072 0.635858 0.700741 -0.627299 -0.549976 -0.381801 -0.039417 0.321455 0.683288 -0.279747 0.384073 0.194277 -0.128571 0.158748 0.033051 1.104751
feedback -0.128963 -0.875132 0.126899 -0.260928 0.855664 -0.281255 0.727857 -0.091829 -0.171976 -0.741852 -0.222503 0.333912 -0.119293 1.473009 0.065619 -0.120368 0.022319 0.549413 0.111905 -0.042388 -0.706325 0.354996 0.257019 -0.713776 0.024211 0.343493 0.352482 -0.017959 0.172870 -0.158311 0.115282 -0.949977 -0.491007 -0.625535 -0.142533 -0.346294 0.116540 0.081659 0.134471 -0.027711 -0.425258 -0.472075 -0.315482 -0.486718 -0.194930 -0.059203 0.226611 0.146927 -0.137545 0.404674
im 0.697028 0.181082 0.036105 0.151251 -0.191988 -0.284377 0.164525 0.381693 -0.002744 -0.053739 0.383719 -0.503675 -0.160621 -0.349142 -0.048919 -0.009420 0.250598 -0.020618 0.157483 0.051544 0.593284 0.209102 0.168460 0.068631 -0.021576 -0.229663 0.261378 -0.078470 0.357489 0.126912 -0.143592 0.095191 0.862118 -0.040002 -0.119154 0.068244 0.435118 -0.250421 -0.397411 0.395314 0.547595 0.335943 0.665323 -0.185432 0.361769 0.118776 0.008322 -0.218454 0.298463 0.085095
focu 0.406164 0.301361 -0.092848 0.090510 0.364664 0.286545 0.312185 0.074531 -0.371840 -0.085572 -0.315832 -0.805369 -0.284719 -0.408613 0.005867 0.269598 0.202965 -0.243734 0.503095 -0.130013 0.108920 0.081050 -0.315464 0.542243 -0.041507 0.257830 0.155614 0.547098 1.025273 0.138745 0.335519 0.040229 0.001443 -0.156891 -0.401480 0.198763 0.458900 -0.085789 -0.077667 0.068533 0.625390 -0.112013 0.464782 -0.221917 0.169388 0.151514 -0.024039 0.191210 0.033293 0.530657
opportun 0.204720 -0.487889 -0.222940 -0.060850 0.383972 0.246324 0.536169 0.407893 -0.284936 -0.512302 -0.113676 -0.133599 -0.024772 0.423779 0.344704 -0.114694 -0.312761 0.250002 0.739222 -0.400595 0.106807 -0.045034 -0.029355 -0.459532 0.279397 -0.407963 0.086873 0.034235 -0.143191 -0.075870 0.145553 -0.447461 0.402506 -0.472476 -0.118967 0.183409 -0.081582 0.174499 0.073801 -0.254383 -0.340343 -0.094104 0.031980 -0.143146 -0.248214 0.281487 0.219619 0.099214 -0.012520 0.283668
directli -0.022858 -0.574276 -0.077168 -0.144737 0.611315 -0.215974 0.246195 0.025918 -0.659262 -0.764488 0.110880 -0.133495 -0.090480 0.721644 0.205041 -0.096265 -0.400068 0.606814 0.477803 -0.139192 -0.227270 0.190846 -0.021479 -0.102773 -0.014664 -0.358592 0.123559 -0.354086 0.137148 -0.034759 0.273776 -0.388547 -0.022270 -0.665576 -0.234052 -0.455581 -0.090768 0.179635 0.056186 -0.159655 0.550073 -0.505707 -0.246107 -0.223545 -0.328514 -0.135909 0.332778 0.031597 -0.174806 -0.074021
pressur 0.708991 -0.425867 -0.042596 -0.199466 0.019478 0.429050 0.121297 -0.223166 -0.380399 0.150918 0.386809 0.073668 -0.004240 0.383935 -0.128128 -0.082036 0.068527 0.482212 0.017276 -0.268102 -0.060125 -0.038624 0.308360 -0.125374 0.205441 -0.303601 0.137840 0.239169 -0.087957 0.207688 -0.255462 -0.183587 -0.145939 0.165207 0.095991 -0.099827 0.531263 -0.527088 -0.373635 0.656772 0.086165 -0.404472 0.204015 -0.513546 -0.048715 0.070859 0.435816 -0.286672 0.395713 0.385718
mean 0.484249 -0.384500 0.107472 0.112484 0.303590 -0.118491 0.098391 0.069298 -0.553639 -0.009022 0.078725 0.234326 -0.111353 -0.035227 -0.024447 0.092438 -0.200136 0.101777 0.289859 0.033729 -0.245734 0.054739 -0.015034 0.075772 0.042784 -0.073116 -0.162739 0.126099 0.378563 0.393374 -0.272833 0.080646 -0.123401 0.209957 -0.111366 0.166347 0.340418 -0.322926 -0.107267 0.091469 0.258779 -0.014429 0.037358 -0.359981 0.189658 0.339369 0.120935 -0.246847 0.102897 0.185131
subject 0.021234 0.449334 -0.486224 -0.049135 0.138100 0.175038 -0.048221 0.366632 0.098448 -0.347020 -0.296894 -0.374326 0.028377 -0.201001 0.372121 0.231005 -0.299758 0.336515 0.479871 0.016916 -0.196768 0.031164 -0.227455 -0.124948 0.469784 -0.374222 0.215474 0.110295 0.268296 0.324878 0.494795 -0.375956 0.328560 0.018988 -0.490486 0.099548 0.396504 0.021618 0.333360 0.552156 0.044165 -0.183987 0.023740 0.127082 -0.040141 0.295329 -0.041068 0.292463 0.352987 -0.002471
contact 0.425195 -0.379563 0.352187 0.241075 0.159587 -0.520802 0.578809 0.658254 -0.444881 -0.992128 0.307257 -0.162032 0.204994 0.785969 -0.131138 0.094193 -0.341918 0.249590 -0.353866 -0.135279 -0.235613 0.110888 0.245758 -0.206554 -0.055958 0.234844 0.059627 -0.296492 0.097260 -0.300876 -0.090743 -0.487813 0.329607 -0.821798 -0.409896 -0.236258 0.060766 -0.083885 -0.104023 -0.056838 -0.190224 0.142359 -0.069181 -0.215037 -0.224077 -0.483406 -0.421391 0.112741 -0.557666 -0.329284
respons -0.274699 -1.050511 0.150380 -0.491057 1.010270 -0.577121 0.340170 -0.400952 -0.163318 -0.267569 0.021134 0.559981 -0.377656 1.594093 -0.057244 -0.278999 -0.145160 0.324897 0.269516 0.153250 -0.401417 0.288403 0.302567 -0.741407 0.074481 -0.257115 0.650722 -0.152039 -0.001812 -0.458452 -0.095443 -0.158115 -0.465717 -0.116748 0.407767 -0.465671 -0.213322 0.010946 0.011347 -0.238536 0.265932 -0.380286 -0.337619 -0.598117 -0.254912 -0.139204 0.543873 -0.191458 -0.119741 0.119898
speed 0.016500 0.434317 -0.202186 0.561013 -0.279084 -0.181759 -0.559407 0.114628 -0.135989 0.596955 0.284957 0.066707 -0.159955 -0.850020 -0.004824 -0.417922 -0.471920 -0.151436 0.589580 -0.091804 0.344984 -0.253601 -0.754406 0.549950 0.119897 -0.719313 -0.363858 -0.066656 -0.113274 0.382802 -0.108951 0.273311 0.643186 0.436251 0.240221 -0.028947 0.074493 0.024562 0.198839 0.090220 0.440518 -0.060881 -0.087566 -0.263114 0.620598 0.673061 0.402426 -0.712990 0.178122 0.187237
part 0.449265 0.158164 0.402199 0.692693 -0.237025 -0.183019 -0.374093 0.079155 -0.155547 -0.108315 0.805788 -0.214865 -0.256655 -0.654014 -0.148818 -0.519115 -0.394833 0.090768 0.366433 0.135156 0.796713 -0.285482 -0.567978 0.206037 0.236234 -0.640473 -0.360362 -0.218471 -0.410386 0.128309 0.228184 0.636860 1.016307 -0.044647 -0.276411 0.071347 -0.158864 -0.266057 -0.164331 0.157720 0.821629 -0.165431 0.375613 -0.494283 0.222151 0.401329 0.445437 -0.079652 0.327676 -0.088058
rewind 0.434836 0.272266 0.142417 0.792180 -0.362580 0.000541 -0.835820 -0.275436 -0.208395 0.473819 0.856791 -0.254435 -0.240324 -0.986071 0.057501 -0.731712 -0.378617 -0.019503 0.846357 -0.091500 0.431284 -0.299592 -0.679683 0.827683 0.257187 -0.676082 -0.826546 0.090365 -0.242423 0.294491 0.396220 0.276133 0.695792 0.307757 0.111533 -0.416296 0.221190 0.117195 0.144891 0.116413 0.734989 -0.247264 0.089320 -0.548770 0.567611 0.566247 0.729845 -0.703877 0.185631 0.245916
chat 0.502766 -0.561992 -0.433768 -0.623319 0.145102 1.041872 0.167576 -0.247820 -0.084297 0.038109 -0.111437 0.013140 0.343858 0.702010 0.497119 -0.160172 -0.226104 -0.001365 0.442272 -0.273984 0.069960 -0.427315 0.323283 -0.590685 0.169443 -0.914249 -0.086070 -0.043205 -0.626792 -0.268168 -0.149935 -0.797735 0.027345 -0.054750 0.157710 0.214028 0.758571 -0.211360 0.047304 0.586084 -0.339380 -0.301211 0.533417 -0.057421 -0.306212 -0.058077 0.442735 -0.045588 0.000748 0.926262
abil 0.352955 -0.614003 0.127657 0.338420 0.507951 -0.085312 0.161784 0.120073 -0.315590 -0.387000 0.321030 -0.088750 -0.404478 0.413961 0.373285 -0.486564 -0.383269 0.313989 1.070901 -0.194347 -0.017634 0.108328 -0.334331 -0.072525 0.383960 -0.408247 -0.100524 0.033136 0.023249 0.231353 0.305552 -0.431595 0.493301 -0.340926 -0.010407 -0.197845 -0.042000 0.204308 0.027119 -0.040790 0.060655 -0.350012 -0.095222 -0.706350 0.098420 0.587569 0.633511 -0.328925 0.150377 0.349632
need 0.089006 -0.179736 0.183852 0.147570 0.177688 -0.198640 -0.208795 -0.281370 -0.309810 0.177454 0.386947 0.128280 -0.205181 -0.014520 0.067815 -0.426057 -0.195522 0.209390 0.634290 -0.074163 0.038287 -0.197351 -0.322431 0.319850 0.120737 -0.294747 -0.373149 -0.040011 -0.065467 0.076140 0.286445 -0.079285 0.169881 0.091375 0.166459 -0.468887 0.196061 0.197807 0.120077 0.005153 0.546959 -0.377516 -0.166024 -0.638720 0.295462 0.362893 0.621456 -0.511795 0.122245 0.240535
mode 0.237337 0.727358 0.021432 -0.788260 0.454310 0.574117 0.669324 0.969069 -0.632388 0.031782 0.119434 -0.077208 0.518559 -0.340032 0.034558 0.937118 -0.619186 0.091927 0.124953 -0.185678 -0.008776 -0.471383 0.019927 -0.095935 0.034432 0.084258 0.461702 0.257316 0.532775 0.039361 -0.083040 -0.078364 0.075307 -0.416592 -0.150995 0.337284 0.514155 -0.412759 -0.423199 0.426828 -0.267844 0.347705 0.255199 0.128163 -0.484587 -0.608070 -0.245666 0.204140 -0.056445 -0.380718
explan -0.501329 -0.004694 -0.577426 -0.038769 0.403276 0.063950 0.075477 -0.289529 -0.320466 -0.535361 -0.065341 -0.182191 -0.113455 0.006038 0.298554 -0.108985 -0.433912 0.763117 0.824075 -0.247170 -0.190649 -0.256446 -0.081836 0.137921 0.100030 -0.471024 0.012178 -0.181955 0.264153 -0.128292 0.897122 -0.604433 -0.155649 -0.325746 -0.386542 -0.553737 -0.034074 0.311862 0.466445 0.074679 0.451473 -0.607003 -0.437800 0.017016 -0.302253 0.283491 0.518555 0.033979 0.002507 0.003700
good 0.537980 0.146775 0.147325 -0.116058 -0.057703 0.518487 0.207717 0.398257 -0.467785 -0.137290 0.286578 -0.154424 0.205633 0.014022 0.081992 -0.323446 -0.519616 0.034373 0.348873 -0.343330 0.204714 -0.490857 -0.264519 -0.168020 0.236881 -0.575329 -0.584583 0.171296 -0.424266 -0.384645 0.187655 -0.148377 0.052125 0.029434 0.136732 -0.199214 0.477778 -0.255808 0.048944 0.105186 -0.033040 -0.355284 0.217255 -0.396583 -0.154521 0.059464 0.382904 -0.186921 0.038430 0.443100
concept -0.205052 0.311974 -0.650561 0.245990 0.387653 0.201622 -0.334289 -0.290030 -0.175662 -0.388762 0.055386 -0.580708 -0.212626 -0.346622 0.460787 -0.004622 -0.417808 0.596312 0.986048 0.005903 -0.148289 -0.078378 -0.313445 0.281036 0.286359 -0.512761 0.240025 0.375089 0.478065 -0.033628 1.264931 -0.684259 -0.032426 0.012649 -0.441918 -0.557492 0.045456 0.384377 0.399372 0.533162 0.509355 -0.598721 -0.160229 -0.135319 -0.433961 0.199757 0.404223 -0.025386 0.183386 0.006916
distract 0.475899 0.050627 0.444772 -0.122614 0.143482 0.404979 0.076549 -0.267048 -0.247577 0.142076 0.188721 -0.140471 -0.135551 -0.080831 0.205882 -0.198126 0.072817 -0.521388 0.347191 -0.090247 0.135810 -0.276210 -0.301800 0.492427 0.194094 0.125799 -0.399602 0.075064 0.098781 -0.079989 0.296523 -0.064593 0.113222 0.120534 -0.067037 0.173499 0.730885 0.008891 -0.179032 -0.107803 0.512314 -0.396776 0.608585 -0.742477 0.085795 0.452141 0.379392 -0.028988 -0.000027 0.893207
account 0.701636 -0.396056 0.654268 0.128384 0.144747 0.152233 1.008769 0.735706 0.242024 -0.233491 -0.417260 0.013293 -0.249665 0.177866 0.358038 0.233644 0.763508 -0.636594 0.331994 -0.195883 0.036079 0.406299 0.578237 -0.905824 0.137973 0.329859 -0.252458 0.295970 0.529062 0.313326 -0.568421 -0.187178 0.004218 0.149218 -0.305412 0.627867 0.476526 -0.440452 -0.509225 -0.229678 -0.660838 0.538084 0.361481 0.115581 0.540513 0.205638 -0.457562 0.296197 0.155847 0.594761
meet 0.430058 0.280778 -0.245884 -0.822221 0.173016 1.403891 0.302322 -0.223717 -0.378006 0.797058 -0.175149 0.141331 0.204619 -0.104786 -0.118765 0.421184 0.157396 0.080369 0.201560 -0.421100 0.244083 -0.343138 0.231921 -0.069418 -0.390423 -0.372225 0.007140 0.402367 0.322912 -0.129819 -0.433440 0.349093 -0.743610 0.367632 -0.011200 0.230964 0.960795 -0.739472 -0.093336 0.542593 -0.107138 -0.001817 0.180425 0.164960 -0.093015 -0.517183 -0.077139 0.171035 0.068145 0.458417
hard 0.308012 0.747816 -0.346453 -0.380908 0.345057 0.739806 0.442328 0.197425 0.111431 0.132059 -0.407894 -0.909630 -0.043428 -0.281645 0.158704 0.327811 0.201059 -0.528961 0.382055 -0.320421 0.434382 -0.279847 -0.146568 0.284037 0.012963 0.069521 0.233641 0.708293 0.783044 -0.474944 0.498533 -0.243968 0.056960 0.022290 -0.371906 0.321487 0.880037 -0.155823 0.174439 0.330123 0.192724 -0.006183 0.764129 -0.080953 0.084028 -0.040348 -0.199287 0.378545 -0.076546 0.761064
nice 0.402096 -0.741431 0.090231 0.182662 -0.066001 -0.313054 0.048376 0.341154 -0.375943 -0.819285 0.140264 -0.049845 0.231973 0.441360 0.183146 -0.035255 -0.194457 -0.024993 -0.125007 0.092668 -0.392581 0.282552 0.072817 0.029343 0.018412 -0.171078 -0.407260 -0.582626 0.215136 0.109061 -0.236716 -0.241561 0.227655 -0.380825 -0.258130 -0.083594 0.141828 -0.127534 0.055245 -0.109224 0.234381 -0.241592 0.202378 0.054389 0.176686 0.143727 -0.146583 -0.076194 -0.107783 -0.036277
difficult 0.188528 0.415099 -0.456974 -0.078078 0.358372 0.560374 0.138501 0.159827 -0.171495 0.051200 -0.261776 -0.469755 -0.219451 -0.244816 0.295125 0.356257 -0.049250 -0.055512 0.523177 -0.102246 0.137387 -0.104959 -0.159510 -0.034855 0.201794 -0.337944 0.377711 0.498651 0.683186 0.000519 0.461307 -0.218469 -0.054148 0.585173 -0.531078 0.293140 0.737666 -0.275914 0.018257 0.580413 0.512793 -0.172184 0.413212 -0.310418 -0.160285 0.243184 -0.040571 0.196477 0.445344 0.644060
independ -0.213913 0.386141 -0.577485 -0.591401 0.344800 -0.183960 0.249934 0.427816 -0.126109 0.673796 -0.282992 0.442024 0.142041 -0.444138 -0.101586 0.790251 -0.062856 0.381281 0.062416 0.215153 -0.277501 -0.169323 0.035706 0.065131 -0.014115 0.068083 0.772855 -0.007659 0.933743 0.677773 -0.383392 -0.190638 -0.135588 0.500099 -0.217906 0.162572 0.954449 -0.303088 -0.067273 0.932485 0.088391 0.215400 -0.129715 0.054486 0.420639 0.081343 -0.298850 -0.336599 0.504017 -0.282832
assign -0.078251 0.099292 -0.485776 -0.480746 0.222962 0.032125 0.089261 0.053283 -0.532626 0.174432 -0.073463 0.185621 0.002284 -0.204388 -0.062995 0.327791 -0.212308 0.651961 0.369329 -0.080471 -0.240031 0.016162 0.138861 0.022695 -0.266065 -0.459989 0.180793 -0.240429 0.642597 0.384671 -0.246587 -0.075387 -0.320221 0.327334 -0.336686 -0.199381 0.620069 -0.395444 0.126492 0.277709 0.402920 -0.196947 -0.186289 -0.026600 0.082287 0.076240 -0.004601 -0.257071 0.342114 -0.164235
stop 0.298409 0.184375 0.023295 0.125030 -0.229795 0.161002 -0.305238 -0.028686 -0.292058 0.447861 0.454518 -0.110688 -0.203844 -0.530373 0.112218 -0.339308 -0.161718 -0.156837 0.734229 -0.244482 0.426306 -0.415357 -0.422282 0.367362 0.022860 -0.712123 -0.573916 -0.099809 -0.088462 -0.069695 0.216503 0.147519 0.498418 0.361771 0.097398 -0.114771 0.535859 0.040478 0.071937 -0.037870 0.502274 -0.135785 0.305246 -0.509771 0.477269 0.483526 0.450828 -0.590678 0.153298 0.597436
routin 0.375105 -0.785737 0.404096 0.109072 0.168662 -0.385193 0.397866 0.186881 -0.274730 -0.223292 -0.473584 0.075104 -0.162395 0.043070 -0.081649 0.295536 0.426511 -0.788651 -0.345970 0.185586 -0.301717 0.862820 0.178470 -0.077238 -0.098559 0.471141 0.204033 -0.117239 0.963444 0.088100 -0.709510 0.898732 -0.287840 0.290215 -0.071822 0.746195 0.074103 -0.264719 -0.333733 -0.296507 0.603274 0.423235 0.289629 -0.010304 0.323666 0.370560 -0.210583 0.182082 0.090378 0.341575
method 0.411054 0.393261 -0.099898 -0.411206 0.255627 0.442759 0.333370 0.578628 -0.289915 0.026184 0.040676 -0.213140 0.256583 -0.229500 -0.024241 0.576352 -0.405997 -0.006979 0.157472 -0.041419 0.094828 -0.179015 0.097652 -0.157492 0.067404 -0.136025 0.584881 0.339892 0.403977 0.203064 -0.034446 0.014368 0.203131 -0.147080 -0.095746 0.209681 0.388326 -0.393849 -0.304232 0.560230 -0.111752 0.289867 0.279839 0.028354 -0.311613 -0.409407 -0.232942 0.072858 0.241761 -0.116173
idea 0.079230 -0.575362 -0.477664 0.071012 -0.215524 0.509628 0.197902 -0.409098 0.592903 -0.761210 -0.088598 -0.528331 0.120957 0.890343 0.532254 0.009440 0.064892 0.149480 0.351046 -0.001514 -0.116293 0.260980 0.381400 -0.517359 0.481263 -0.445555 0.098974 0.096320 -0.556138 -0.027876 0.545017 -1.345256 0.073920 -0.366127 -0.041968 -0.131738 -0.264312 0.534610 0.428944 -0.017904 -0.827691 -0.173973 0.451954 0.029009 -0.331043 -0.097253 -0.404982 0.325976 0.049446 0.394757
speak -0.138706 -0.080555 -0.153199 -0.153633 0.090738 0.042659 -0.132271 0.274059 -0.254990 -0.658910 0.123179 -0.278539 0.332369 0.420398 0.194905 0.057071 -0.413274 0.358020 -0.031556 -0.044704 -0.203774 -0.094598 -0.317521 -0.141542 0.105525 -0.426099 -0.343162 0.069770 -0.302711 -0.164803 0.578018 -0.505170 0.002127 -0.246194 -0.117932 -0.441280 -0.004308 0.185663 0.226462 0.056835 -0.308409 -0.587306 -0.262218 -0.022890 -0.289644 -0.359914 -0.046747 -0.084264 -0.283812 0.114511
attent 0.815393 -0.047604 0.233859 0.182445 0.113299 0.174572 0.252850 0.202164 0.195541 -0.408902 -0.167426 -0.853931 -0.261114 0.009088 0.166931 -0.218333 0.744214 -0.991085 0.570008 -0.262174 0.175389 0.191771 -0.065574 0.692846 -0.334923 0.476179 -0.553423 0.289457 0.851850 -0.410120 0.515779 -0.049495 0.272627 -0.617791 0.124243 -0.056081 0.341814 0.152558 0.169153 -0.404751 0.267134 0.505630 0.532103 -0.061235 0.284129 0.264122 -0.081076 0.293529 -0.279935 0.962048
detail -0.113608 0.169032 -0.513814 0.189517 0.081586 0.141213 -0.294229 -0.224284 -0.403607 -0.243070 0.231162 -0.503716 0.022013 -0.424341 0.055300 -0.093116 -0.603858 0.543704 0.788007 -0.420209 0.027760 -0.268395 -0.092891 0.382678 -0.046340 -0.514652 -0.132793 0.002903 0.234164 -0.052576 0.664488 -0.066518 0.245079 -0.247746 -0.181761 -0.590224 -0.036326 0.349211 0.272458 -0.219538 0.602585 -0.281041 -0.392142 0.028328 -0.216861 0.228545 0.555745 -0.146685 0.024617 -0.108197
home 0.501957 -0.131994 0.129866 -0.074827 0.062297 0.011421 0.057618 0.001651 -0.024412 0.182393 -0.068905 -0.146830 -0.149966 -0.093301 -0.128518 0.247045 0.383451 -0.404894 -0.370435 0.228381 0.042361 0.450195 0.038356 0.009713 0.052215 0.213589 0.402344 0.172505 0.379354 0.479296 -0.413627 0.151588 0.037320 0.315697 -0.053741 0.387278 0.565092 -0.359880 -0.411859 0.207322 0.221883 0.132347 0.453139 -0.277268 0.208681 0.128931 -0.230697 -0.087618 0.282167 0.395445
environ 0.678359 -0.154371 0.035158 -0.096580 0.265965 0.250171 0.049911 0.351829 -0.336168 -0.381365 -0.165851 -0.334243 0.256869 -0.097207 -0.179055 0.804304 -0.230277 0.273334 -0.503116 0.385911 -0.278156 0.839447 0.272883 -0.313677 0.136471 0.354728 0.822432 0.415302 0.473574 1.091491 -0.392545 -0.072787 -0.028541 -0.256999 -0.338514 0.291563 0.113054 -0.429041 -0.499394 0.597286 -0.214174 0.327008 0.164041 0.379522 -0.386186 -0.699681 -0.810754 0.276869 0.233155 -0.607007
specif 0.389739 -0.519452 -0.065921 -0.078144 0.289388 -0.009541 -0.008291 0.015640 -0.197031 0.088802 -0.187188 0.194529 -0.179521 0.372884 0.165251 -0.015691 0.033396 -0.083571 0.269426 0.094710 -0.163248 0.301044 0.079262 -0.449068 0.141657 -0.393947 0.080464 0.207097 0.315003 -0.002853 -0.259675 0.042082 -0.324601 0.573110 0.186838 0.108101 0.315295 -0.365123 -0.021906 0.261864 0.069175 -0.175832 0.074886 -0.521259 0.139756 0.238557 0.138212 -0.341429 0.316735 0.537020
write 0.157050 -0.076243 -0.260143 0.000646 -0.010541 0.049007 -0.574357 -0.540621 -0.411900 0.113043 0.458780 -0.330569 -0.178730 -0.077326 0.075461 -0.519773 -0.228096 0.222237 0.791731 -0.312283 0.205599 -0.309257 -0.231059 0.371417 -0.135707 -0.998184 -0.654834 -0.094768 -0.218570 -0.296738 0.460546 -0.043786 0.079057 0.233814 0.292180 -0.754256 0.398803 0.203547 0.281491 -0.271374 0.813904 -0.480368 -0.126735 -0.603695 0.250325 0.196507 0.771259 -0.693257 0.059356 0.499149
bit 0.894129 -0.407580 0.521709 0.249904 -0.029534 0.300470 0.077710 0.024781 -0.540882 -0.318267 0.505599 -0.401048 0.013119 -0.143771 -0.193840 -0.081541 -0.337305 -0.081233 0.111627 0.078707 0.494930 0.066846 -0.064295 -0.050558 0.245387 -0.185776 -0.029898 0.094831 -0.063519 0.135379 -0.184134 0.538992 0.545000 -0.312146 -0.237658 0.295366 -0.138970 -0.395379 -0.463257 0.009022 0.462465 0.007876 0.683088 -0.152567 -0.053477 -0.003742 0.134288 0.210255 0.142032 0.018340
social 0.443989 -0.343595 0.505671 0.072164 0.074432 0.132827 0.478000 0.148080 0.215289 -0.473043 0.172183 -0.011149 0.165893 0.630079 0.054330 -0.202697 0.004782 -0.251429 -0.353113 0.142671 0.031488 0.007929 0.205433 -0.217742 0.246265 0.547987 -0.024737 -0.224248 -0.178025 -0.309937 -0.105532 -0.158995 0.351199 -0.777949 -0.160025 0.182367 -0.068134 -0.081644 -0.226756 0.041875 -0.313567 0.108909 0.481612 0.152993 0.179290 -0.240555 -0.258792 0.489958 -0.204611 -0.098437
take 0.320042 0.049928 -0.136313 -0.173544 -0.115899 0.079877 -0.318036 -0.131865 -0.170058 0.126516 0.169516 -0.272528 -0.036916 -0.186850 0.171160 -0.044181 -0.080043 0.138280 0.515193 0.038818 0.165115 -0.113271 0.082086 -0.147507 -0.010400 -0.709732 -0.322278 0.263189 -0.049172 -0.234448 0.363496 -0.027029 -0.086094 0.651615 0.162483 -0.396490 0.462150 0.047472 0.067860 0.046941 0.310149 -0.114361 0.167360 -0.452857 0.099013 0.103974 0.285044 -0.483438 0.156931 0.439847
taught 0.227436 0.091551 -0.307590 0.071549 0.218095 0.055601 -0.108293 0.003345 -0.418056 -0.418658 0.324504 -0.317254 -0.068156 -0.496884 0.031848 0.240802 -0.409813 0.714011 0.461885 0.040768 -0.013271 0.172648 0.162063 0.374311 0.146139 -0.081044 0.564911 0.016616 0.424928 0.639792 0.383538 -0.105590 0.317225 -0.466074 -0.494722 -0.140547 -0.192830 -0.059070 -0.077408 0.468163 0.491049 0.049103 -0.106627 0.229507 -0.457320 -0.071181 0.082299 0.224379 0.249937 -0.800361
stay 0.316717 0.443280 0.192527 0.334086 0.029372 -0.107798 0.372136 0.039885 0.756086 -0.519943 -0.503351 -1.003660 -0.347378 -0.329882 0.337333 0.077529 0.937079 -1.046416 0.139710 0.050156 0.063583 0.397176 0.045379 0.554252 0.229343 0.757567 -0.001945 0.339841 1.215208 -0.512139 0.537698 -0.335431 0.157624 -0.136098 -0.541419 0.209954 0.597363 0.222776 0.350974 0.042157 0.284504 0.316810 0.798938 -0.027940 0.672908 0.291435 -0.462737 0.631169 -0.205645 0.598570
concentr 0.515042 0.380244 -0.090866 0.080432 0.139219 0.458632 0.268383 0.136433 0.314243 -0.048824 -0.322785 -0.868150 -0.203931 -0.200261 0.269055 0.099810 0.404425 -0.815592 0.435474 -0.215843 0.318672 -0.031042 -0.182148 0.405374 0.123710 0.273384 0.041850 0.627403 0.784842 -0.430794 0.469515 -0.168915 0.201312 0.024808 -0.251293 0.289892 0.542630 0.037128 0.188632 0.135620 0.057708 0.177376 0.726259 -0.156335 0.369042 0.157194 -0.170199 0.289485 -0.134617 0.825044
experi 0.629622 0.125124 0.065454 -0.228465 -0.041740 0.584715 0.204696 0.565493 -0.540336 -0.255870 0.198813 -0.343527 0.417893 -0.170734 -0.306083 0.401679 -0.518400 0.222893 -0.242675 -0.114298 0.267428 0.153822 0.068137 -0.224093 -0.007196 0.000415 0.207002 0.196393 -0.105000 0.419601 -0.229297 0.296972 0.338496 -0.452664 -0.036088 0.153188 -0.089063 -0.432296 -0.334033 0.201496 -0.288060 0.264855 0.087393 0.357120 -0.413604 -0.780616 -0.392949 0.149388 -0.129786 -0.505730
option 0.512330 -0.015780 0.285246 -0.055269 0.001592 0.472771 0.158807 0.304905 -0.820631 0.083561 0.344203 -0.231444 0.009444 -0.314888 -0.225376 -0.006012 -0.455268 0.070655 0.278338 -0.192079 0.382115 -0.107553 -0.443417 0.037829 0.064684 -0.445557 -0.182800 0.154010 -0.238216 0.323678 -0.314090 0.422606 0.364065 -0.057608 -0.077355 0.197354 0.103810 -0.394738 -0.335216 -0.055120 0.208868 -0.114272 0.292446 -0.278615 -0.083763 -0.007531 0.175687 -0.119008 0.093265 0.185038
peer 0.389328 -0.485953 -0.200665 0.057742 0.216223 0.180097 0.316936 0.378856 0.102735 -0.820491 -0.037171 -0.314193 0.178626 0.638005 0.358144 -0.286439 -0.274297 0.243874 0.185238 -0.174263 0.021219 0.118317 0.088849 -0.377781 0.249745 -0.144906 -0.028917 -0.051263 -0.327822 -0.139458 0.129053 -0.703941 0.565207 -0.851804 -0.415787 0.062699 0.016949 0.200766 0.190545 0.000009 -0.553585 0.002400 0.090299 0.084309 -0.083906 0.020100 -0.062893 0.282352 -0.273740 0.101199
chanc 0.020691 -0.357358 -0.070813 -0.117927 0.435564 0.003977 0.304224 0.117947 -0.165437 -0.417948 -0.029504 -0.083737 -0.114503 0.449489 0.253380 -0.074913 -0.156349 0.378322 0.447044 -0.096953 -0.167458 0.078483 0.024069 -0.212901 0.135007 -0.147124 0.109998 -0.177598 0.124198 0.019599 0.196332 -0.368550 0.158892 -0.413727 -0.194535 -0.112027 0.044081 0.016864 0.047040 0.075811 0.063833 -0.232767 0.008595 -0.203741 -0.119958 0.178197 0.170662 0.064215 0.084481 0.054901
direct 0.181442 -0.550758 0.221936 0.063046 0.368323 -0.389252 0.620158 0.330485 -0.113357 -0.982799 0.028694 0.017799 0.149684 1.021171 0.038142 0.007269 0.028492 0.344095 -0.258091 -0.140190 -0.525764 0.202854 0.392402 -0.309630 -0.079244 0.531219 0.123756 -0.134731 0.299311 -0.184971 0.150371 -0.861758 0.059799 -0.814739 -0.379091 -0.316555 0.161730 0.136352 0.110449 -0.040940 -0.366761 -0.027257 -0.204642 -0.126096 -0.172004 -0.296049 -0.234512 0.253235 -0.436581 -0.079128
give -0.052514 -0.210879 0.053010 -0.219392 0.237318 0.033298 0.458569 0.260365 -0.461718 -0.277550 -0.030195 0.110917 0.105465 0.341189 -0.035822 -0.085663 0.012252 0.268032 0.049534 -0.299330 -0.166545 -0.094834 -0.004273 -0.116025 -0.076217 -0.081681 -0.317146 -0.139997 0.158176 -0.240957 -0.092972 -0.215265 -0.161886 -0.165037 -0.231189 -0.126339 0.511996 -0.119334 0.010310 -0.033765 0.059286 -0.368824 0.016871 -0.182842 0.231681 0.079260 0.128957 -0.019957 -0.138983 0.358108
fulli 0.185135 0.071335 -0.420087 0.461106 0.217026 -0.086032 -0.147445 -0.062615 -0.031440 -0.293073 0.150712 -0.438850 -0.458092 -0.414577 0.428811 -0.194288 -0.127779 0.372334 1.031078 0.005032 -0.151525 0.091414 -0.176649 0.337947 0.335437 -0.327139 0.103351 0.188204 0.579485 0.215716 0.760367 -0.424159 0.159244 0.063511 -0.471406 -0.213621 0.070133 0.154328 0.244723 0.426373 0.380480 -0.283127 0.084315 -0.223741 -0.035531 0.579255 0.371522 -0.085471 0.357979 -0.014627
stress 0.491434 0.287166 -0.033360 -0.357431 -0.206064 0.710204 -0.009826 -0.078181 -0.096194 0.435045 0.033140 -0.165817 0.177222 -0.244485 0.082481 0.199902 -0.008402 -0.251586 0.050886 -0.033572 0.196275 -0.318279 0.075258 0.070042 0.160267 -0.237621 -0.132676 0.372940 0.007720 -0.070934 0.053378 -0.138794 -0.133207 0.501285 0.076243 0.004392 0.714457 -0.245368 -0.127569 0.432014 -0.013993 -0.085824 0.582071 -0.062637 0.095883 -0.218722 -0.013933 -0.151368 0.103752 0.492642
tutor 0.354993 -0.701138 -0.054271 0.055969 0.230469 0.118551 0.197620 0.137252 -0.068471 -0.619342 0.049597 -0.212515 0.056273 0.731135 0.338450 -0.308233 -0.200614 0.206141 0.255768 -0.125123 0.019739 0.110638 0.099326 -0.445520 0.142733 -0.307832 -0.045101 -0.154633 -0.348832 -0.115594 0.068198 -0.437202 0.350485 -0.612078 -0.106535 -0.036375 -0.170162 0.098263 -0.001919 0.029652 -0.212797 -0.095998 0.072912 -0.024659 -0.171642 0.018989 0.190619 0.124845 -0.174667 0.194416
effici 0.310490 -0.022739 -0.194067 -0.123548 0.263574 0.148924 0.173724 0.134600 -0.128745 0.139941 -0.189839 -0.039972 -0.075334 -0.100962 0.141346 0.239582 -0.086760 0.033359 0.384727 0.033193 -0.062242 0.070667 -0.042373 -0.190850 0.136861 -0.223364 0.236574 0.316043 0.523237 0.157517 0.043062 -0.126288 -0.140256 0.440860 -0.106644 0.059694 0.515274 -0.178294 0.054443 0.363173 0.093101 -0.016335 0.119046 -0.251428 0.084713 0.219324 0.004247 -0.207783 0.356869 0.320247
moment 0.052271 -0.525296 0.059206 0.071015 0.295143 -0.003843 -0.082083 -0.276086 -0.136544 -0.047345 0.066390 -0.015412 -0.180357 0.518320 0.128557 -0.100646 -0.205631 0.085189 0.368291 0.000385 -0.084008 0.097707 -0.069903 -0.120346 0.161419 -0.287970 0.147748 -0.063540 -0.093218 0.092170 0.088010 -0.124641 0.094298 -0.096201 0.142187 -0.178451 -0.073289 0.157076 -0.119011 -0.076969 0.228166 -0.216538 -0.098033 -0.408168 -0.132149 0.053299 0.353257 -0.186056 0.086318 0.214150
freedom 0.039574 -0.111137 -0.083347 -0.005180 0.230186 -0.473826 -0.011200 0.166492 -0.043969 0.367649 -0.272951 0.288200 -0.093102 -0.274644 -0.009225 0.321971 0.090318 -0.260144 0.082155 0.158483 -0.291179 0.297779 -0.074366 0.140817 -0.047372 0.088889 0.326542 -0.014967 0.985499 0.270752 -0.390512 0.369469 -0.106538 0.612269 -0.016991 0.184392 0.415627 -0.184612 0.038885 0.149960 0.410552 0.289161 0.035130 -0.094923 0.618305 0.466104 -0.158178 -0.391501 0.234992 -0.004793
focus 0.336140 0.238607 0.024583 0.358334 0.016357 -0.291706 0.241595 0.152965 0.488583 -0.371613 -0.144100 -0.758078 -0.315328 -0.332451 0.252200 -0.081879 0.540269 -0.608112 0.341730 -0.011793 0.139076 0.329053 0.058880 0.457478 0.114764 0.418857 0.061175 0.163143 0.844368 -0.270161 0.372980 -0.236746 0.464030 -0.250076 -0.326256 0.087069 0.329758 0.245219 0.243181 0.013643 0.250934 0.385874 0.482578 -0.059631 0.567681 0.335355 -0.186174 0.229965 -0.153354 0.276124
immedi -0.464852 -0.891133 0.169037 -0.427882 0.775992 -0.036097 0.212059 -0.593418 -0.387107 -0.280076 0.066002 0.254250 -0.292014 1.331321 -0.069663 -0.246961 -0.194161 0.597108 0.230111 -0.169718 -0.194232 0.180044 0.102946 -0.404297 0.030722 -0.211882 0.304255 -0.156882 -0.500252 -0.284049 0.116947 -0.200692 -0.285336 -0.517745 0.243683 -0.370182 -0.579430 0.218239 -0.144023 -0.383368 0.073008 -0.716439 -0.451004 -0.522880 -0.603259 -0.215000 0.668020 -0.062132 -0.054138 0.126344
manag 0.253493 -0.075725 0.042551 0.189102 0.004913 -0.319476 -0.057395 0.155219 0.037628 0.092665 -0.249233 0.091020 -0.130750 -0.120933 0.085244 0.116668 0.204579 -0.202507 0.027872 0.173537 -0.288078 0.172897 -0.103441 -0.098122 0.041706 0.080185 -0.075531 0.409596 0.562276 0.017282 0.037543 0.135706 -0.314246 0.695751 0.030214 0.038560 0.309108 -0.230465 0.120856 0.268797 0.002683 0.049149 -0.030742 -0.446264 0.297090 0.425149 -0.078482 -0.334491 0.239959 0.304611
conveni 0.115840 -0.164881 0.003086 -0.000772 0.052797 -0.058693 -0.002027 0.030421 -0.322537 0.519379 -0.114489 0.336323 -0.163275 -0.003507 -0.003459 -0.096372 0.055010 -0.259461 0.124988 -0.119224 0.091465 -0.186875 -0.282765 0.004678 -0.090524 -0.303756 -0.188638 0.130131 0.116645 -0.118667 -0.245193 0.342322 -0.148537 0.748323 0.168555 0.132743 0.320923 -0.195183 0.012868 -0.109193 0.283952 -0.165743 0.049788 -0.638776 0.442435 0.600969 0.239142 -0.531443 0.145127 0.654899
convers 0.068222 -0.148010 -0.166287 -0.111000 0.276317 0.085375 0.159830 0.073529 0.005966 -0.361032 -0.023095 -0.009719 0.044391 0.264774 0.212132 -0.035524 -0.175833 0.220537 0.269900 -0.030123 -0.047878 -0.007880 0.161721 -0.181550 0.152705 -0.097702 0.148541 0.038709 -0.060118 -0.051993 0.265706 -0.398655 0.122191 -0.284089 -0.048853 -0.122416 -0.041094 0.239673 0.138698 0.075946 -0.271720 0.025217 -0.045332 0.079286 -0.255371 -0.129647 0.031859 0.095068 -0.174303 -0.161016
internet 0.350333 0.422959 0.623295 -0.003218 -0.722472 0.153391 0.286132 0.604721 -0.112157 -0.093620 0.138957 0.407851 0.489689 0.292968 -0.008805 -0.555867 -0.028862 -0.421641 -0.858985 -0.386748 -0.103787 -0.626042 0.015103 -0.334186 0.155194 0.012454 -1.339770 -0.116850 -0.749727 -0.756474 -0.172473 -0.285485 -0.588179 0.414789 0.432907 -0.267377 0.510234 -0.499375 0.098537 -0.123973 -0.403986 -0.634122 0.019454 -0.335616 -0.149915 0.107434 0.241001 -0.187439 -0.050817 0.558932
uni 0.559444 -0.360769 0.320741 -0.124437 -0.070797 -0.123345 0.385112 0.418948 -0.645150 -0.109521 0.222189 -0.105249 0.120402 0.045410 -0.483782 0.316449 -0.019436 0.241656 -0.372844 -0.099872 0.243720 0.340240 0.209038 -0.343655 -0.231855 -0.005046 0.125889 -0.189439 0.149930 0.298987 -0.791112 0.552321 0.300793 -0.100001 -0.189245 0.286782 0.128142 -0.626446 -0.547593 -0.082356 0.251113 0.182666 0.212744 -0.082468 -0.002622 -0.138709 -0.182171 -0.064617 0.187810 -0.099070
hour -0.341719 -0.368593 0.033668 -0.416617 0.270697 -0.438665 0.092346 -0.117072 -0.449144 0.569471 -0.095560 0.453328 -0.137461 0.426511 -0.168316 -0.001005 0.312174 0.003183 -0.119456 -0.090853 -0.117434 -0.044119 0.192647 -0.084838 -0.423168 -0.174239 -0.200280 -0.303559 0.248740 -0.264998 -0.590485 0.409895 -0.429943 0.646271 0.168379 -0.092759 0.314557 -0.156849 -0.026264 -0.499702 0.469265 -0.146717 -0.035554 -0.213586 0.439173 0.064768 0.091806 -0.461572 -0.110970 0.321569
life 0.769457 -0.912604 0.655531 0.217622 0.031600 -0.041653 0.001720 0.058981 -0.903903 -0.462207 0.263330 -0.255870 0.023019 0.432281 -0.411606 0.036447 -0.424862 -0.084785 -0.255648 0.200496 -0.029561 0.614749 -0.099990 -0.578719 -0.010069 -0.196732 0.003816 0.247340 -0.245590 0.411254 -0.598263 0.686859 0.028437 -0.059131 0.190310 0.119146 -0.530520 -0.516275 -0.558799 -0.397854 0.062502 0.068208 0.112843 -0.475214 -0.408308 -0.148968 0.013103 -0.056536 0.117106 0.064769
replay 0.353815 0.238988 0.162536 0.880281 -0.266329 0.002408 -0.669993 -0.222238 -0.163931 0.170302 0.810891 -0.289582 -0.418228 -0.993314 -0.077517 -0.704593 -0.513866 0.123461 0.720124 -0.008127 0.698961 -0.331406 -0.735489 0.517725 0.276267 -0.735902 -0.462009 -0.018571 -0.421993 0.267081 0.359966 0.593365 0.757832 0.099999 -0.149868 -0.079107 -0.326406 -0.177686 0.043881 0.146574 0.708258 -0.214373 0.107789 -0.451778 0.196549 0.551193 0.604286 -0.296642 0.414245 -0.085494
wait -0.780813 -0.751033 -0.070977 -0.817192 0.961168 -0.707307 0.150881 -0.806746 -0.333685 0.108537 -0.059461 0.756028 -0.426330 1.339643 -0.125046 -0.268923 0.170033 0.599202 0.152804 0.109481 -0.460927 0.008105 0.345166 -0.381238 -0.261220 -0.445071 0.373276 -0.585067 0.169103 -0.475543 -0.146533 -0.023976 -0.713046 0.235015 0.212326 -0.776292 0.141875 0.010264 0.145506 -0.381692 0.890811 -0.744856 -0.423670 -0.461048 0.060568 -0.066932 0.679270 -0.307125 -0.001367 0.120147
choos 0.056958 0.125950 -0.054544 0.049490 -0.086700 -0.478144 -0.011618 0.330346 -0.114424 0.517871 -0.296744 0.278948 -0.102547 -0.437817 -0.042543 0.229435 0.200639 -0.441080 -0.023751 0.231855 -0.200435 0.134158 -0.348279 0.227959 -0.090607 -0.058645 0.004699 -0.101036 0.761403 0.259963 -0.554649 0.533472 0.011978 0.776892 -0.019902 0.314092 0.581897 -0.397714 0.061399 0.107855 0.473659 0.188280 0.178634 -0.216167 0.816368 0.691108 -0.118921 -0.384979 0.321107 0.361118
present 0.098922 -0.137375 -0.205704 -0.053473 0.202180 -0.023409 0.388862 0.064473 0.001569 -0.237063 -0.206235 -0.122518 -0.106768 0.295159 0.141635 0.100611 0.200968 0.065715 0.168152 -0.093060 -0.178511 0.096880 0.147621 -0.037269 -0.021208 0.116177 0.056111 0.142546 0.385170 -0.084196 0.125323 -0.434699 -0.202016 -0.026897 -0.137839 -0.050099 0.314364 0.001866 0.050492 0.111853 -0.105216 -0.111074 0.095290 -0.132933 0.071216 0.108150 -0.075300 0.030542 -0.042124 0.313802
seminar 0.522880 -0.082095 -0.078387 -0.261400 -0.074941 0.827224 0.240312 0.468430 -0.455361 -0.011485 0.038762 -0.304561 0.305245 0.087844 -0.158429 0.213724 -0.522728 -0.018803 -0.166337 -0.319394 0.515260 -0.145638 0.049547 -0.542081 -0.020427 -0.427094 0.135841 0.230963 -0.697005 0.081704 -0.555884 0.229043 0.347562 -0.272225 -0.031851 0.600844 -0.114673 -0.341262 -0.272325 -0.232723 -0.501090 0.331342 0.317401 0.202158 -0.484428 -0.306100 -0.255533 0.232400 -0.098284 0.134713
import 0.428111 0.151859 0.018387 0.296624 -0.119756 0.164563 -0.296280 0.349577 -0.016827 -0.284196 0.428722 -0.296069 0.281485 -0.222795 0.044831 -0.076180 -0.551848 0.101605 0.178368 -0.095608 0.356397 -0.278269 -0.269040 -0.011905 0.326123 -0.219618 -0.161574 0.211579 -0.262769 0.305033 0.426854 -0.090374 0.911963 -0.148985 -0.288914 0.140729 0.076969 0.227206 0.013558 0.232204 0.128594 0.116822 0.079500 -0.009884 -0.084282 0.093191 0.080517 0.093801 -0.073632 -0.115172
instructor 0.085513 -0.260771 0.076873 -0.194280 0.362280 -0.036541 0.407084 0.463650 -0.227628 -0.603162 0.195205 -0.018328 0.082791 0.653188 0.170942 -0.354610 -0.243419 0.425488 0.351234 -0.322402 -0.077958 -0.186889 -0.183437 -0.317066 0.020320 -0.224453 -0.226245 -0.282387 -0.269486 -0.322930 0.143339 -0.442495 0.355037 -0.723889 -0.140610 -0.126606 0.180925 0.009950 0.032314 -0.017366 -0.273983 -0.348552 -0.082500 -0.192560 -0.102137 -0.057198 0.254289 0.067907 -0.243988 0.214629
visual -0.418452 0.878587 -0.740971 0.413603 -0.169245 -0.233786 -0.359507 0.223264 0.338990 0.313465 -0.014011 -0.180821 0.020570 -1.110429 0.231845 -0.042742 -0.195954 0.158238 0.472633 0.243620 0.175125 -0.200964 -0.211248 0.792316 0.084156 -0.064944 0.173785 0.060382 0.445650 0.334002 0.591387 -0.527115 0.444016 -0.057006 -0.253248 -0.341908 -0.039220 0.594177 0.430046 0.601162 -0.033308 0.307446 -0.126812 0.632431 0.434723 -0.161344 -0.255990 -0.319107 -0.135565 -0.640203
close 0.833729 -0.224936 0.514067 -0.178846 -0.038230 0.324144 0.544349 0.809796 -0.999195 -0.665585 0.256742 -0.490477 0.498061 0.092281 -0.545679 0.701690 -0.742817 0.167843 -0.561716 -0.005948 0.255477 0.314379 0.277688 -0.449880 -0.085059 0.087904 0.280008 0.058819 -0.202435 0.310967 -0.597359 0.527742 0.254953 -0.756767 -0.090018 0.236463 -0.604580 -0.515563 -0.683676 -0.234716 -0.364747 0.502512 0.245274 0.376355 -0.809054 -1.048284 -0.585532 0.283409 -0.312771 -0.684788
point -0.263136 -0.269653 -0.139316 0.065178 0.153488 -0.040315 -0.403262 -0.362829 -0.048772 0.165932 0.180756 0.097620 -0.149380 0.163851 0.036303 -0.405438 -0.056925 0.284325 0.259307 -0.077949 -0.015100 -0.135509 -0.273494 0.141996 -0.001529 -0.381765 -0.152909 -0.059328 -0.348916 -0.067052 0.205943 0.038326 0.031540 0.157047 0.109150 -0.121340 -0.129305 0.112009 0.188928 -0.026795 0.326811 -0.393500 -0.201139 -0.197616 0.114704 0.284891 0.494975 -0.202166 0.076294 0.123066
product 0.584391 0.067052 0.080101 -0.051875 -0.182875 0.067895 0.221888 0.225333 0.105217 0.152841 -0.085053 -0.146106 0.007588 -0.062903 -0.091328 0.270569 0.483329 -0.330544 -0.318194 0.085736 0.080373 0.223680 0.331326 -0.117131 -0.084737 0.174503 0.200821 0.127725 0.498958 0.084954 -0.400929 0.122039 0.015552 0.315876 -0.115343 0.330059 0.605428 -0.562019 -0.266442 0.442051 0.154881 0.312982 0.493495 -0.071924 0.282443 0.042986 -0.257427 0.066302 0.305413 0.339901
awkward 0.523068 0.166729 -0.118507 -0.390876 0.021701 0.916519 0.110433 -0.070487 -0.195614 0.273061 0.059595 -0.099448 0.268559 0.128178 0.068206 0.058725 0.006293 -0.209506 -0.041764 -0.185491 0.290642 -0.444277 0.172764 -0.046369 0.011457 -0.285167 -0.079532 0.312967 -0.071588 -0.225210 0.129477 -0.168379 -0.049012 0.150297 -0.028046 0.055820 0.713702 -0.415629 -0.046866 0.645531 0.079214 -0.190843 0.547607 -0.080193 -0.093235 -0.313180 0.115511 0.066220 -0.002610 0.505932
procrastin 0.210427 0.121782 0.190611 0.122284 -0.162481 -0.021539 0.088283 0.112639 -0.161385 0.232720 0.148636 -0.197503 -0.199383 -0.191578 -0.010504 -0.342880 0.122628 -0.497461 0.275490 -0.333641 0.431215 -0.230054 -0.261329 0.236882 -0.158146 -0.191324 -0.398107 -0.063622 -0.056193 -0.354588 -0.019860 0.327899 0.371358 0.137363 0.163886 0.115948 0.130410 0.019556 -0.077363 -0.475309 0.430925 0.027637 0.275135 -0.354207 0.307559 0.348846 0.261116 -0.214475 -0.076067 0.673914
suit 0.387095 -0.029275 0.070423 0.264670 -0.089438 -0.405168 -0.125360 0.366177 -0.288807 0.337623 -0.049403 0.165675 -0.092108 -0.508083 -0.011138 0.144202 -0.017782 -0.284693 0.166911 0.139735 -0.149880 0.240166 -0.258908 0.145458 -0.026102 -0.124117 -0.166516 0.174119 0.693438 0.407743 -0.383246 0.474138 0.026434 0.787556 0.088191 0.127764 0.383148 -0.320070 -0.037057 0.182818 0.432995 0.164855 0.090139 -0.312826 0.630887 0.501208 -0.081280 -0.562800 0.270774 0.187739
task 0.172286 -0.016280 -0.380334 -0.014998 0.158806 -0.133496 -0.170725 -0.120544 -0.021487 0.264197 -0.156839 0.217668 -0.236228 -0.279973 0.088140 0.353704 0.130555 0.426559 0.298485 0.120318 -0.478370 0.228848 0.171449 0.104057 0.049386 0.111093 0.437777 0.085090 0.860741 0.681780 -0.163292 0.036969 -0.445190 0.648999 -0.309372 -0.020053 0.535528 -0.421222 0.128288 0.555273 0.427850 0.026310 -0.225560 -0.311814 0.170991 0.483801 -0.004930 -0.175082 0.704181 -0.119688
group 0.467818 -0.147568 -0.478562 -0.387102 -0.245700 0.751719 -0.006876 0.070760 0.472321 0.113204 -0.119759 0.000848 0.398046 0.397185 0.351586 0.074025 -0.011535 0.098687 -0.134363 -0.006186 0.064514 -0.249731 0.362299 -0.697263 0.388021 -0.251090 0.046983 0.018092 -0.593711 -0.030536 -0.130365 -0.738825 0.033708 0.055058 0.093213 0.219112 0.495120 -0.114195 0.159049 0.503142 -0.888555 0.046406 0.419578 0.219043 -0.110534 -0.095660 -0.317489 0.205119 0.226223 0.316087
session 0.399266 -0.269574 0.038902 -0.416843 0.087237 0.574980 0.516108 0.291640 -0.345069 0.169598 0.057120 0.298485 0.120162 0.490986 -0.061673 -0.329664 0.093607 -0.141928 0.012810 -0.627788 0.352991 -0.586642 0.034448 -0.388300 -0.148475 -0.324031 -0.301394 0.002847 -0.477649 -0.735898 -0.340520 0.025869 -0.016288 0.021060 0.269587 0.344165 0.502424 -0.325828 -0.028985 -0.046470 -0.323599 -0.199144 0.268749 -0.320916 -0.004890 0.186112 0.401611 -0.127725 -0.117367 0.945278
prerecord 0.350156 -0.111355 -0.170764 -0.205317 0.046580 0.306161 0.473045 0.567975 -0.829712 0.267960 0.131555 -0.021131 0.094788 -0.047003 -0.163742 -0.197868 -0.200819 -0.278204 0.328645 -0.607485 0.489233 -0.371769 -0.176520 0.199821 -0.389564 -0.460593 -0.343977 -0.315495 0.045241 -0.243280 -0.654775 0.349810 0.511454 -0.140859 0.031769 0.352627 0.382703 -0.366267 -0.160686 -0.352604 0.270562 0.076231 0.291656 -0.157811 0.407756 0.298704 0.295303 -0.243037 -0.180477 0.592914
straight -0.462688 -0.668195 -0.152480 -0.305108 0.680173 -0.167733 -0.154594 -0.584598 -0.075641 -0.004609 0.119153 0.148259 -0.417306 1.003791 -0.053630 -0.407679 -0.140364 0.525651 0.403873 -0.136902 -0.030887 0.054481 -0.034158 -0.260740 0.023529 -0.418489 0.496783 -0.106009 -0.414496 -0.282954 0.243686 -0.050001 -0.065422 -0.260564 0.245642 -0.347838 -0.494430 0.203345 0.048714 -0.257777 0.255349 -0.583652 -0.410342 -0.466334 -0.328203 0.002934 0.685545 -0.145721 0.078832 0.054289
pay 0.773228 -0.022731 0.283605 0.251451 0.040943 0.129789 0.190215 0.105745 0.397626 -0.360770 -0.179048 -0.863024 -0.290800 0.027391 0.194544 -0.247941 0.792774 -1.064532 0.557812 -0.166807 0.170548 0.213936 -0.054491 0.629671 -0.247395 0.477162 -0.537902 0.224748 0.757184 -0.438586 0.574170 -0.095755 0.300636 -0.584495 0.217536 -0.126668 0.282660 0.215080 0.191810 -0.394968 0.232729 0.530869 0.592026 -0.070777 0.308815 0.306619 -0.102894 0.295934 -0.221883 0.979059
anxieti 0.242705 0.362571 0.094531 -0.454270 -0.092443 0.855101 0.266999 0.031016 0.061497 0.368141 -0.101567 -0.019887 0.278271 -0.004598 -0.034020 0.205124 0.067900 -0.380382 -0.311729 -0.128851 0.229223 -0.433828 0.095495 -0.028976 0.054855 0.132554 -0.130070 0.329681 -0.166556 -0.378619 -0.037347 -0.110106 -0.267132 0.154970 0.049432 0.133557 0.402285 -0.273807 -0.155565 0.286053 -0.544815 -0.035384 0.508993 0.138595 0.001210 -0.443558 -0.229389 0.156386 -0.087295 0.365599
effect 0.416083 0.199239 -0.322090 -0.196260 0.121549 0.357689 0.015271 0.284868 0.045574 -0.098660 -0.093032 -0.235952 0.180444 -0.147801 0.105035 0.484615 -0.257597 0.091869 0.101303 0.090151 0.021569 0.061542 0.218780 -0.182390 0.129172 -0.091135 0.551267 0.315359 0.341585 0.304723 0.085733 -0.222680 0.089346 0.025522 -0.079000 0.006481 0.299498 -0.175331 -0.023248 0.568779 -0.293355 0.225954 0.186155 0.184170 -0.179411 -0.344158 -0.297064 -0.025192 0.181060 -0.209648
opinion -0.348841 -0.021481 -0.279943 -0.019885 -0.142711 0.125776 -0.017434 -0.073097 0.324127 -0.599003 -0.001016 -0.228221 0.147573 0.261863 0.248168 -0.064309 -0.075490 0.385824 0.135525 -0.119212 0.061753 0.001119 -0.115897 -0.135941 0.256413 -0.323998 -0.003244 -0.056167 -0.565154 -0.186848 0.597489 -0.654482 0.228084 -0.409561 -0.161329 -0.149085 -0.413918 0.594497 0.396474 -0.211435 -0.493032 -0.225493 -0.016058 0.263039 -0.243578 -0.039084 -0.184796 0.192902 -0.142187 -0.038696
plan 0.006491 -0.256210 0.128715 -0.075948 0.232819 -0.565124 0.017558 0.193668 -0.171952 0.430159 -0.331286 0.432817 -0.009466 -0.112263 -0.182818 0.290557 0.198938 -0.471997 -0.185389 0.217352 -0.367158 0.203299 -0.049888 -0.078607 -0.070629 0.092942 0.171371 -0.092506 1.034496 0.004442 -0.629798 0.820238 -0.330366 0.901292 -0.013889 0.324664 0.614984 -0.442584 0.005933 0.006100 0.740908 0.220951 0.052934 -0.162155 0.682561 0.527605 -0.066976 -0.271131 0.298021 0.234856
powerpoint -0.488570 0.540216 -0.683416 -0.233981 -0.121612 0.073900 -0.184318 -0.065378 -0.575164 0.014064 0.348209 -0.262430 0.274342 -0.564853 -0.301981 0.045742 -0.601208 0.722408 0.260748 -0.552254 0.273625 -0.515858 0.019443 0.616669 -0.634668 -0.502375 -0.049738 -0.330109 0.068445 -0.167922 0.255334 0.043053 0.198507 -0.418440 -0.199769 -0.574214 -0.040839 0.262591 0.040816 -0.252916 0.569122 -0.255551 -0.514226 0.485850 -0.202841 -0.389741 0.372414 -0.117033 -0.250411 -0.547687
sens 0.717053 -0.626383 0.464671 0.214219 -0.218279 -0.240173 0.051802 0.218006 -0.310166 -0.640951 0.098168 -0.241668 0.293148 -0.050336 -0.176948 0.230627 -0.098696 -0.238811 -0.310316 0.179941 -0.183643 0.527035 0.414876 -0.102272 0.082956 0.263286 -0.042003 -0.098440 0.462071 0.164446 -0.319140 0.485265 0.066910 -0.169893 -0.136301 0.116918 -0.088469 -0.220289 -0.298622 -0.194118 0.237495 0.321091 0.206725 0.114979 -0.070115 -0.068644 -0.107482 0.128959 0.019671 -0.156340
anytim 0.078985 0.190059 0.173715 0.208089 -0.244423 -0.170926 -0.251658 0.060288 -0.425170 0.495829 0.324389 0.163574 -0.012422 -0.398541 -0.146777 -0.428326 -0.030221 -0.269364 0.149818 -0.230660 0.265274 -0.470127 -0.396576 0.524181 -0.256653 -0.386912 -0.623845 -0.185052 -0.019814 -0.206428 -0.150200 0.437845 0.281432 0.444554 0.187779 -0.190166 0.316601 -0.081008 0.032401 -0.216690 0.764623 -0.165837 0.080933 -0.432668 0.509952 0.546750 0.484893 -0.567259 -0.002302 0.429768
human 0.601107 -0.308236 0.324104 0.171367 -0.115398 -0.202763 0.496814 0.653449 -0.251624 -0.734899 0.200105 -0.152503 0.295582 0.432392 -0.055752 -0.099172 -0.253534 -0.112769 -0.320472 -0.089893 -0.033338 0.088815 0.207028 -0.257164 0.053688 0.134009 -0.196212 -0.385090 -0.021613 -0.164178 -0.294194 -0.173079 0.385734 -0.650926 -0.128694 0.020667 0.131618 -0.158312 -0.177250 -0.020101 -0.101798 0.117043 0.206320 0.041016 -0.077998 -0.124556 -0.134030 0.169646 -0.268415 -0.091105
requir 0.119530 0.094589 -0.138821 -0.122866 0.168741 0.032132 0.563592 0.330826 0.215405 0.043766 -0.306316 0.080451 -0.173999 0.019958 0.252368 -0.035089 0.337032 -0.238468 0.327981 -0.170054 0.098998 -0.032324 0.130672 -0.193374 -0.026600 0.096547 0.036170 -0.001759 0.381081 -0.223586 -0.127105 -0.103121 0.081593 0.070175 0.004278 0.267481 0.353451 -0.003204 0.008303 0.024037 -0.305233 0.226799 0.135148 0.038451 0.299902 0.317521 0.059822 0.094345 -0.054264 0.314595
form 0.456572 0.017681 -0.092690 0.034048 0.254831 0.137413 0.359383 0.683373 -0.341937 -0.466947 0.063438 -0.185867 0.215648 -0.003502 0.164954 0.396830 -0.531759 0.062486 0.244992 -0.049152 -0.074038 -0.097770 0.060390 -0.059111 0.101749 -0.053935 0.203610 0.313348 0.339569 0.032116 0.201378 -0.307840 0.240327 -0.276177 -0.194473 0.097231 0.052096 0.000486 -0.134918 0.316797 -0.356793 0.215071 0.084338 0.066210 -0.419333 -0.390892 -0.272361 -0.002630 -0.298263 -0.291631
doubt -0.241442 -0.382486 -0.029834 -0.202724 0.354330 0.246086 0.064515 -0.576044 0.103199 -0.391320 -0.160028 -0.120672 -0.143776 0.602792 0.158053 0.040082 -0.219063 0.421834 0.199380 0.073131 -0.122491 0.129780 0.023953 -0.274241 0.262559 -0.044833 0.319785 -0.010048 -0.343935 0.027099 0.524036 -0.495606 -0.133454 -0.503879 -0.037025 -0.300294 -0.293261 0.410180 -0.015825 -0.138644 -0.136308 -0.392528 -0.178044 -0.097338 -0.478874 -0.306773 0.229769 0.232775 0.034708 -0.052169
enjoy 0.333490 -0.017083 0.025156 -0.255440 0.148587 0.219185 0.414431 0.531467 -0.328197 -0.135706 -0.040364 0.049322 0.278814 -0.027594 0.145956 0.313932 -0.267982 0.019420 0.153942 -0.122726 0.012497 -0.186211 0.040823 -0.103232 0.101808 -0.046431 0.038921 0.039020 0.145666 0.036096 -0.090803 -0.304987 0.160789 -0.056907 -0.154309 0.126165 0.395383 -0.018316 -0.173559 0.279879 -0.219754 0.104753 0.200466 -0.046046 -0.051782 -0.076185 -0.137512 -0.048110 -0.074961 0.078847
put 0.130945 -0.194111 -0.068493 0.038119 -0.045532 -0.093125 0.087632 -0.130742 -0.038911 0.099536 0.096114 0.017845 -0.115915 0.061747 -0.071034 -0.129613 0.212684 0.254761 0.019951 -0.120186 -0.129436 0.066079 0.129464 0.042741 0.029896 0.063848 0.095577 -0.052221 0.135772 0.078640 -0.211212 0.043860 -0.055068 0.061598 -0.019150 -0.034985 0.257700 -0.191866 -0.117473 0.153875 0.145298 -0.125860 0.009313 -0.239857 0.249870 0.278715 0.183657 -0.107327 0.245718 0.134824
whilst -0.046619 -0.183633 -0.261260 0.111693 0.246241 -0.351120 -0.187278 -0.124362 -0.201271 -0.001783 0.108262 0.160968 -0.132687 -0.098805 0.071618 0.071296 -0.061649 0.465148 0.245305 0.116771 -0.433461 0.148683 -0.121003 0.340919 0.053683 -0.010754 0.032784 -0.041169 0.407845 0.493157 0.139061 -0.368340 -0.058532 0.064660 -0.264520 -0.283291 0.307672 0.085285 0.111847 0.190603 0.206816 -0.285267 -0.286129 -0.138746 0.194113 0.280505 0.011112 -0.367610 0.170060 -0.108971
comfort 0.596654 -0.277974 -0.017880 -0.027649 -0.098612 -0.018445 -0.032860 -0.114524 -0.049308 0.051532 0.408412 -0.072703 -0.026238 0.273685 -0.248579 -0.067223 0.098499 0.097242 -0.190271 0.021077 0.291387 0.105550 0.375863 -0.114081 -0.030457 -0.259161 0.459865 -0.158165 -0.041653 0.143246 -0.401299 0.121138 0.427243 -0.040693 0.002299 -0.009082 0.244497 -0.353634 -0.277319 0.205536 0.373670 0.125497 0.294093 -0.147484 0.106049 -0.000747 0.112626 -0.151877 0.223985 0.078216
learner -0.651346 0.874441 -0.609891 0.219279 -0.115180 -0.281631 -0.224715 0.198991 0.449957 0.490808 -0.197886 0.086666 0.013599 -0.911267 0.108230 0.132247 0.004456 0.137315 0.126389 0.372219 0.032339 -0.206997 -0.196224 0.643776 0.023934 0.163792 0.279062 -0.022846 0.414418 0.359067 0.268312 -0.413518 0.144663 0.052568 -0.219192 -0.160621 0.011071 0.405621 0.345763 0.652696 -0.173163 0.335390 -0.192783 0.601692 0.434423 -0.202722 -0.416080 -0.186716 -0.034902 -0.648438
struggl 0.138581 0.390976 -0.135142 -0.029733 0.126774 0.294589 0.021515 0.135658 -0.202932 0.249651 -0.066768 -0.268073 -0.064764 -0.455251 0.107156 0.230994 -0.000647 -0.113275 0.337864 -0.074958 0.063579 -0.148385 -0.239838 0.319110 0.079226 -0.018410 -0.005684 0.401953 0.424884 0.052193 0.206889 -0.115047 -0.070739 0.272630 -0.109828 0.107247 0.360810 -0.117195 -0.010298 0.359893 0.082716 -0.158914 0.258522 -0.129891 0.054096 0.081221 -0.001919 -0.129308 0.141651 0.238646
creat 0.415964 -0.534351 0.290998 0.147459 -0.039947 -0.198726 0.200631 0.203186 -0.087802 -0.294436 -0.296054 -0.035913 0.027921 -0.118440 -0.046851 0.189005 0.235495 -0.517680 -0.233432 0.169298 -0.205175 0.673685 0.191040 -0.081777 0.030428 0.228736 0.024999 -0.210871 0.675845 0.090751 -0.568305 0.608773 -0.105874 0.087821 -0.160805 0.467077 0.173234 -0.236488 -0.168362 -0.196946 0.310298 0.369493 0.228743 0.173064 0.376325 0.289988 -0.264320 0.152053 0.161677 0.127511
interest 0.228119 -0.041292 -0.025010 0.241606 0.098510 0.005141 -0.070805 0.085671 0.410071 -0.281089 -0.049050 -0.286303 -0.131669 0.128559 0.318641 -0.098974 -0.066323 -0.149630 0.351177 0.060499 0.052493 0.080896 -0.053970 0.024363 0.321801 0.193456 0.170980 0.149351 0.094334 0.014782 0.457794 -0.313245 0.453531 -0.296351 -0.133758 0.072445 -0.100203 0.372865 0.145544 0.106863 -0.196804 0.117029 0.123182 -0.110803 0.034310 0.214841 0.009466 0.197712 0.028273 0.031731
long -0.271072 -0.035395 -0.050291 -0.405958 0.064076 -0.102449 -0.103675 -0.362278 -0.135952 0.636193 -0.002501 0.464475 -0.107004 0.282544 -0.069566 -0.073100 0.250916 0.169418 -0.062713 0.054122 -0.061082 -0.209186 0.109470 -0.216433 -0.242986 -0.299572 -0.132190 -0.027962 -0.112569 -0.123557 -0.267940 0.241611 -0.521386 0.761833 0.246468 -0.243361 0.242433 -0.225484 0.057951 0.022147 0.295844 -0.217345 -0.101787 -0.302367 0.214686 0.058177 0.225224 -0.388770 0.152963 0.262120
physic 0.192677 0.061171 0.213338 -0.164040 0.031130 0.248568 0.280771 0.376157 -0.594089 -0.441209 0.133409 -0.371610 0.185523 -0.037658 -0.180712 0.382749 -0.416804 0.265635 -0.101110 -0.042535 0.204275 0.157460 0.066071 -0.210981 -0.049558 -0.031193 0.103400 0.067795 -0.110750 0.136164 -0.044627 0.221978 0.109559 -0.434311 -0.189921 0.028696 -0.426982 -0.096568 -0.339557 -0.271214 -0.050056 0.109382 0.077564 0.258357 -0.550780 -0.619843 -0.280042 0.298102 -0.164078 -0.431414
univers 0.459297 -0.187037 0.418224 -0.040706 -0.201169 0.158655 0.355532 0.616071 -0.326748 -0.126409 0.110920 -0.025003 0.282669 0.192469 -0.436144 0.088605 -0.047021 -0.244426 -0.648115 -0.229270 0.316446 0.133222 0.098635 -0.425611 -0.179606 0.183885 -0.114978 0.042283 -0.377570 -0.173222 -0.679509 0.714387 0.209942 -0.187858 0.166245 0.424208 -0.245275 -0.527888 -0.362727 -0.328604 -0.358924 0.333923 0.122937 0.090250 -0.070544 -0.306445 -0.284290 0.082342 -0.218904 -0.022323
due 0.060691 0.157194 0.239678 -0.129124 -0.104275 0.052734 0.228116 0.169483 0.137974 0.180068 -0.213941 0.255848 0.049815 0.059538 0.059864 -0.028386 0.322060 -0.329648 -0.361598 -0.097323 -0.152057 -0.145129 -0.019036 -0.108674 0.065742 0.364378 -0.398691 0.005564 0.052880 -0.217214 -0.196336 -0.012777 -0.482813 0.404989 0.052318 0.174628 0.491840 -0.254870 0.081127 -0.015320 -0.181183 -0.129773 0.083929 -0.259227 0.194213 0.272605 -0.027533 -0.003536 0.168503 0.448091
forum 0.228646 0.080006 -0.635108 -0.748831 0.030446 0.964190 0.458225 0.185838 0.079157 0.114800 -0.261706 -0.054905 0.345654 0.156427 0.349180 0.062516 -0.332952 0.132376 0.436037 -0.439074 0.367223 -0.706730 0.270834 -0.616494 0.051502 -0.684376 0.200819 -0.065730 -0.526263 -0.324011 -0.111396 -0.674789 0.209029 -0.177874 -0.026587 0.328646 0.646407 0.060127 0.082442 0.161254 -0.513814 0.147929 0.349066 0.244682 -0.426405 0.021687 0.175725 0.181610 -0.024211 0.541124
instant -0.549701 -0.923325 0.205759 -0.170790 0.734636 -0.551965 0.249835 -0.594353 0.254521 -0.429679 -0.096804 0.538684 -0.327853 1.628490 -0.039066 -0.334942 0.093137 0.364326 -0.062472 0.204036 -0.605899 0.410078 0.283869 -0.660148 0.078045 0.314569 0.477724 -0.076179 -0.304147 -0.390515 0.144818 -0.558237 -0.503885 -0.486158 0.289161 -0.444177 -0.542091 0.224838 0.141358 -0.269970 -0.328263 -0.463974 -0.538526 -0.506505 -0.320567 -0.123133 0.422832 0.066444 -0.133287 0.109342
issu 0.253503 0.056113 0.379926 -0.192267 -0.379880 0.254949 0.321659 0.161012 0.072964 -0.152201 -0.087063 0.237468 0.272027 0.551317 0.050218 -0.249669 0.139896 -0.488989 -0.659703 -0.156008 -0.137200 -0.352951 0.217515 -0.350228 0.129904 0.067946 -0.690414 -0.084404 -0.542447 -0.683811 -0.126247 -0.293601 -0.562282 0.174926 0.475470 -0.140770 0.328807 -0.310785 0.029055 -0.141713 -0.489532 -0.403518 0.211278 -0.251097 -0.233188 -0.078285 0.141905 -0.020457 -0.079695 0.553092
easiest 0.058203 0.140326 -0.010597 0.053320 0.206739 0.187762 -0.073815 -0.085743 0.156452 -0.041522 0.015697 -0.205925 -0.142520 -0.094080 0.132842 0.103041 -0.173849 0.007254 0.277901 0.096426 0.081062 0.057136 -0.053881 0.025334 0.265054 0.030330 0.336933 0.238263 0.072210 0.148906 0.292565 -0.136046 0.102105 -0.129557 -0.100333 0.072454 -0.079684 0.040585 0.015817 0.207479 -0.021563 0.052886 0.110963 -0.129897 -0.214768 0.020141 -0.038616 0.119711 0.194270 -0.151685
receiv -0.389724 -0.580947 -0.085648 -0.101496 0.611610 -0.253417 0.127829 -0.318803 -0.132299 -0.286104 0.055898 0.190355 -0.199936 0.852993 -0.039484 -0.134829 -0.224938 0.573859 0.240359 -0.081489 -0.284209 0.201451 0.105631 -0.290071 0.030931 -0.026907 0.475783 -0.089910 -0.187972 -0.028332 0.133203 -0.282030 -0.156308 -0.498856 0.104580 -0.309193 -0.502378 0.180610 0.012171 -0.225593 -0.073310 -0.335770 -0.536132 -0.291889 -0.408750 -0.034029 0.371290 -0.001266 -0.007598 -0.163493
enabl 0.067502 -0.325529 -0.140514 0.014408 0.288266 0.006052 0.208398 0.189105 -0.105682 -0.255229 -0.109249 0.089329 0.007853 0.296666 0.160196 -0.078119 -0.290616 0.405486 0.248410 -0.032387 -0.123951 0.039705 -0.097780 -0.353003 0.193411 -0.143825 0.015317 -0.032864 -0.185695 0.152341 -0.017624 -0.391611 0.173150 -0.235490 -0.173237 0.132661 -0.004545 0.018752 0.105522 -0.021099 -0.315422 -0.155667 -0.082885 -0.114452 -0.025287 0.343768 -0.022980 0.008878 0.095814 0.060854
problem 0.086509 -0.046948 0.150942 -0.307198 -0.095135 0.105396 0.416419 0.129208 -0.013572 -0.297463 -0.177772 0.135651 0.243915 0.492935 0.113785 -0.072928 0.137467 -0.098074 -0.357529 -0.057592 -0.263865 -0.130792 0.250406 -0.374217 0.040435 0.055316 -0.474663 -0.138339 -0.244367 -0.409783 -0.039665 -0.514826 -0.441397 -0.011564 0.162755 -0.176817 0.355108 -0.124165 0.073869 -0.161714 -0.370523 -0.309229 0.066332 0.002894 -0.175432 -0.163387 0.000223 0.035228 -0.085091 0.323353
process 0.061006 0.377273 -0.404626 0.355160 -0.068540 -0.213350 -0.423037 0.151916 0.243155 0.194312 0.082325 -0.086650 -0.025868 -0.654751 0.329272 -0.101870 -0.130505 -0.030095 0.628264 -0.040269 0.083252 -0.222242 -0.152429 0.404051 0.048680 -0.056711 0.078429 0.445820 0.459438 0.268390 0.633238 -0.325268 0.361021 0.416901 -0.002242 -0.213671 0.211992 0.481673 0.275341 0.499686 0.132349 0.126014 -0.252795 -0.142437 0.146412 0.392322 0.252701 -0.475049 0.049386 -0.038580
great 0.174784 0.003769 -0.036564 -0.223837 0.023841 0.548087 0.179147 0.103998 -0.460831 0.270506 0.093186 0.008831 0.078073 0.059394 -0.135242 0.002755 -0.286277 0.029038 0.080349 -0.313668 0.363839 -0.297514 -0.093202 -0.158810 -0.106048 -0.438594 -0.106836 0.040550 -0.463233 -0.042185 -0.322106 0.165667 0.097081 0.022887 0.188967 0.179973 -0.007177 -0.223525 -0.164826 -0.160260 -0.092436 -0.084133 0.213117 -0.100130 -0.220502 -0.171039 0.102892 -0.077090 -0.059077 0.290776
harder 0.293803 0.198781 0.082996 -0.127055 0.163151 0.381854 0.114111 -0.013574 -0.044691 0.134427 -0.048014 -0.321691 -0.173375 -0.002961 0.072575 -0.027902 0.086687 -0.447094 0.319721 -0.155990 0.292516 -0.187650 -0.203057 0.158986 0.084374 -0.073523 0.038214 0.216056 0.170978 -0.279998 0.151685 0.040048 0.139475 0.103136 -0.036456 0.205398 0.426843 -0.087804 -0.095223 -0.021019 0.253236 -0.048763 0.466150 -0.398010 0.113136 0.155797 0.158216 0.048873 0.042883 0.653881
level 0.126034 0.212053 -0.143860 0.075937 -0.159714 0.406259 -0.115321 -0.004051 0.071965 -0.217391 -0.019121 -0.275847 0.167973 -0.270105 0.187371 0.093389 -0.179098 -0.026275 0.040841 -0.024859 0.015170 -0.085317 0.065332 0.113823 0.145380 -0.005363 -0.009940 0.039542 -0.108876 0.082420 0.284756 -0.127731 0.141772 -0.282834 -0.107534 0.026380 -0.117261 0.170887 0.094063 0.090640 -0.158023 0.081527 0.105321 0.401776 -0.249575 -0.204281 -0.061301 0.318469 -0.097874 -0.146455
depth -0.627476 0.163823 -0.701892 0.007315 0.285918 -0.104382 -0.131814 -0.370352 0.112831 -0.269764 -0.152952 -0.059750 -0.159666 -0.145422 0.322648 -0.018690 -0.276191 0.777966 0.710110 -0.009271 -0.270786 -0.134087 -0.017802 0.089961 0.157839 -0.272613 0.333823 -0.074875 0.203939 0.126562 0.751253 -0.630661 -0.150577 -0.147271 -0.268442 -0.476131 -0.168806 0.466210 0.420811 0.233543 0.162966 -0.372268 -0.509060 0.182110 -0.314052 0.227597 0.308110 0.043012 0.170162 -0.339513
friend 0.133930 -0.441694 0.130864 -0.148154 0.074532 -0.091689 0.230365 0.232612 -0.222556 -0.814131 0.023143 -0.116345 0.348198 0.509982 0.134876 0.045241 -0.027229 0.233090 -0.243744 0.007824 -0.333743 0.115928 0.182019 -0.089881 -0.054313 0.053682 -0.294727 -0.360986 0.068887 -0.095583 0.013762 -0.392279 0.126873 -0.575082 -0.402196 -0.104373 0.245066 -0.033683 0.044086 0.078274 0.076524 -0.247865 0.070477 0.196921 -0.066284 -0.247658 -0.158715 0.225735 -0.256352 -0.068290
practic -0.226427 0.116710 0.025329 -0.050950 -0.140640 -0.178778 -0.144775 0.098190 0.282262 0.021720 -0.125633 -0.061430 0.061666 -0.093393 0.093768 0.271040 0.062661 -0.084475 -0.150336 0.266847 -0.048375 0.080179 -0.262453 -0.088175 0.171871 0.131500 -0.064750 0.063751 -0.030304 0.048918 0.222223 -0.067007 0.026165 0.190258 0.094558 -0.034957 0.061180 0.183562 0.108996 0.040281 -0.269876 -0.061689 -0.052451 0.025682 0.146106 0.039814 -0.196553 -0.034589 0.083918 0.061589
sit 0.337764 -0.035548 0.071680 -0.085177 -0.141392 -0.052674 0.134419 0.167906 -0.273889 0.147356 0.063478 -0.232017 0.000097 -0.137161 -0.212332 0.094412 0.267746 -0.263331 -0.232397 -0.099797 0.285164 0.180967 0.176080 0.049268 -0.321542 -0.039768 -0.011428 -0.000043 0.089139 0.052848 -0.350385 0.344978 0.158052 0.094971 0.093997 0.151130 0.094827 -0.163797 -0.317587 -0.228984 0.193328 0.245213 0.348198 -0.065800 0.139987 -0.052258 -0.085185 -0.145625 -0.118351 0.173435
provid -0.141934 -0.065005 -0.113523 -0.341230 0.257453 0.101795 0.431707 0.290142 -0.114826 -0.079780 -0.167954 0.122848 0.264387 0.136208 0.145924 0.063653 0.152182 -0.048102 0.079833 -0.388905 0.055743 -0.285131 0.202551 -0.032787 -0.221393 0.346152 0.028331 0.052974 0.401934 -0.276829 0.076360 -0.111055 0.018165 -0.155138 -0.105813 0.204136 0.304016 0.264087 0.064920 0.015346 0.021844 0.062499 -0.120617 0.230073 -0.074422 -0.069304 0.082228 0.224107 -0.348737 0.146704
room 0.277734 -0.127972 -0.081785 -0.150350 -0.032294 0.491500 0.151493 0.106624 0.235691 -0.246818 -0.173681 -0.233489 0.125654 0.246966 0.379729 0.039622 -0.126422 -0.021306 0.144130 0.063361 0.135721 -0.010756 0.095038 -0.527963 0.372882 -0.096836 0.042588 0.224786 -0.535576 0.028057 0.227799 -0.600497 0.148343 -0.201783 0.051878 0.203318 -0.080967 0.308374 -0.017451 0.092609 -0.718175 0.081406 0.303565 0.108977 -0.374046 -0.058870 -0.201053 0.242450 -0.025236 0.210262
clear -0.516704 -0.229224 -0.080242 -0.134363 0.288759 0.044598 -0.088052 -0.644822 0.207582 -0.073935 -0.200540 0.013253 -0.248053 0.427103 0.073721 -0.038230 -0.057133 0.269169 0.126264 0.057994 -0.156037 0.114370 -0.060962 -0.142345 0.149541 0.027243 0.278043 0.032938 -0.235720 -0.010315 0.457881 -0.244410 -0.318911 -0.213978 0.099497 -0.287424 -0.403927 0.403373 0.100393 -0.219044 -0.062816 -0.357925 -0.356273 -0.101142 -0.301524 -0.190947 0.227606 0.107629 0.046871 -0.060089
compar 0.050941 0.067672 -0.169026 -0.411154 0.114923 0.220531 0.376707 0.499909 -0.652041 0.120578 0.023257 -0.095556 0.187789 -0.173011 -0.218954 0.210817 -0.350204 0.057970 0.124201 -0.391268 0.373177 -0.222378 -0.079996 -0.070189 -0.287295 -0.238382 0.204928 0.046479 0.067241 0.003572 -0.338297 0.311690 0.246707 -0.112208 -0.003296 0.205051 0.004957 -0.134244 -0.269358 -0.139432 0.048772 0.135773 -0.072343 0.042284 -0.226194 -0.181645 0.135278 -0.043114 -0.081427 -0.032267
properli -0.065644 0.052508 -0.284708 0.063119 0.092813 0.123720 0.036482 -0.105304 -0.214125 -0.256967 0.072061 -0.083031 -0.076529 0.008508 0.147471 -0.055561 -0.232688 0.390778 0.223962 -0.078807 -0.092102 -0.101787 0.010608 0.046004 0.128187 -0.243908 0.027294 -0.026968 -0.124299 0.014614 0.302931 -0.378104 -0.177492 -0.147047 -0.159612 -0.193871 -0.114861 0.045941 0.048224 0.093895 0.076554 -0.369465 -0.106136 0.002002 -0.405328 0.032708 0.248680 0.063355 0.127798 -0.121740
week -0.109808 -0.416008 0.011107 -0.615515 0.410219 -0.014128 0.466840 -0.094472 -0.399250 0.415218 -0.397554 0.559687 0.009049 0.337868 -0.235286 0.269007 0.435792 -0.040419 -0.305997 -0.140867 -0.260737 0.003813 0.393529 -0.225707 -0.436337 0.141481 0.188256 -0.317797 0.698353 -0.137331 -0.843491 0.548763 -0.703919 0.430615 -0.114740 0.334610 0.674258 -0.466720 -0.197838 -0.084130 0.535367 0.055589 0.015156 0.132806 0.274377 -0.067040 -0.013024 0.098349 -0.014377 0.239691
