time 0.676627 -0.477383 0.923778 1.255660 0.618087 -1.594280 -2.083610 0.288836 -0.432012 0.318867 0.139280 1.002095 -0.031607 0.279024 1.005955 -1.377757 -0.382745 -0.797751 -0.033178 0.956725 0.452951
question 0.844721 -0.762276 -0.504742 0.744136 1.512723 -0.527900 -0.523767 -0.213345 -0.748444 0.375021 0.502749 0.834586 0.304720 -0.261043 -0.646316 -0.891974 -0.008457 1.045675 -0.751776 -0.577584 0.390001
interact 1.057832 0.260384 0.874789 -0.182632 1.425667 -0.228576 -0.862287 -1.027030 -0.583841 0.556493 -0.100091 0.630689 0.013929 0.243453 -0.313428 -0.435261 -0.122101 0.911315 -0.332012 -0.566303 0.300993
class 0.965162 0.782095 -0.938905 -0.190448 1.565294 -0.317746 -1.363196 0.382148 -0.069742 0.658024 0.247213 0.657111 1.351439 0.752343 0.723976 -0.762732 -0.068334 0.686372 -0.432415 0.031897 0.519442
ask 0.991204 -0.353761 0.021714 0.601737 1.577241 -0.383324 -0.299478 -0.317526 -0.921161 0.442750 0.813614 0.154110 0.127346 -0.345130 -0.877539 -1.038016 -0.030114 0.982647 -0.256232 -0.292647 0.045874
lectur 1.083581 0.424992 -0.040409 0.186395 1.254355 -1.019278 -0.850428 -0.125958 0.561549 0.226398 0.099884 0.485049 0.170635 0.492044 0.720072 0.037004 -0.354069 1.252646 -0.728450 0.948623 0.544391
teacher 0.854058 -0.529648 0.183627 1.074314 0.205261 -0.893349 -0.560921 -0.252078 -1.010228 -0.115522 1.167930 0.107566 0.835164 0.311546 0.172657 -0.076043 -0.349893 1.880431 -0.431067 -0.095549 0.355616
work 0.019941 -0.001210 0.484811 0.563430 0.741628 -1.065917 -0.620708 0.028646 -0.597196 -0.214820 -0.036225 -0.100295 0.024867 1.193532 0.404965 -1.227902 -0.221529 0.482077 -0.088686 0.215867 0.575802
live 0.765968 0.517715 -0.315036 0.281550 1.074242 -0.284236 -0.758233 0.520307 -1.027169 -0.276649 -0.271046 -0.180000 0.551420 0.088913 0.779382 -1.291619 -0.046507 0.540009 -1.153635 0.571396 0.284555
feel 0.409920 0.475705 0.280307 -0.148937 0.222866 -1.067431 -0.955510 -0.369026 -0.989407 -0.096300 0.998303 -0.115234 0.694036 0.220501 -0.477901 -0.984740 -0.117057 0.569593 -0.188069 0.577703 0.317325
learn 0.425298 0.941428 0.030768 0.332607 0.781619 -1.627475 0.366696 -1.107824 -0.151952 0.389716 0.005581 0.484303 0.355343 0.772622 0.275844 -0.854435 -0.282673 0.613054 0.032483 0.257397 0.334114
easier 0.426614 -0.893825 -0.276655 0.019355 0.032234 -1.052582 -0.431742 -0.750296 -0.858691 0.235567 -0.001742 0.038713 1.107755 0.546277 0.255350 -0.661092 -0.239516 0.027800 -0.947050 0.644244 -0.006112
understand 0.673381 -0.878214 -0.726887 0.916602 1.069680 -1.274489 0.159614 0.275189 -1.499521 0.517702 -0.212719 0.660167 0.152351 0.079026 -0.295118 0.111902 -0.453775 0.041290 -0.202995 0.272846 0.215365
engag 1.043920 -0.039125 0.795488 0.144587 0.981771 -0.645390 -0.252515 -0.778488 -0.782239 0.375559 -0.109948 0.339584 -0.078553 0.837286 0.025207 -0.254082 0.109983 0.417512 -0.656829 -0.020876 0.087795
pace -0.047817 -0.624422 -0.228322 0.465064 0.632608 -0.993194 -0.471366 0.070863 -0.855010 -0.320787 -0.559054 0.146687 0.020935 0.388169 0.270624 -0.474471 -0.324575 0.313223 0.594937 0.685806 -0.062581
materi 0.324826 -0.386211 -0.305250 0.586286 0.417922 -0.265080 0.149036 -0.363985 -0.548632 -0.023848 0.532689 0.735456 -0.295737 0.865486 0.068493 -0.572525 -0.030446 0.876839 0.001651 1.124891 0.159381
record 0.781064 0.531692 -0.157917 0.028133 1.164856 -0.498090 -0.288504 0.012492 -0.214557 -0.242552 -0.544390 0.008464 -0.141291 0.026744 0.651134 -0.254056 -0.088617 0.771295 -0.552803 1.189149 0.106852
discuss 0.876154 -0.143576 -0.554782 0.203840 1.580283 -0.211551 -0.150318 -0.980133 -0.626392 0.690980 0.046158 0.635967 0.439667 -0.223987 0.876896 -0.680552 0.478619 0.363135 0.195345 -0.607385 0.147344
watch 0.385399 0.080155 -0.221599 0.364009 0.859461 -0.679270 -0.715246 -0.004969 0.039020 0.000473 -0.678750 0.018238 -0.268311 0.020553 -0.207864 -0.430974 -0.371150 0.225313 -0.059113 1.474305 0.061851
make 0.591366 0.569143 0.278104 0.130449 0.897264 -0.566832 -0.352962 0.085558 -0.790399 0.477215 0.130376 -0.133661 0.312659 0.565351 -0.123912 -0.354571 -0.485766 0.142423 -0.562169 0.841861 0.114665
student 0.331950 0.132515 0.737055 0.162296 0.740931 0.357701 -0.458775 -0.737295 -0.602777 0.216278 -0.028300 0.270527 0.296148 -0.074776 0.143667 -0.843282 0.078771 0.200605 -0.437158 0.522121 0.194739
paus 0.607659 -0.732414 -0.147699 -0.384861 0.522070 -0.525331 -0.494270 0.185153 -0.905120 0.530037 -0.659237 -0.456207 -0.538773 -0.093069 -0.181207 0.195275 -0.601863 0.578921 0.356619 1.430611 -0.039279
video 0.432837 0.077796 -0.318880 0.197291 0.360862 -0.510883 -0.600579 0.463157 -0.911727 0.327067 -0.520146 0.243452 -0.100484 -0.163820 0.739301 -0.074758 -0.365684 0.832172 -0.102590 1.140299 0.060839
lesson 0.495333 0.196472 -0.481806 -0.198134 0.561456 -0.309884 -0.738278 0.149319 -0.114878 -0.155271 0.270156 0.743709 0.573398 0.769047 -0.336366 -0.545627 -0.515871 0.873595 -0.211476 0.407200 0.047232
explain -0.349561 -0.557520 -0.141732 -0.074763 0.496073 -0.914731 0.396483 -0.448236 -1.256492 0.627896 -0.090930 0.954359 -0.020591 0.217645 -0.216094 -0.340920 -0.430838 0.487569 -0.185052 0.062656 -0.120357
real 0.520109 0.617823 -0.068078 -0.330664 1.082178 -0.231093 -0.374768 -0.589863 -0.678040 -0.824301 0.401586 0.136875 0.482443 -0.452786 -0.194130 0.099924 -0.958015 0.101514 -0.554773 -0.343824 -0.231278
note 0.237695 -0.462629 -0.714510 -0.048663 0.100267 -0.912458 -0.363638 -0.523491 -0.685969 0.596057 -0.387351 -0.261030 -1.008795 0.108418 0.091765 -0.150143 -0.561319 0.730707 0.049869 0.561967 -0.022995
back 0.501186 -0.683389 -0.360557 -0.364007 0.685757 -0.884531 -0.331873 0.250322 -0.601459 0.134018 -0.389856 -0.227150 -0.692468 -0.130232 -0.104998 -0.175995 -0.557863 0.482290 -0.106871 0.545697 -0.109302
content 0.714961 -0.275228 -0.370746 0.532373 -0.042528 -0.136473 0.191992 -0.510993 -0.414211 0.094964 0.005536 0.727086 -0.247010 0.553020 -0.455330 -0.361751 -0.703251 0.455687 0.176157 0.542233 0.043486
face 0.175305 0.688831 0.692662 -0.185657 0.159195 -0.169053 0.006391 -0.847876 -0.618738 -0.325973 -0.009760 0.597471 0.969311 -0.731031 -0.513185 -0.043801 -0.340482 0.604484 0.057877 0.210088 0.139831
zoom 0.254308 0.928584 -0.241206 0.442875 0.389574 -0.443889 -0.686402 0.197288 -0.970167 -0.163836 -0.081970 -0.062565 -0.059378 -0.040540 1.075501 -0.394181 0.022834 0.427826 -0.017648 0.235389 -0.141781
thing 0.662812 0.227405 -0.402023 0.100200 0.081070 -0.445589 -0.150768 -0.042129 -0.727498 0.153781 0.416438 0.957625 -0.041563 0.312234 -0.363188 -0.246330 -0.840238 0.331923 0.246134 0.631049 0.024752
help 0.162832 -0.263869 -0.000736 0.685950 0.066026 -0.722882 -0.390796 -0.896439 -0.461540 0.187791 -0.246053 0.443438 0.748813 0.540719 -0.257446 -0.030274 0.070943 0.071601 -0.373322 0.447251 0.185430
onlin 0.298675 0.662970 -0.117838 0.157736 0.627191 -0.263070 -0.292443 -0.008669 -0.952620 -0.544955 -0.202462 0.255291 0.241239 0.127153 0.757805 -0.517733 0.179835 0.475303 0.049634 0.255005 0.051902
normal 0.534517 0.479763 -0.019928 -0.497299 0.269118 -0.550982 -0.045348 -0.157776 -0.741358 -1.097377 0.368756 0.393443 0.318188 0.262964 -0.617438 0.228488 -0.223855 0.066420 -0.423965 0.083038 -0.136682
email -0.288162 -0.647288 -0.234818 0.274013 0.651046 -0.291291 -0.022690 -0.313773 -0.561660 -0.660505 0.042986 0.608282 -0.585770 0.212811 0.296044 -0.861351 -0.267098 0.692103 -0.213340 -0.178713 -0.005441
find 0.209340 0.661283 -0.608248 0.309654 0.322211 -0.384734 -0.055451 -0.220832 -0.813589 0.618654 -0.266109 -0.220442 0.205773 0.599902 0.084416 -0.971195 0.083145 0.384977 0.086436 0.476400 -0.127030
teach -0.107236 0.530198 -0.053445 -0.437580 0.895482 -0.596807 0.024511 -0.198584 -0.494024 0.000421 0.460690 0.918819 0.286883 0.345807 -0.186021 -0.278712 -0.127497 0.536257 0.138625 0.136170 -0.026050
schedul 0.171774 -0.027331 0.051929 0.291808 0.159263 -0.431806 -0.874878 -0.034414 -0.049669 -0.776431 -0.447174 0.032009 0.003832 0.856057 -0.409710 -0.410476 0.165831 -0.014203 0.245007 0.551581 0.056000
motiv 0.464465 -0.380697 -0.136505 0.110418 0.382776 -0.077116 -0.722642 -0.471806 -0.440669 -0.050394 -0.343144 0.008916 0.590549 0.840941 -0.095843 -0.249480 0.488173 -0.000502 -0.318401 0.390981 -0.077510
answer 0.073900 -0.419967 -0.429846 0.017252 0.752858 0.381284 -0.254052 -0.305625 -0.930632 -0.006771 0.758747 0.386048 -0.053938 -0.409787 -0.492261 -0.332315 -0.751196 0.561770 -0.322688 -0.348712 -0.039042
prefer -0.210447 0.319418 -0.496411 0.086494 0.917276 -0.514270 0.255573 -0.189677 -0.397963 -0.433043 0.371616 0.365521 0.179879 0.255834 0.494758 -0.581781 0.342132 0.623172 0.113906 0.817668 -0.205179
professor 0.599391 -0.436224 -0.073728 0.766495 0.465793 -0.226887 -0.312644 -0.472419 -0.331307 0.014816 0.604170 0.288911 0.268338 -0.010975 0.119820 0.178545 -0.314589 0.889464 -0.612984 0.431481 -0.213889
inform 0.147722 -0.155054 -0.826131 0.403016 -0.338107 -0.523100 0.259353 -0.711092 -0.386896 0.171917 -0.172764 0.118676 -0.420194 0.607985 -0.098279 0.141453 -0.588422 0.369866 -0.409928 0.458934 0.213141
person 0.705674 0.650199 -0.073682 -0.217297 0.092036 -0.260182 -0.210781 -0.477478 -0.621275 -0.398293 -0.188253 0.531040 0.318860 0.190278 -0.056291 -0.250174 -0.347635 0.415781 -0.108886 0.175110 -0.043074
studi 0.031571 0.301033 0.171983 -0.077284 0.736792 -0.623538 -0.170060 -0.212891 -0.146738 -0.104882 -0.136647 -0.009030 -0.012963 0.301617 -0.290582 -0.599688 -0.096803 0.093615 0.470580 0.761733 0.162801
similar 0.706078 0.615574 -0.428510 -0.473896 0.137269 -0.463325 -0.362590 -0.489383 -0.180741 -0.720159 0.241630 0.973248 0.411115 0.008715 -0.667481 -0.606754 0.109058 -0.001707 0.151975 -0.125360 -0.168198
school 0.522312 0.466183 -0.123845 -0.218280 0.319526 -0.116050 -0.425951 0.178142 -0.339083 -0.841099 -0.320845 0.605817 0.527335 0.608142 -0.237768 -0.420553 -0.300252 0.412628 0.025768 -0.125193 -0.051852
classroom 0.399471 0.409527 -0.096366 -0.367741 0.013952 -0.109835 -0.246059 -0.564249 -0.283934 -0.532210 0.457285 0.802838 0.579157 0.914424 -0.152200 -0.335188 -0.474581 0.415867 0.464120 -0.770057 -0.026866
easi 0.398936 -0.595708 -0.351473 0.314045 -0.023046 -0.215617 -0.030123 -0.185839 -0.188148 -0.261841 -0.075568 -0.110346 0.146248 0.497903 0.470786 -0.382076 -0.468131 -0.277820 -0.471341 0.780333 -0.269157
listen -0.020032 0.051804 -0.425166 0.045078 0.542004 -0.549007 -0.206712 -0.323474 -0.048604 0.002972 -0.599953 0.260322 -0.249160 0.113152 -0.144641 -0.333225 -0.112359 0.544532 -0.424026 0.754249 -0.140034
peopl 0.215516 0.118604 0.033871 0.457482 -0.047207 0.244163 -0.727511 -0.684574 -0.792819 0.207216 0.241049 0.184766 0.798475 -0.285743 0.290631 -0.327675 0.086461 0.360184 -0.106522 0.255112 -0.005844
day -0.065913 -0.131288 -0.156118 0.401047 0.281264 -0.492469 -1.081858 -0.270512 0.374510 -0.766767 -0.488379 0.182220 0.123342 0.773552 -0.316424 -0.833606 -0.012201 -0.308810 -0.229254 0.254133 -0.119967
talk -0.052160 0.085254 0.243712 0.123077 0.581691 -0.155756 -0.380503 -0.297624 -0.911562 0.447910 0.031529 0.585781 -0.047408 -0.330165 0.020108 -0.394369 -0.118010 0.710377 -0.032370 -0.123701 -0.143859
dont 0.161989 -0.339478 -0.293342 -0.103039 0.513155 -0.156838 -0.436193 -0.126364 -0.470320 -0.023469 0.048857 0.420781 0.162279 -0.049187 0.158676 -0.335410 -0.538383 0.226837 -0.104015 0.668084 -0.022321
upload -0.248288 -0.179006 -0.084311 0.111141 1.000003 -0.566769 0.191825 0.085334 -0.580867 -0.517435 -0.095918 0.590812 -0.561953 0.539601 0.453632 -0.193415 0.222305 1.111766 -0.035644 0.250324 -0.186594
topic 0.248544 -0.182762 -0.326461 0.545310 0.033744 0.024482 0.202883 -0.610550 -0.695433 0.609208 -0.094082 0.591101 -0.065451 -0.031895 0.070777 -0.350374 -0.523285 -0.129571 0.021439 0.724497 -0.170501
closest 0.883790 0.573173 -0.188727 -0.943343 0.461430 -0.502952 -0.334271 -0.392182 -0.464867 -0.456110 0.567757 0.926516 0.577800 -0.469947 -0.493160 -0.323606 -0.221006 -0.147105 0.304969 -0.214229 -0.422738
easili 0.133142 -0.440599 -0.128710 0.074924 0.177520 0.127523 -0.068445 -0.275108 -0.521389 -0.204023 -0.297432 0.136130 0.301688 0.408223 0.188013 -0.345972 -0.615048 0.034713 -0.928567 0.884752 -0.215052
set -0.081042 -0.023631 0.206130 0.362410 0.334877 -0.313741 -0.453662 -0.111353 -0.763596 -0.828687 0.423718 0.117564 -0.022552 0.775129 -0.540841 -0.777949 -0.098615 -0.040598 0.101536 0.113966 -0.226597
call -0.308330 0.510061 -0.304580 -0.139036 0.345162 0.170584 -0.657463 -0.306571 -0.709003 0.148647 0.143586 0.215851 -0.057034 0.485852 0.996492 -0.265870 -0.186297 0.451035 0.305418 0.165386 -0.140059
classmat 0.015029 0.261543 0.467450 0.160454 0.331990 0.387542 -0.278757 -0.470249 -0.803732 0.097858 -0.040626 0.639510 0.376269 0.044743 -0.516997 -0.011093 -0.065829 0.060406 -0.643536 0.302122 -0.231754
lot 0.173537 0.109304 0.268024 0.339249 0.205875 -0.183356 -0.458480 -0.401055 -0.677022 0.185309 -0.212141 0.130681 -0.000853 0.503862 -0.035714 -0.348566 -0.130898 0.435791 -0.187156 0.390776 -0.089462
activ 0.601514 0.018406 0.028363 0.234961 0.615217 -0.245236 0.421376 -0.979104 -0.231724 0.033360 -0.184540 0.216304 0.591506 0.164781 0.109093 -0.308580 0.462021 0.101440 -0.123746 0.286119 -0.263136
commun 0.228982 0.254595 0.462111 0.216965 0.701261 0.023332 -0.246265 -0.329409 -0.718014 0.353955 0.036301 0.332559 0.025248 -0.077118 -0.816513 -0.048478 -0.240846 0.241465 -0.469479 -0.485975 -0.189578
structur 0.318212 0.233071 0.368149 0.459501 0.383221 -0.320614 -0.596523 -0.149173 -0.167801 -0.682628 -0.300934 -0.146937 0.073421 0.624954 -0.499220 -0.296113 0.111032 0.057934 -0.239605 -0.012614 -0.259282
read 0.047415 -0.133518 -0.109722 0.373679 0.291291 -0.584422 0.584660 -0.036174 -0.646475 0.001427 -0.388086 0.337447 -0.343396 0.169898 0.066691 -0.020218 -0.368210 0.891518 0.131347 0.348680 -0.013093
flexibl 0.035453 -0.000966 -0.000081 0.408357 0.596014 -0.304036 -0.516343 0.154041 0.049473 -0.232704 -0.418335 -0.000594 0.088019 0.647898 -0.081377 -0.135016 0.071620 -0.079286 0.115264 0.693730 -0.212503
miss 0.646894 -0.094499 -0.383967 0.121273 0.375503 -0.582219 -0.332027 0.080715 -0.480858 0.192331 -0.138475 0.073476 -0.403773 -0.319683 -0.138010 0.354777 -0.273232 0.167187 -0.204514 0.304516 0.050476
actual 0.355315 0.874988 -0.084862 -0.626627 0.334969 -0.336068 -0.007045 -0.402503 -0.868991 -0.701605 0.348784 0.684196 0.320423 -0.039505 -0.408313 0.082842 -0.174823 0.123605 0.083977 -0.040250 -0.326385
access -0.042293 -0.054686 0.130606 0.397785 0.996470 -0.237148 -0.487625 0.102266 -0.467250 -0.031358 -0.511294 -0.349100 -0.441853 -0.092940 0.126704 -0.070763 -0.150976 0.466724 -0.033343 -0.005555 -0.112720
complet -0.225126 -0.306828 0.184431 0.214229 0.425849 -0.283706 -0.045224 -0.245572 -0.505978 -0.549389 -0.140911 -0.020219 -0.236253 0.772757 0.011614 -0.413962 -0.288880 0.163870 0.520304 0.388116 -0.238678
connect 0.045377 0.101789 0.394943 -0.437475 0.464241 0.519384 -1.177278 -0.397179 -0.611328 0.259831 -0.431405 0.245147 0.153331 0.176358 0.644241 0.483388 -0.022362 -0.076905 -0.547192 -0.302306 0.078663
rewatch 0.076450 -0.216437 -0.497590 -0.198414 0.470166 -0.655513 -0.166235 0.174908 -0.496031 0.321341 -0.337024 0.072073 -0.392323 -0.391699 -0.230567 0.072568 -0.642030 0.266027 0.478226 0.961271 -0.436239
forc 0.322850 0.014336 -0.117527 0.414430 0.390769 0.107767 -0.400325 -0.659681 0.127935 -0.510137 -0.171346 -0.424111 0.701924 0.536829 -0.232976 -0.296898 0.725796 -0.279425 -0.388806 0.590971 -0.144842
particip 0.712677 0.566045 0.217024 0.213876 0.656909 0.071687 0.128199 -0.687265 -0.455313 -0.093980 0.019784 -0.047748 -0.225812 0.507679 0.124131 -0.196070 0.159836 0.190629 -0.567065 -0.047797 -0.226520
follow 0.469956 0.045812 -0.459138 0.183188 0.504819 -0.363781 -0.052529 -0.093690 -0.538149 -0.146315 -0.502108 -0.253469 -0.444087 0.211437 -0.371081 -0.403485 -0.251207 0.317750 0.130443 0.013322 -0.361172
hear -0.231229 -0.259352 0.290357 0.374233 0.196679 -0.062815 -0.098517 -0.661696 -0.487666 0.512233 -0.254538 0.471695 0.180079 -0.495897 -0.358675 -0.013689 -0.244425 0.848632 -0.279391 0.039731 -0.123430
attend 0.437638 0.335695 0.281543 0.065993 0.410013 -0.088677 -0.879103 -0.281794 -0.311978 -0.369403 0.104953 -0.257827 -0.485447 0.692496 -0.162398 -0.059692 0.670487 0.025527 -0.375273 0.352235 -0.284269
feedback -0.092557 -0.503852 0.163649 0.489280 0.267901 0.886300 -0.374803 -0.812826 -0.537692 -0.182842 0.691503 0.424558 -0.057966 0.101218 -0.501067 -0.168668 -0.149197 0.549640 -0.404926 -0.558276 -0.287162
focu 0.421843 0.275544 -0.331934 0.194124 -0.007946 -0.067680 -0.223208 -0.158029 -0.557674 0.059610 -0.533025 0.046994 -0.326689 0.720669 -0.496247 -0.339908 -0.046610 0.387974 -0.062600 0.133514 -0.265389
opportun 0.415515 -0.083024 -0.213828 0.372817 0.439129 0.171006 0.126168 -0.729777 -0.138031 -0.173966 0.071867 0.447569 0.268269 -0.076905 0.128783 -0.032017 -0.188498 0.063864 -0.630055 0.375638 -0.367406
directli 0.217084 -0.181209 -0.159771 0.215454 0.125878 0.163299 0.004750 -0.524017 -0.469045 -0.196430 0.036548 0.459843 0.047066 -0.319070 -0.279849 -0.433525 -0.513524 0.284697 -0.718983 -0.025673 -0.482126
pressur 0.057844 -0.189521 -0.133150 -0.156608 0.363927 -0.233777 -0.658133 -0.305891 -0.383089 -0.280410 0.151009 0.049000 -0.030222 0.423246 0.368530 -0.062235 -0.435783 0.381328 -0.044619 0.049452 -0.133523
mean 0.174463 -0.056433 -0.192855 0.256712 0.215462 -0.155847 -0.263087 -0.151833 -0.382830 -0.586760 -0.057052 0.170635 0.087066 0.323058 -0.115491 -0.063807 -0.374490 -0.168189 -0.071742 0.450499 -0.019662
subject 0.053420 -0.139290 -0.124439 0.176915 0.102969 0.158368 0.227270 -0.380935 -0.584589 0.294636 -0.001157 0.467595 0.021072 0.313221 0.080428 -0.263619 -0.067801 0.026817 0.233523 0.559189 0.010856
contact -0.229702 0.373053 0.528307 -0.417446 0.462960 0.063892 -0.467407 -0.715024 -0.222667 0.208501 -0.050051 0.643763 0.289209 0.004966 -0.572426 -0.178696 -0.129345 0.242952 -0.499573 -0.284608 -0.156788
respons -0.164964 -0.481157 -0.162149 0.235597 0.469317 0.406204 -0.271970 -0.442650 -0.141613 -0.362014 0.824319 0.176600 -0.015096 -0.280937 -0.318544 -0.383270 -0.672314 0.022902 -0.385862 -0.321404 -0.134281
speed -0.018932 -0.182195 -0.185367 -0.016388 0.269388 -0.402975 -0.176168 -0.137671 -0.178933 0.103317 -0.767767 0.187176 -0.450568 -0.403666 -0.082420 0.211800 -0.320316 -0.199680 0.572598 0.990454 -0.030637
part 0.645922 -0.308444 -0.164469 -0.431790 0.018188 -0.214787 -0.198783 -0.104310 -0.360678 0.071645 -0.499269 0.479960 -0.202411 -0.101963 -0.162586 0.536017 -0.481282 -0.294223 0.028054 0.923763 -0.155749
rewind 0.052731 -0.095583 -0.284796 -0.225715 -0.063765 -0.576715 -0.314567 0.225393 -0.450281 0.516136 -0.510627 -0.050727 -0.438170 -0.244052 -0.174865 0.239658 -0.751728 0.147506 0.379571 0.969189 -0.269783
chat 0.018414 0.232644 -0.561732 0.129949 0.566564 0.442403 -0.455803 -0.525085 -0.492864 0.275268 0.299214 0.183556 -0.092641 -0.099636 0.648941 -0.313358 -0.210430 0.449021 -0.213987 -0.057262 -0.353370
abil 0.556416 -0.586254 -0.223998 0.335301 0.291499 -0.246958 -0.029183 -0.469859 -0.183932 -0.108442 0.000174 0.355923 0.187768 -0.124661 0.129159 -0.033879 -0.662862 0.040991 -0.542939 0.518897 -0.559814
need 0.096091 -0.319428 -0.432683 0.228210 0.204409 -0.182802 0.011993 -0.056512 -0.389895 -0.253542 -0.345016 -0.102400 -0.076639 -0.214844 -0.018709 0.104993 -0.757195 0.036203 -0.352479 0.536528 -0.182173
mode 0.282543 0.652115 0.101238 -0.290830 0.499475 0.087315 0.413850 -0.151081 -0.446435 -0.509503 -0.223044 0.536682 0.413721 0.369730 0.428455 -0.369638 0.345942 0.383348 0.061333 0.261760 -0.323174
explan -0.323443 -0.400117 -0.160041 0.259901 0.314404 -0.126595 0.403120 -0.418188 -0.636081 0.557635 -0.005877 0.328502 -0.158679 0.121574 -0.259691 0.119372 -0.331678 0.396967 -0.308980 0.139306 -0.252744
good 0.064578 0.210723 -0.123422 0.089111 0.330486 -0.027788 -0.374049 -0.159591 -0.523380 0.072581 -0.077275 0.348474 -0.008786 -0.197868 0.500242 0.193914 -0.238654 0.009322 -0.365150 0.686495 -0.228707
concept -0.081295 -0.269392 -0.472414 0.509699 -0.247662 -0.126634 0.215080 -0.316597 -0.727579 0.660816 -0.061380 0.516812 -0.009312 0.121373 -0.286009 -0.164718 -0.476455 0.277716 -0.050601 0.395317 -0.397403
distract 0.562411 -0.062629 -0.501774 0.194215 0.352272 -0.272971 -0.407388 0.074341 -0.236507 0.127300 0.012699 -0.422519 -0.332797 0.207239 0.009585 -0.250384 0.112136 0.201557 -0.121772 0.227051 -0.149336
account 0.799960 -0.102928 -0.010334 -0.003700 0.438599 0.374909 -0.591022 -0.790602 -0.036626 -0.386527 -0.386169 -0.276634 0.266775 0.362819 -0.185907 -0.155678 0.712437 -0.214863 0.198616 -0.086993 -0.199630
meet -0.327204 0.615718 -0.589957 -0.210100 0.132614 0.300045 -0.444539 -0.123497 -0.264332 -0.346940 0.104511 0.253861 -0.443699 0.842287 0.661427 -0.394379 -0.184824 0.307000 -0.060638 0.029368 -0.287704
hard -0.065458 0.095709 -0.382934 -0.012229 -0.326616 -0.316882 -0.192294 -0.620530 -0.562752 0.115398 -0.282829 -0.176744 0.302347 0.702780 0.400455 -0.346509 0.503165 0.087730 -0.418564 0.742466 -0.256711
nice 0.132839 0.184851 0.352879 0.330617 0.110555 -0.176722 -0.399349 -0.368168 -0.293374 -0.158379 -0.149319 0.166316 0.340925 -0.056244 -0.183029 -0.186668 -0.154150 0.268740 -0.377477 0.224630 -0.058503
difficult -0.085611 -0.218881 -0.273102 0.165058 0.021416 -0.353347 -0.350914 -0.266666 -0.635572 0.086638 -0.135768 0.101944 0.188450 0.439007 0.203918 -0.527992 0.118404 0.051340 0.119673 0.459540 -0.373438
independ -0.208887 -0.164202 -0.097468 0.328216 0.369390 -0.192944 0.260834 -0.030508 -0.411433 -0.727400 -0.346832 0.191461 0.190438 0.706732 0.551138 -0.442247 0.058347 0.093265 0.738124 0.246533 -0.422652
assign -0.301218 -0.204375 -0.073413 0.236054 0.333546 -0.409343 0.065512 -0.099483 -0.398867 -0.292203 0.097381 0.321771 -0.310757 0.458079 0.116861 -0.376570 -0.066340 0.201609 0.146264 0.246456 -0.211106
stop 0.047218 -0.240143 -0.439278 -0.008041 0.587831 -0.153573 -0.167475 0.099707 -0.281427 0.090814 -0.262377 -0.177553 -0.120086 -0.138120 0.124396 0.064667 -0.279026 0.182288 -0.029748 1.131397 -0.370469
routin 0.297486 0.074169 -0.066932 0.171372 0.038648 0.113401 -0.547260 -0.382114 0.217776 -0.901454 -0.170353 -0.214182 -0.058141 0.663323 -0.759461 -0.194906 0.068532 -0.323264 -0.040629 0.028429 0.048055
method 0.335362 0.354116 -0.112041 -0.232948 0.278946 -0.178776 0.090897 -0.370891 -0.402108 -0.377383 -0.104736 0.189571 0.222827 0.255832 0.362366 -0.330230 -0.002571 0.224137 0.228674 0.102940 -0.325798
idea 0.210322 0.140189 -0.355095 0.499534 -0.027351 0.491805 0.057579 -0.717462 -0.739357 0.522246 0.151416 0.128426 0.302611 -0.390541 0.045190 0.222379 0.170546 0.236004 -0.460766 -0.521711 -0.107883
speak -0.235866 0.182521 0.167663 0.042037 0.288123 0.228466 -0.098384 -0.319685 -0.598336 0.385087 0.100831 0.405590 -0.163327 -0.391371 -0.135256 -0.056035 -0.163858 0.271017 -0.285392 0.117664 0.123539
attent 0.355203 -0.042486 -0.072049 0.024500 -0.117563 0.157283 -0.175902 -0.510462 -0.145046 0.065411 -0.329334 -0.546182 0.114788 0.572866 -0.531303 0.168416 0.225655 0.073191 -0.700760 0.716915 -0.065948
detail 0.129845 -0.239551 -0.201778 0.110973 0.029132 -0.371824 0.166298 -0.012760 -0.355874 0.347008 -0.281203 0.460875 -0.254961 -0.070106 -0.149849 -0.137031 -0.402715 0.500380 -0.370425 0.456702 -0.239694
home 0.201485 -0.012637 -0.189794 -0.012151 0.277771 0.016029 -0.393837 -0.031121 -0.403267 -0.476850 0.017449 -0.208072 -0.082167 0.645303 -0.252633 -0.302394 0.097002 -0.143837 0.231935 -0.173608 -0.133696
environ 0.306922 0.241127 0.139184 -0.048871 -0.212344 -0.050554 0.083532 -0.515330 -0.547106 -0.973161 0.265898 0.447204 0.384857 0.503909 -0.195258 -0.250196 0.097559 -0.066037 0.419784 -0.407619 -0.212597
specif -0.081067 -0.093472 -0.214000 0.332921 0.473094 -0.084685 -0.320540 -0.306908 -0.351299 -0.451845 0.011173 -0.293688 0.118740 -0.011366 0.072571 -0.283781 -0.361079 -0.126209 0.030889 0.042347 -0.321581
write -0.300659 -0.158955 -0.411332 0.026116 0.326169 -0.291779 -0.086170 0.200317 -0.411853 0.223859 -0.261459 -0.036169 -0.240221 -0.428049 0.073349 0.110358 -0.796464 0.079974 -0.501996 0.650625 -0.387983
bit 0.610939 0.209972 -0.064328 -0.381315 0.019121 -0.159262 -0.493294 -0.097315 -0.237580 -0.111487 -0.094314 0.460930 0.142184 0.367655 -0.219092 0.129054 -0.291972 0.048965 -0.019382 0.251553 -0.379960
social 0.249103 0.178307 0.284666 0.082183 0.152899 0.361084 -0.136856 -0.335261 -0.451105 -0.182082 0.184577 0.020498 0.751466 -0.094511 -0.103348 0.278853 0.328438 0.202858 -0.315154 0.067190 0.001268
take -0.137558 0.083698 -0.212649 0.273820 0.541296 -0.340355 0.037529 -0.068911 -0.507280 -0.054830 -0.214545 -0.008053 -0.042338 -0.054427 0.288555 0.069042 -0.350044 0.069630 -0.293560 0.626232 -0.028839
taught 0.184498 -0.135352 0.117900 -0.326015 0.252154 -0.616923 0.439653 -0.057625 -0.666437 0.007693 -0.321603 0.540783 0.289369 0.428120 0.013680 -0.056743 -0.391564 0.158895 -0.137351 -0.169622 -0.334842
stay 0.344282 0.173092 0.115344 0.492180 -0.466464 -0.001110 -0.405075 -0.346684 -0.482592 0.589604 -0.517702 -0.465785 0.105403 0.865504 -0.661164 -0.423485 0.397230 -0.105063 -0.374592 0.348215 -0.088590
concentr 0.364155 0.348698 -0.322910 0.295372 -0.046053 0.006235 -0.399519 -0.409159 -0.500688 0.476156 -0.426859 -0.268300 -0.098701 0.609041 -0.154091 -0.198215 0.395852 0.108895 -0.024800 0.263095 -0.300586
experi 0.418769 0.578285 0.177581 -0.297745 0.045587 -0.290270 -0.025078 -0.265041 -0.367759 -0.355414 0.240952 0.560967 0.048660 0.082219 -0.067132 -0.004456 0.240424 0.242687 0.115149 -0.021646 -0.217582
option 0.326257 0.010101 -0.399183 -0.271598 0.120051 -0.078512 -0.475427 -0.147214 -0.251626 -0.253810 0.138466 0.492254 -0.028662 0.028050 0.039158 -0.041524 -0.197069 0.039426 0.046417 0.660111 -0.196956
peer 0.053958 0.320860 0.232737 0.267932 0.340027 0.455309 -0.007248 -0.687785 -0.411032 0.180868 -0.124850 0.541809 0.215114 -0.290656 -0.157491 -0.189602 0.156313 0.113336 -0.386755 0.128642 -0.395731
chanc 0.145406 -0.318356 0.002387 0.193109 0.213858 0.121073 0.064239 -0.440562 -0.281052 -0.147545 0.013491 0.284425 0.331806 0.083399 0.103406 -0.039661 -0.301257 0.123306 -0.525982 0.354084 -0.456402
direct 0.149423 0.021736 0.712360 0.414686 0.063774 0.165066 0.010414 -0.502550 -0.385306 -0.199518 0.084480 0.038823 0.506722 0.139829 -0.413235 -0.177510 0.295171 0.395405 -0.617986 -0.171840 -0.351320
give -0.022995 -0.044027 0.175594 0.323958 0.432387 0.153061 -0.455917 -0.022660 -0.467729 -0.094522 -0.182194 0.066846 -0.163604 -0.057321 0.065872 -0.220191 0.061367 0.334041 -0.442029 0.053784 -0.135414
fulli -0.045753 -0.424695 -0.185303 0.192149 0.012714 -0.203326 0.185097 -0.453415 -0.684174 0.421011 -0.101555 0.263014 0.172776 0.062123 -0.363320 -0.051081 -0.436076 0.109753 0.017964 0.664365 -0.497359
stress -0.101954 0.233957 -0.395637 -0.058615 -0.076796 -0.160161 -0.324649 -0.321760 -0.724327 -0.004144 -0.033710 -0.049529 -0.274109 0.205254 0.383283 -0.247179 0.173664 0.111193 0.144113 0.304846 -0.261162
tutor 0.474196 -0.069510 -0.037102 0.341484 0.343052 0.064088 -0.182814 -0.450507 -0.282773 0.139024 0.417464 0.187239 0.335206 -0.190077 0.034956 0.098141 -0.083939 0.292015 -0.378540 -0.080758 -0.399122
effici 0.028876 -0.039964 -0.245113 0.317661 0.190871 -0.133382 -0.131728 -0.385265 -0.419998 -0.217039 -0.155046 -0.016507 -0.025275 0.284117 0.113869 -0.236543 -0.029413 -0.174046 0.160037 0.283432 -0.427741
moment 0.233397 -0.281343 -0.118373 0.018700 0.262519 -0.092990 -0.114684 -0.321137 -0.148720 -0.246515 -0.217756 0.226043 0.019618 -0.260808 0.125985 -0.475953 -0.450462 -0.056666 -0.376175 0.118570 -0.329935
freedom -0.010529 -0.250213 -0.005453 0.416903 0.297322 -0.272134 -0.096222 -0.055525 0.020689 -0.568128 -0.389909 -0.078284 0.146497 0.463366 0.017248 -0.289036 -0.129644 -0.338759 0.324778 0.230302 -0.322860
focus 0.270631 -0.096361 -0.119416 0.287402 -0.070649 -0.001685 -0.213449 -0.540141 -0.380823 0.326298 -0.610605 -0.269050 0.350554 0.607183 -0.310112 0.192416 0.121067 -0.139860 -0.256802 0.220594 -0.225500
immedi -0.048448 -0.492502 -0.022761 -0.066608 0.388163 0.335130 -0.056368 -0.263537 -0.169175 -0.277215 0.281056 0.438714 -0.108350 -0.410123 -0.078664 -0.368719 -0.443248 0.027308 -0.892079 -0.281030 -0.461269
manag -0.372498 0.157417 -0.042038 0.374744 0.348418 -0.044040 -0.252965 -0.307507 -0.341559 -0.030342 -0.210355 -0.412982 -0.157735 0.279008 -0.489028 0.199613 -0.098569 0.009002 0.355383 0.118026 -0.276945
conveni 0.031492 -0.078252 -0.374144 0.292759 0.361887 -0.247064 -0.381357 -0.169633 -0.104226 -0.359768 -0.164800 -0.347738 -0.325442 0.070736 0.117056 -0.058254 -0.046654 -0.194989 0.079272 0.523097 -0.376439
convers 0.025520 -0.070186 -0.125711 0.203092 0.211844 0.190348 0.167835 -0.377248 -0.113315 -0.010427 0.153699 0.585410 0.165769 0.101424 0.065769 -0.100862 -0.072664 0.030085 -0.228560 0.116888 -0.165671
internet -0.228349 0.064329 -0.175187 0.171284 -0.048214 0.492858 -0.868476 -0.127412 -0.375956 0.254300 0.180392 -0.282652 -0.479841 -0.146327 0.573999 0.319564 0.133603 -0.143707 -0.302086 0.294769 0.085938
uni 0.092398 0.183172 0.031583 -0.359415 0.443323 0.019101 -0.481631 -0.062850 -0.169026 -0.627310 -0.019803 0.490138 0.144729 0.241134 -0.361778 -0.058902 0.062983 0.063047 0.122951 0.065034 -0.375213
hour -0.150316 -0.248721 0.107637 0.373904 0.255325 0.094795 -0.320867 0.059509 -0.166161 -0.689406 0.034850 -0.261849 -0.397353 -0.182954 -0.037949 -0.226601 -0.020684 -0.108316 -0.138144 0.089990 0.020487
life 0.570242 0.286970 0.035547 0.025490 0.018666 -0.330183 -0.811983 0.009588 -0.228537 -0.379442 0.643829 0.450784 0.124380 -0.165687 -0.489754 -0.253102 -0.113763 -0.146559 0.013528 0.022736 -0.451423
replay 0.147110 -0.262411 -0.391460 -0.427630 0.076572 -0.763827 -0.293442 0.057926 -0.384241 0.474880 -0.248300 0.173647 -0.122598 -0.438683 -0.200279 0.214554 -0.498851 0.044977 0.444494 0.751228 -0.507728
wait -0.441750 -0.722911 -0.106821 0.447110 0.618955 0.057238 -0.245784 0.337970 -0.054032 -0.380956 0.090817 0.189232 -0.353676 -0.120298 -0.038811 -0.504711 -0.595190 0.089614 -0.682908 -0.504621 -0.216956
choos -0.074249 -0.117794 -0.047664 0.292989 0.477130 -0.349462 -0.367567 0.136032 -0.051470 -0.323901 -0.341272 -0.404357 -0.014354 0.501271 -0.115629 -0.082823 0.111843 -0.111700 0.611111 0.412605 -0.211849
present -0.175373 0.037086 0.125013 0.168189 0.287191 0.123541 -0.246125 -0.463884 -0.462411 0.008335 -0.138246 -0.004442 -0.089415 0.262441 -0.214316 -0.257208 0.007022 0.078997 -0.181429 -0.031388 -0.130812
seminar 0.370172 0.627971 -0.334890 -0.151283 0.159970 0.047631 -0.271918 -0.357612 0.008588 -0.293531 0.233058 0.501584 0.054885 -0.196877 0.225794 -0.231379 0.343556 0.272360 -0.171215 0.164433 -0.280604
import 0.496835 0.107649 -0.101383 -0.045377 0.087879 -0.413707 0.131973 -0.306217 -0.325621 0.204475 -0.223298 0.134772 0.252814 -0.249515 0.164552 0.078669 -0.210282 0.073152 -0.021050 0.444563 -0.175452
instructor 0.357437 -0.238959 0.191601 0.356936 0.448149 0.090948 -0.036468 -0.405081 -0.176376 0.034986 0.400013 0.176630 0.149161 -0.210104 0.074596 0.215715 -0.086206 0.374624 -0.467103 0.321444 -0.450355
visual -0.263256 -0.015178 -0.074849 0.357735 -0.358515 -0.194356 0.643299 -0.342592 -0.436478 0.299798 -0.696134 0.169670 0.058295 -0.136282 -0.079208 -0.048798 0.037837 0.144958 0.586927 0.542944 -0.030298
close 0.352355 0.706253 0.002247 -0.677223 0.204163 -0.017385 -0.142571 -0.452069 -0.184428 -0.661065 0.309995 0.795565 0.571636 -0.112308 -0.378028 0.052558 0.216584 0.015782 -0.049211 -0.162616 -0.590241
point 0.074428 -0.224305 -0.384499 0.219094 0.235371 0.005809 -0.050502 0.016589 -0.244404 0.114997 0.110315 0.188823 -0.105370 -0.305831 -0.121892 0.122161 -0.597742 0.037755 -0.044721 0.305273 -0.085641
product 0.015666 0.146913 -0.074253 -0.099155 0.151424 -0.070751 -0.544444 -0.227132 -0.401232 -0.336013 -0.264068 -0.085946 0.102893 0.635098 0.010047 0.066777 0.142524 -0.057069 0.154375 -0.011586 -0.206595
awkward -0.152054 0.262728 -0.395708 -0.107289 -0.051754 0.144474 -0.468070 -0.309820 -0.545879 -0.005771 -0.035213 0.171190 0.128044 0.272365 0.668825 -0.014627 -0.024400 0.125781 -0.108724 0.272600 -0.325165
procrastin 0.363863 -0.026410 -0.394078 -0.057750 0.231186 -0.183240 -0.345921 -0.125065 0.007697 0.015216 -0.290906 -0.201053 -0.338798 0.007255 -0.086677 0.099067 0.111450 0.065776 -0.148255 0.545157 -0.235082
suit 0.017833 -0.021803 -0.181521 0.222743 0.384790 -0.365684 -0.203545 -0.174875 -0.067243 -0.404657 -0.257988 -0.337470 -0.019644 0.348610 -0.179247 0.076930 -0.153569 -0.152955 0.491125 0.424775 -0.412254
task -0.281377 -0.529759 -0.025321 0.090284 0.073761 -0.317521 -0.083820 -0.282163 -0.201127 -0.321812 0.027624 0.109577 -0.022245 0.774861 0.026991 -0.428646 -0.250392 -0.017032 0.218949 0.229534 -0.210277
group 0.140295 0.279940 -0.237745 0.383623 0.304685 0.572922 0.016756 -0.460054 -0.550021 -0.121040 0.020495 0.135139 0.366082 0.038688 0.817496 -0.192892 -0.062546 0.020167 0.137143 -0.198551 -0.021419
session 0.002069 0.064171 -0.272187 -0.087287 0.418539 0.316259 -0.673269 -0.351449 -0.029478 -0.100269 0.333301 0.164476 -0.253468 0.116173 0.451145 0.126048 0.101668 0.374436 -0.357551 0.417903 -0.341350
prerecord 0.326606 0.246964 -0.138250 0.038600 0.503550 -0.131712 -0.431689 -0.335927 0.068831 -0.327532 -0.281166 0.036388 -0.317904 -0.106281 0.093446 0.006811 0.181731 0.362893 -0.080453 0.873889 -0.581660
straight 0.092455 -0.620186 -0.054105 -0.013518 0.284635 -0.119419 0.045668 -0.248354 0.105456 -0.080229 0.205658 0.383191 -0.153325 -0.531417 -0.023949 -0.394618 -0.502532 0.030158 -0.510532 -0.213858 -0.352215
pay 0.604844 0.395850 0.077200 0.000522 -0.149876 0.003134 -0.319517 -0.162114 -0.199587 0.315794 -0.578277 -0.372422 -0.183373 0.628504 -0.409019 -0.096678 0.040162 0.236112 -0.764616 0.095975 -0.461095
anxieti -0.089797 0.389436 -0.195938 -0.198865 -0.165292 0.201249 -0.526516 -0.221573 -0.370747 -0.044116 0.126165 -0.059951 -0.307171 0.202053 0.500475 0.048342 0.313142 0.161113 0.110976 0.028051 -0.001492
effect 0.036344 0.183069 -0.015232 0.124011 0.063841 -0.086835 0.104740 -0.523971 -0.399693 -0.110569 0.038496 0.192108 0.291709 0.157867 0.221096 -0.117659 0.063149 0.001733 0.482082 0.006758 -0.348597
opinion 0.251051 -0.142149 -0.030476 0.241524 -0.048767 0.038248 0.494095 -0.401792 -0.401069 0.287505 0.105976 0.165418 0.113613 -0.472221 0.142703 0.090997 0.008074 0.191050 -0.325721 -0.061515 -0.173672
plan -0.117848 -0.022895 0.089913 0.197302 0.405562 -0.245808 -0.558211 0.197107 0.007461 -0.405019 -0.160852 -0.348439 -0.003436 0.618556 -0.276326 -0.144766 -0.068986 -0.243282 0.292808 0.135409 -0.274866
powerpoint -0.281356 0.060137 -0.279079 -0.224125 -0.282548 -0.066868 0.502061 -0.259092 -0.191539 0.063654 -0.313489 0.662047 -0.356802 0.060319 0.021789 0.285574 -0.273458 0.655064 -0.274331 0.489190 -0.117585
sens 0.417225 -0.052133 0.106130 -0.264969 -0.274829 -0.139080 -0.443464 -0.359111 -0.269159 -0.514626 -0.092350 -0.131917 0.226001 0.206074 -0.546272 -0.028362 0.001840 0.180844 -0.099033 -0.095982 -0.240156
anytim 0.105025 -0.268189 -0.376687 0.071591 0.029542 -0.406754 -0.427655 0.118587 0.030296 -0.005589 -0.359318 -0.176409 -0.328954 -0.024575 0.362650 0.066777 -0.188119 -0.110527 -0.095493 0.799159 -0.473045
human 0.355870 0.090320 0.326770 0.085123 -0.073370 0.238123 -0.268920 -0.496147 -0.082485 -0.225806 0.306833 0.020880 0.712004 0.142019 -0.096180 0.329653 0.069743 0.276496 -0.228909 0.350327 -0.361569
requir 0.094177 0.011174 -0.052655 0.310523 0.370461 0.059887 -0.038650 -0.478102 -0.016192 -0.068749 -0.078854 -0.099293 0.253580 0.269009 0.069292 -0.085577 0.375710 0.026214 0.024773 0.470959 -0.170847
form 0.073644 0.316384 0.080291 0.129275 0.004944 0.102179 0.138739 -0.550642 -0.194857 -0.141284 0.022734 0.431601 0.460275 -0.024179 -0.057666 -0.098061 0.188863 0.165102 0.058972 0.320472 -0.327348
doubt 0.181706 -0.241040 -0.317661 -0.055115 0.219156 0.325495 0.491851 -0.336157 -0.591169 0.045788 0.310038 0.323102 -0.115193 -0.315982 -0.286886 0.107579 -0.326514 0.272416 -0.552300 -0.445805 -0.304455
enjoy 0.049476 0.200322 -0.134640 0.178374 0.287481 -0.048396 -0.035930 -0.389370 -0.293587 -0.161082 0.113006 0.258520 0.168054 0.122860 0.130620 -0.193096 0.230020 0.161079 0.052069 0.257699 -0.533057
put -0.080011 -0.144475 -0.067360 0.033987 0.225667 -0.076600 -0.317254 0.005082 -0.464061 -0.164112 0.085603 -0.174695 -0.064950 0.199862 -0.180058 0.036473 -0.266548 0.109444 -0.063817 0.226723 -0.172784
whilst -0.266793 -0.177104 0.095532 0.257988 0.019984 0.011550 0.114454 -0.205788 -0.199069 -0.252628 -0.271622 0.227900 0.108240 0.153243 -0.051932 -0.439794 -0.541647 0.093033 0.029589 0.373347 -0.233214
comfort 0.200750 -0.021432 -0.157399 -0.247007 0.148880 -0.273403 -0.400709 -0.391741 -0.213130 -0.402453 -0.099567 0.026017 0.122166 0.116985 0.161870 -0.018604 -0.292073 0.030404 -0.125613 0.031890 -0.115314
learner -0.649817 -0.111224 -0.311134 0.419737 -0.432823 -0.248160 0.662865 -0.358246 -0.009817 0.083385 -0.296760 0.206494 0.028264 0.187807 0.087022 -0.131599 0.050264 0.265360 0.695405 0.269063 0.236965
struggl -0.053666 -0.193685 -0.309187 0.032021 0.020557 -0.284080 -0.096016 -0.219275 -0.537611 -0.132301 -0.224379 0.033888 0.047797 0.228375 0.234616 -0.179006 0.043412 -0.065308 -0.025620 0.416163 -0.350422
creat 0.206521 0.255220 0.090745 0.199337 0.221709 -0.080298 -0.452936 0.010966 0.061682 -0.381898 -0.239039 0.056924 0.520652 0.444645 -0.400121 -0.237992 0.046759 -0.434399 -0.132100 0.161697 -0.289712
interest 0.350592 -0.023221 0.065066 0.323744 0.083222 -0.001593 0.312002 -0.407084 -0.252291 0.201666 0.005154 -0.061464 0.098490 -0.040129 -0.172306 -0.194534 0.105741 0.108314 -0.020351 0.349121 -0.115052
long -0.473982 -0.227341 -0.231793 0.115812 0.282787 -0.029401 -0.391114 -0.127203 -0.220928 -0.422545 -0.089081 -0.098197 -0.457389 -0.042906 0.269970 -0.142839 -0.141566 -0.075266 -0.023122 0.039788 -0.080763
physic 0.281207 0.371299 0.002208 -0.421648 -0.033277 -0.115125 0.033724 -0.252089 -0.488098 -0.271676 0.080055 0.437841 0.007897 -0.199498 -0.292713 -0.054513 0.122338 0.150311 -0.148257 -0.101129 -0.367675
univers 0.190656 0.627492 -0.023717 -0.354105 0.287400 0.128447 -0.526851 -0.319818 0.128506 -0.358418 0.053513 0.087425 0.093895 -0.101295 -0.186494 0.430929 0.167732 0.100411 0.049601 0.005077 -0.194780
due -0.089396 0.157618 -0.003145 0.055632 0.231031 0.208295 -0.438409 -0.181601 -0.251617 -0.132907 -0.018380 -0.286338 -0.273496 0.286035 0.123485 0.075293 0.083970 -0.197597 -0.056433 0.151565 -0.032459
forum 0.189363 0.340808 -0.394624 0.310784 0.399689 0.261280 0.252739 -0.338233 -0.371732 0.152905 0.081243 0.378401 -0.262234 -0.110864 0.758846 -0.236361 0.455404 0.350417 -0.249336 0.155450 -0.573401
instant -0.191863 -0.462147 0.442986 0.271285 0.551925 0.253297 -0.013012 -0.191718 0.112116 -0.216045 0.276275 0.051782 0.198563 -0.310445 -0.115666 -0.524022 -0.391051 -0.131412 -0.869844 -0.619240 -0.425738
issu -0.202105 0.313225 -0.015385 0.105473 -0.026436 0.416057 -0.564656 -0.267813 -0.300295 -0.135711 0.215085 -0.401466 -0.154012 -0.184173 0.376754 -0.002662 0.136812 -0.039393 -0.359282 -0.007083 -0.100411
easiest 0.112061 -0.195459 -0.161468 -0.036719 -0.202112 0.014162 0.176322 -0.372752 -0.165996 -0.003135 0.066199 0.111811 0.364579 0.172046 0.207414 -0.215841 -0.229909 -0.134211 0.051294 0.374676 -0.339271
receiv 0.096453 -0.400104 0.131508 0.109676 0.460683 -0.042394 0.171518 -0.240354 -0.106284 -0.160244 0.167688 0.184493 -0.012909 -0.290478 -0.139982 -0.293970 -0.352271 0.101377 -0.489766 -0.444876 -0.390346
enabl 0.073230 -0.081649 0.035040 0.288745 0.285237 0.143689 0.156957 -0.518556 -0.250055 -0.278676 -0.009617 0.179967 -0.028548 -0.074001 0.062187 0.060967 -0.208647 -0.063999 -0.222710 0.286628 -0.241285
problem -0.172981 0.122628 -0.022875 0.219386 0.121039 0.514681 -0.239276 -0.195209 -0.432700 -0.160697 0.222325 -0.003186 -0.042881 -0.021967 0.221574 -0.023204 0.061734 -0.007473 -0.439224 -0.029359 -0.201342
process 0.003571 -0.128009 -0.122939 0.384036 0.190640 -0.493531 0.294412 -0.369343 -0.348678 0.230865 -0.529002 -0.310212 -0.124671 -0.200504 -0.033117 -0.136102 -0.100790 0.267684 0.494364 0.183249 -0.299819
great 0.173112 0.183874 -0.303710 -0.191975 0.215124 0.080597 -0.245080 -0.262748 -0.108482 -0.248914 -0.047569 0.254207 -0.250502 -0.172954 0.274191 -0.113334 0.043057 0.154748 -0.259676 0.295423 -0.367525
harder 0.193327 -0.149081 -0.219197 -0.108373 -0.001757 0.034032 -0.322366 -0.240051 -0.299672 -0.001819 -0.031194 -0.215826 -0.009095 0.281590 0.106478 -0.255288 0.092231 0.072709 -0.181711 0.582506 -0.478181
level 0.179355 0.143861 -0.082110 -0.103166 -0.086309 0.080475 0.082427 -0.257590 -0.365301 0.315414 0.042262 0.206880 0.080306 0.158873 -0.011832 -0.027611 0.193572 0.127603 -0.088515 0.088677 -0.107633
depth -0.114008 -0.498893 -0.177148 0.479375 -0.003766 -0.032893 0.565841 -0.215536 -0.432060 0.232751 0.027422 0.390934 -0.006450 -0.098418 -0.010388 -0.199785 -0.355743 0.175556 -0.135131 0.057385 -0.362640
friend -0.063042 0.122573 0.248751 0.011729 0.101641 0.158606 -0.215944 -0.224421 -0.291690 0.019523 -0.089421 0.407703 0.259263 0.123192 -0.119379 0.034271 -0.018778 0.222947 -0.497724 -0.026275 -0.287606
practic 0.010789 -0.024640 0.021080 0.107074 -0.004576 0.156942 0.085082 -0.243131 -0.295725 -0.078095 -0.008895 -0.248261 -0.051872 -0.075276 0.036360 0.054884 -0.110981 -0.152440 0.116153 0.130783 0.305436
sit 0.343961 0.216053 -0.065813 -0.033328 0.234884 -0.264709 -0.289918 -0.121564 -0.035543 -0.229077 0.002710 -0.018694 -0.101691 0.227981 0.009818 -0.016705 0.136562 0.021836 0.057915 0.179132 -0.075845
provid 0.053665 0.053756 0.084217 0.135495 0.260356 -0.154767 -0.099272 -0.255986 -0.013989 -0.056688 -0.239044 0.045855 -0.087124 0.073803 0.166741 -0.428314 0.378782 0.303231 -0.325844 -0.079589 -0.266672
room 0.319094 0.190764 -0.181976 0.189199 0.018029 0.236708 0.286555 -0.513659 -0.458978 -0.034804 0.135954 0.214957 0.116988 -0.199878 0.278260 -0.060679 0.205797 -0.131180 -0.170295 -0.023629 -0.275422
clear 0.078588 -0.375942 -0.282793 0.010598 0.129998 0.051975 0.143169 -0.139259 0.050596 0.124039 0.249549 0.181616 -0.041898 -0.167041 -0.122784 -0.188977 -0.242753 0.215006 -0.239159 -0.351757 -0.058530
compar 0.193361 0.227149 -0.292556 -0.077815 0.351004 -0.427368 -0.131036 -0.165370 -0.050324 -0.184783 0.244129 0.288177 -0.076107 -0.034048 0.050313 -0.305706 0.241997 0.341102 0.034515 0.257081 -0.462248
properli -0.024295 -0.090012 -0.223540 0.154899 0.055757 -0.013471 -0.011741 -0.271711 -0.524874 0.181931 0.048602 0.267356 0.028123 -0.087196 -0.257488 -0.265066 -0.194132 0.129858 -0.051794 0.148054 -0.336582
week -0.296893 -0.004629 -0.041480 0.051194 0.187818 0.005137 -0.579183 0.064340 0.005290 -0.611988 -0.134970 0.101162 -0.225773 0.611025 0.007010 -0.504992 0.234123 -0.132039 -0.226971 -0.055066 -0.409593
spot 0.119228 -0.447261 -0.257629 -0.034155 0.053429 0.167799 0.041095 -0.232526 -0.170254 -0.174890 0.258156 0.319465 -0.101387 -0.132953 0.106783 -0.499771 -0.633744 0.140558 -0.367504 -0.095400 -0.277352
wast -0.294752 0.247280 -0.259773 -0.018183 0.291739 -0.077386 -0.369226 -0.288540 -0.522862 -0.254809 -0.005709 -0.117300 -0.110769 0.119802 0.031657 0.218919 -0.314633 -0.045260 0.238176 0.171527 -0.570812
allow 0.016403 -0.065058 -0.182227 0.354939 0.249495 -0.182996 0.049473 -0.171334 -0.324253 -0.343453 0.032792 0.113879 0.010706 0.223631 0.188518 -0.265281 -0.039428 -0.021359 -0.101542 0.183983 -0.305529
faster 0.233802 -0.134214 -0.094885 0.181460 0.080430 -0.165174 0.171516 -0.278213 -0.201276 -0.186262 -0.293251 0.144175 -0.158529 0.018669 -0.063713 -0.208576 -0.261743 0.052324 0.119427 0.223208 -0.362383
gain 0.273580 -0.451567 -0.091228 0.054927 0.153613 -0.163320 0.331566 -0.425268 -0.281402 0.474889 -0.250075 0.210754 -0.214766 -0.382749 -0.249630 -0.388578 -0.275664 0.176391 -0.218772 0.215761 -0.385993
involv 0.312523 0.227849 -0.107252 0.240373 0.154643 0.198137 0.251903 -0.523683 -0.337054 0.119296 0.086950 0.323128 0.159740 0.208248 0.076477 -0.105174 0.201082 0.106473 -0.172693 0.115294 -0.635987
organ -0.165471 0.228876 -0.150569 0.331905 0.352384 -0.252117 -0.261326 -0.197309 -0.059431 -0.164614 -0.201220 -0.289117 -0.010217 0.269924 0.016610 -0.027435 0.064479 -0.231566 0.316216 0.147974 -0.383688
possibl 0.450257 -0.206943 0.007601 0.246846 0.082034 0.010090 0.140248 -0.392524 -0.115445 -0.181652 0.031689 0.084238 0.362148 -0.206388 0.139599 0.068152 -0.101336 -0.054052 -0.511639 0.383338 -0.477917
resembl 0.568144 0.879102 0.006125 -0.733181 0.023633 -0.156175 -0.386840 0.067420 -0.287660 -0.481314 0.600302 0.501660 0.120387 -0.177312 -0.192627 0.047580 0.355980 0.062504 0.010042 -0.392603 -0.684313
cours 0.070414 0.393190 -0.095583 -0.156217 0.124788 0.067993 -0.109512 0.013508 0.193824 -0.194969 0.429334 0.246779 0.094274 0.251955 0.064068 -0.196303 0.435922 0.159550 0.022548 0.154223 -0.363467
fit 0.147006 0.113298 -0.047628 0.165177 0.287034 -0.320616 -0.482257 0.152802 0.043073 -0.334629 -0.389348 -0.158109 0.022931 0.450489 -0.262940 -0.363072 0.157423 -0.341572 0.444102 0.274687 -0.590978
hold 0.268506 0.495007 0.364678 0.484660 0.264853 0.032322 -0.157550 -0.374616 -0.145756 -0.258730 0.079892 -0.215545 0.052946 0.484444 0.167876 -0.122830 0.320048 -0.174791 -0.228291 -0.106874 -0.592824
oppos 0.013296 -0.114124 -0.280305 0.069998 0.289701 -0.217644 -0.090657 -0.145015 0.041554 -0.280968 -0.092240 0.149443 -0.267726 0.045490 -0.039465 -0.173241 0.081931 0.217323 0.155215 0.243655 -0.201986
slow -0.155080 0.110898 -0.235249 -0.084186 0.073213 -0.173535 -0.328287 0.116080 -0.198113 0.030464 -0.247662 -0.174782 -0.401160 -0.411850 0.445793 0.184567 -0.322730 0.158106 0.060045 0.484794 -0.389841
amount -0.359393 -0.088227 0.094232 0.096060 0.331717 -0.049213 -0.268174 -0.052258 -0.183555 -0.441619 -0.158949 -0.076519 -0.005934 0.385701 -0.042834 -0.038474 -0.174635 -0.061191 0.326565 0.085925 -0.230017
break 0.111609 0.011133 -0.220387 -0.107411 0.055867 -0.345385 -0.225314 0.085017 -0.234851 0.147799 -0.275299 -0.073666 -0.260746 0.199387 -0.201316 0.051897 -0.354560 0.061828 0.094488 0.331331 -0.319936
knowledg -0.089174 -0.082623 -0.076589 0.117184 0.004144 0.133872 0.460387 -0.437263 -0.063318 -0.014795 0.002082 0.345693 0.122472 -0.093677 -0.020293 0.129036 -0.135969 -0.050716 0.091463 -0.181162 -0.067344
languag 0.027733 -0.065651 0.140108 0.121602 -0.121525 -0.127665 0.134727 0.019172 -0.026366 -0.074439 -0.016010 -0.252305 0.268684 -0.088783 0.136855 0.024370 -0.147605 -0.274088 0.221188 0.117362 0.224976
regular 0.334939 0.475044 -0.074125 -0.304667 0.168395 -0.268538 -0.174665 0.070683 -0.352859 -0.745247 0.093303 -0.010569 0.197438 0.161330 -0.277628 -0.008524 0.069424 -0.233881 0.031106 -0.284010 -0.474718
slide -0.314702 0.044312 -0.334840 0.048877 0.019854 -0.351612 0.204583 -0.064695 0.046433 0.303277 -0.033653 0.500802 -0.770808 -0.333169 -0.307900 0.219610 0.137205 0.641973 -0.053596 0.496304 -0.121553
zone -0.154497 0.199176 -0.145069 0.150784 0.425538 0.124750 -0.407640 -0.344298 -0.178906 0.015042 -0.027945 -0.323219 -0.015442 0.160720 -0.235315 0.323131 0.096094 0.081343 0.091053 0.145666 -0.435062
confus -0.177942 -0.537733 -0.067214 0.114546 0.185785 0.009770 0.027532 -0.010309 -0.217575 -0.027351 -0.178572 0.101843 -0.030119 0.108921 -0.144815 -0.219859 -0.532525 0.070613 -0.100389 -0.034058 -0.268206
fast -0.315965 -0.162370 -0.300628 -0.074218 -0.174256 0.130110 -0.045911 -0.125978 -0.104197 -0.059951 -0.325803 0.021118 -0.473471 -0.183137 0.156111 -0.144574 -0.541376 0.054933 -0.078180 0.404044 -0.199724
repli -0.465036 -0.578608 -0.050957 0.394436 0.267230 0.279827 -0.084105 0.050210 0.026275 -0.359284 0.409860 -0.052547 -0.077834 -0.052325 -0.005252 -0.365083 -0.696300 0.066469 -0.281736 -0.285514 -0.114066
revis 0.072599 -0.274156 -0.474753 0.141384 0.227817 -0.321310 -0.094921 0.294440 -0.281789 0.226368 -0.097541 0.021529 -0.296745 0.015898 -0.167792 -0.115437 -0.150057 0.179203 0.030637 0.341516 -0.263770
share 0.136182 0.060062 -0.043668 0.254784 0.211525 0.746288 0.217357 -0.617114 -0.371834 0.186558 0.003204 -0.162455 0.050140 -0.519002 0.007294 -0.206856 0.196643 0.057323 -0.385402 -0.655438 -0.011729
skip 0.001404 -0.155103 -0.312921 -0.083394 0.096066 -0.489150 -0.072147 0.108198 -0.052050 0.084094 -0.231591 -0.102304 -0.354448 -0.181147 -0.359967 0.268128 -0.331180 -0.000191 0.294397 0.474481 -0.284568
stuff -0.085066 -0.284870 -0.191222 0.224319 -0.100735 0.132025 0.181441 -0.197339 -0.047253 0.016776 0.083005 0.239654 -0.038967 0.185971 -0.094991 -0.186532 -0.189930 0.062104 0.106925 0.232081 -0.177259
benefit 0.061816 -0.051331 0.258194 0.134070 0.166083 -0.010554 -0.018320 -0.302838 -0.348152 -0.190767 -0.060058 0.372517 0.110717 0.037731 0.083637 0.052634 -0.091973 0.021161 0.026428 0.054419 -0.316846
decid -0.044748 0.078190 -0.076801 0.212602 0.101070 -0.239848 -0.282453 0.063021 0.041160 -0.273121 -0.241325 -0.398338 -0.199068 0.288125 -0.145223 0.071229 -0.004086 -0.094940 0.401670 0.490261 -0.161997
pre 0.392618 0.215298 -0.370440 -0.146840 0.207639 -0.147436 -0.267409 -0.071347 0.025431 -0.136676 0.059562 0.145103 -0.209951 -0.207399 -0.054314 -0.021960 0.312371 0.539764 -0.165739 0.768894 -0.680522
quickli -0.153283 -0.288456 -0.160225 0.136960 0.152747 0.159755 -0.136271 -0.095261 -0.129896 0.047301 0.052523 0.037567 -0.265787 -0.217355 -0.218532 -0.288001 -0.426268 0.136416 -0.371321 -0.014894 -0.150541
repeat -0.029275 -0.172119 -0.335594 -0.166592 0.172548 -0.273197 -0.072693 -0.049838 -0.103142 0.258410 -0.150141 0.180919 -0.185147 -0.435316 -0.219340 0.189841 -0.483946 0.054667 0.012819 0.504391 -0.477154
research -0.255768 -0.376252 -0.214849 -0.019969 0.075007 -0.144366 0.133772 -0.087644 -0.125410 0.074442 -0.192385 0.083517 -0.170608 0.090693 -0.094219 -0.165630 -0.508131 -0.067469 0.401134 0.189093 -0.141729
resourc 0.025283 -0.185405 -0.303808 0.073857 -0.052705 -0.169671 -0.078694 -0.016570 -0.135904 -0.248436 0.037599 0.111684 -0.085107 0.343572 0.079689 -0.022725 0.064107 0.202945 0.033262 0.131938 -0.341459
contribut 0.071491 0.264599 0.025332 0.068377 0.299927 0.211034 0.061318 -0.197331 -0.244922 -0.121481 0.148636 0.043009 0.068078 0.062475 0.268522 0.020614 0.023307 0.011508 -0.056381 -0.012393 -0.228397
free -0.068103 0.027779 -0.029949 0.068313 0.173081 -0.150870 -0.275031 -0.144151 -0.092732 -0.337803 -0.164028 -0.160812 0.053117 0.390918 -0.035746 0.112233 -0.207332 -0.109233 0.386866 0.267842 -0.400995
info -0.094359 -0.067154 -0.254733 0.047600 0.030292 -0.202330 0.015001 -0.143078 0.077702 0.122806 -0.098349 -0.097233 -0.268266 -0.038165 -0.049086 0.105105 -0.152674 0.130854 0.104600 0.388617 -0.127800
send -0.499498 -0.416828 -0.034838 0.179368 0.417630 0.047645 0.000419 0.051058 -0.415051 -0.052061 0.216549 0.359905 -0.234198 0.029056 0.206443 -0.459542 -0.301819 0.447735 -0.363490 -0.148669 -0.503073
type 0.019514 -0.058714 -0.072512 0.329475 0.138255 0.093605 0.084690 -0.295082 -0.179523 -0.095190 -0.033022 0.090142 0.114178 -0.077732 0.149890 -0.277549 -0.018408 -0.098821 -0.014387 0.037530 -0.208028
voic -0.115386 -0.021593 0.085627 0.333854 0.025204 0.081790 0.151181 -0.159692 -0.125365 0.441557 -0.003212 0.313605 -0.058110 -0.405765 -0.473293 0.219177 0.007505 0.455031 -0.484732 0.262759 -0.216760
depend -0.310459 0.100533 0.068857 0.087284 0.185389 0.046761 -0.319028 -0.111155 -0.457990 -0.014186 -0.142477 -0.031478 -0.113641 -0.042504 0.015993 -0.081581 0.147314 -0.181902 0.119220 0.024464 -0.304661
didnt 0.046066 -0.222073 -0.241019 -0.252138 0.085833 -0.147599 0.033467 -0.116355 -0.216105 0.297652 -0.098925 0.311079 -0.029541 -0.155157 -0.377466 0.060972 -0.553417 0.063284 0.239602 0.442641 -0.326354
facetofac 0.306351 0.476851 0.148484 -0.162243 -0.022319 -0.003461 0.021638 -0.292323 -0.131929 -0.431270 0.182114 0.175922 0.275884 -0.400000 -0.218646 0.146936 0.063724 0.100006 0.046609 0.046093 -0.230095
googl 0.063971 0.313983 0.123459 0.000361 0.066259 -0.246337 -0.043506 0.161497 -0.597402 -0.600965 0.464464 0.264610 -0.365463 0.265326 0.592726 -0.149631 0.262435 0.228290 0.176249 -0.239963 -0.283567
maintain 0.182453 0.216615 0.118418 0.062107 -0.053640 0.066628 -0.444462 -0.120357 -0.180832 -0.102076 -0.295038 -0.169405 0.125141 0.215232 -0.627230 -0.047152 0.148637 -0.221929 -0.045091 -0.164871 -0.298291
review -0.123192 -0.347230 -0.253703 0.154549 0.382574 -0.281163 0.069517 0.207754 -0.114865 0.041046 -0.326138 0.025381 -0.386921 -0.125096 -0.047024 0.039318 -0.304048 0.140095 -0.132621 0.525364 -0.526218
start 0.121388 -0.101321 -0.217711 -0.011312 0.044416 -0.173476 -0.319593 0.130106 -0.366120 -0.196549 -0.226481 -0.309147 -0.398184 0.109403 0.115387 -0.018919 -0.101658 -0.083978 -0.044391 0.248851 -0.334335
view -0.244107 -0.075607 -0.088684 0.232345 0.243911 -0.057786 0.105261 -0.216223 -0.031067 0.195233 -0.237796 -0.021288 -0.240624 -0.367885 -0.337645 0.118760 -0.206848 0.027789 0.195474 0.135528 -0.009599
written -0.165266 -0.187193 0.049267 0.364769 0.140674 -0.288671 0.511081 0.005559 -0.086535 0.324286 -0.219582 0.146205 0.066927 0.029067 0.002747 -0.137738 -0.070246 0.396208 0.193565 0.171163 -0.241573
year 0.035011 0.151001 -0.148007 -0.077711 0.184302 0.065858 -0.093701 -0.325164 0.018700 -0.078234 -0.191347 0.079369 -0.407831 -0.268969 -0.001275 0.199983 0.423998 0.145966 -0.097295 0.455964 -0.100718
benefici 0.063107 -0.128708 0.184469 0.276633 0.207319 0.038400 0.098836 -0.329045 -0.226782 -0.204271 -0.140473 0.114979 0.152238 0.054208 0.284756 -0.023016 0.137970 0.014616 0.089175 0.128899 -0.303607
catch 0.000040 0.026134 -0.352307 0.059161 0.143938 -0.116056 -0.232337 0.049307 -0.344211 0.333681 -0.075357 0.054131 -0.350707 -0.040709 -0.190659 0.117604 -0.316861 0.101507 -0.202081 0.163536 -0.336548
hand -0.237912 -0.369732 -0.039733 0.137640 0.137409 0.058624 -0.010429 -0.178731 -0.227513 -0.223437 -0.098075 0.068521 -0.144269 -0.010560 0.065885 -0.132013 -0.186170 0.014267 -0.058763 0.099058 -0.399671
inperson 0.495723 0.658789 -0.105014 -0.642880 0.104970 -0.327892 -0.092392 -0.218514 -0.278943 -0.565822 0.115044 0.352899 0.087229 -0.414497 -0.375452 0.070682 0.014190 -0.150988 -0.007837 -0.074248 -0.613810
love 0.143639 0.119275 -0.014391 0.115339 0.122968 0.123503 0.086743 -0.355493 -0.115713 -0.131234 0.081616 -0.001773 0.127637 -0.209392 0.096849 -0.096715 0.079790 -0.005721 -0.085802 0.267320 -0.399491
organis 0.086532 0.082495 -0.129858 0.177329 0.226406 -0.069579 -0.123588 -0.113436 -0.124328 -0.013399 -0.111829 -0.304730 0.061930 0.411793 -0.343062 0.031866 0.058375 -0.033287 0.279646 -0.237138 -0.261807
place 0.112702 0.024392 -0.166348 0.291715 0.103598 0.051133 -0.050478 -0.330392 -0.215451 -0.092332 0.098111 -0.017550 0.019816 -0.036520 0.271559 -0.110203 0.087779 -0.156230 0.091634 0.267505 -0.335733
replic 0.361911 0.474016 0.234676 -0.258564 -0.026640 0.012851 -0.056359 -0.264925 -0.333142 -0.364416 0.509266 0.317879 0.218879 0.141102 -0.346487 0.088696 0.461485 -0.013135 0.101500 -0.443576 -0.466392
combin -0.101086 0.373104 -0.448975 -0.107499 0.314728 0.059555 -0.069458 -0.158280 -0.126804 -0.132139 0.085437 0.264236 -0.283958 0.152602 0.448041 -0.188076 0.451656 0.396495 -0.076661 0.219714 -0.427563
spend -0.329000 -0.011739 -0.073735 0.262231 0.363134 -0.062460 -0.219890 -0.157121 -0.067257 -0.081482 -0.315118 -0.401395 -0.027228 0.077470 -0.174379 0.299277 -0.190647 -0.141334 0.550031 0.206685 -0.222954
support -0.214565 0.030651 0.043172 0.014298 0.287508 0.248328 -0.065710 -0.135416 -0.179034 -0.097745 -0.052361 0.115151 -0.147959 0.054139 0.040878 -0.185034 -0.115872 0.131967 -0.341108 -0.137787 -0.329440
timet -0.138789 -0.116690 -0.057373 0.083199 -0.001981 -0.001646 -0.399870 0.056825 -0.012114 -0.421808 -0.093697 -0.157659 0.019784 0.452036 0.043438 -0.195942 0.137717 -0.241247 0.157865 0.035757 -0.407439
tutori -0.116723 0.346245 -0.119554 -0.122427 0.096486 0.324431 -0.167367 -0.273005 -0.025548 -0.139569 0.108155 0.302626 -0.258971 -0.094537 0.269895 -0.168026 0.178415 0.086297 -0.300648 0.103819 -0.154530
aspect 0.220714 0.322872 0.502214 -0.205571 -0.074454 0.224154 -0.172732 -0.320469 -0.023498 -0.003298 0.089104 0.250145 0.144604 -0.108481 -0.052929 0.058446 0.100235 -0.049948 -0.108444 -0.253537 -0.161510
base 0.101494 0.323949 -0.189241 0.258121 0.082941 0.089299 0.394938 -0.120645 -0.405381 -0.046703 0.009913 0.202637 -0.199099 -0.161609 0.404749 -0.061387 0.408974 -0.073080 0.145338 0.027564 -0.319146
educ 0.149019 0.348450 -0.095115 -0.334837 0.101610 0.014616 -0.224506 0.030452 -0.104622 -0.180704 0.149497 0.291077 0.097397 -0.104317 -0.215076 0.145997 -0.141457 0.047423 0.026466 -0.134072 -0.224825
gener -0.009689 -0.117107 -0.095270 0.052243 -0.079687 0.106097 0.114573 -0.175629 -0.265803 -0.169325 -0.049231 0.095062 -0.112850 -0.058049 -0.075535 -0.071090 0.013162 0.027712 -0.099173 -0.093976 -0.351053
quick 0.056984 -0.452121 0.130894 0.460330 0.485024 0.112821 0.087824 -0.017614 0.048964 -0.110435 0.254256 -0.053798 -0.012359 -0.469771 -0.149855 -0.325351 -0.472240 0.041374 -0.455392 -0.485337 -0.363110
refer 0.334285 -0.364469 -0.623244 0.181328 0.155833 -0.235033 0.059592 0.419333 0.041231 -0.259697 -0.184824 0.040561 -0.399559 -0.004040 -0.045017 0.051583 -0.359761 -0.035947 -0.125431 0.691638 -0.547287
tend -0.045899 0.120202 -0.136375 -0.037227 0.200419 0.016257 -0.264783 0.035788 -0.065285 0.068548 -0.272873 -0.113474 -0.326198 -0.062834 0.083730 0.014873 0.175974 0.068497 -0.189724 0.456867 -0.285427
collabor 0.436484 0.103014 0.000326 0.164457 0.089855 0.150896 0.134065 -0.474286 -0.314675 0.128440 0.141990 0.085445 -0.035532 -0.067994 0.219472 0.111457 0.207755 0.140813 -0.113790 -0.098968 -0.480270
join -0.233277 0.419777 -0.130547 0.225661 0.200728 0.392761 -0.372587 -0.231878 -0.387354 0.195831 0.175330 -0.077356 -0.281018 -0.114800 0.356162 -0.047745 0.145425 0.004330 -0.135808 0.123422 -0.416861
play 0.109868 -0.353701 -0.454509 0.023605 -0.066291 -0.353030 -0.198949 0.262088 0.053612 0.310663 -0.199682 0.003720 -0.289581 0.056854 0.083641 0.121209 -0.514840 0.056632 -0.011652 0.724830 -0.435976
small 0.027108 0.190351 -0.044716 0.080874 0.058396 0.306500 0.093895 -0.367213 -0.343268 -0.004941 0.214003 0.005545 -0.238543 -0.189022 0.318993 -0.093933 0.477235 -0.075711 -0.265452 -0.016033 -0.311088
verbal 0.031115 -0.293198 -0.089813 0.404548 -0.082151 0.023689 0.458259 -0.136939 -0.306464 0.311241 0.018161 0.428548 0.100434 -0.265894 -0.237775 -0.026255 -0.391156 0.327402 -0.208285 0.030600 -0.342454
addit -0.082284 -0.207872 -0.166134 0.019030 0.139875 0.055556 0.010733 -0.207017 -0.188586 -0.171569 -0.052125 -0.035902 -0.239665 -0.310583 0.048676 -0.149043 -0.214121 0.001504 -0.107856 0.151593 -0.270588
clarif 0.219876 -0.454456 -0.121930 0.133276 0.149092 0.052729 0.188511 -0.390363 -0.145060 -0.001781 -0.034483 0.163667 0.039180 -0.293167 0.002463 -0.048015 -0.484125 0.021425 -0.435687 -0.038085 -0.371007
end -0.038672 -0.017902 -0.148183 0.080703 0.140908 0.106761 -0.037270 -0.239331 -0.405348 -0.310066 -0.073124 -0.127785 -0.146902 -0.089180 0.153439 -0.112069 -0.088444 -0.074113 -0.093637 0.025277 -0.381672
found -0.141600 0.403832 -0.393194 -0.126685 0.163535 0.168419 -0.269941 -0.127199 -0.317676 -0.154956 -0.066339 0.079696 -0.133231 0.160712 0.129120 -0.116136 0.365206 0.025620 0.008635 0.302457 -0.550419
happen 0.045112 0.084514 -0.190694 0.088630 0.218768 0.194364 -0.455534 -0.373093 -0.193206 -0.165349 0.246563 -0.035565 -0.104008 -0.013843 -0.090050 0.087483 -0.033182 -0.045652 -0.072161 0.103673 -0.450190
made -0.003703 0.182848 0.113641 -0.146311 0.116417 0.103957 -0.191825 -0.305687 -0.245441 -0.031900 -0.153671 0.004086 0.106501 0.157359 -0.307810 0.172686 -0.030059 -0.107495 0.039536 -0.106144 -0.178801
offer 0.302933 0.199225 -0.069209 -0.056596 -0.030969 -0.164024 -0.067941 -0.125152 -0.211305 -0.086757 0.121458 0.125696 0.062352 -0.010457 0.025325 0.027740 0.316208 0.124259 -0.167184 0.189556 -0.308195
stick 0.093142 0.133711 -0.015081 0.225323 0.173191 -0.013709 -0.351133 0.099134 0.118615 -0.146548 -0.176295 -0.256735 0.159587 0.304776 -0.327229 -0.150766 0.150521 -0.088121 0.097392 0.028837 -0.205796
case 0.009448 -0.003489 -0.318558 -0.115923 0.376691 -0.037673 -0.041270 -0.113816 -0.219925 -0.098350 -0.036171 0.057390 -0.335098 -0.317156 0.125918 -0.024177 -0.022421 0.122857 -0.326420 0.254306 -0.403732
degre -0.060166 -0.030290 0.054489 0.114333 0.016291 0.068569 -0.016924 -0.110404 -0.054165 0.034534 -0.063711 -0.009664 0.020970 -0.072593 -0.015950 -0.034106 0.218713 -0.104918 -0.083149 0.199894 -0.183026
isol 0.219854 -0.078432 0.113920 -0.107285 0.009463 -0.092936 -0.117434 -0.330280 -0.175829 -0.276445 0.015729 -0.038001 0.504969 0.319959 -0.266243 0.468438 -0.298013 -0.048796 -0.074525 0.087633 -0.448261
thought 0.041998 -0.033604 -0.060386 0.218933 0.001123 0.346697 0.249213 -0.282688 -0.244885 0.059882 0.068652 -0.094782 -0.072090 -0.242232 0.030516 -0.282198 0.000465 0.106103 -0.301800 -0.318886 -0.048450
your 0.110057 -0.022436 -0.041304 -0.238076 0.051602 0.072150 -0.120803 -0.214890 -0.102436 -0.496115 0.071283 0.062815 0.388439 0.220023 -0.011928 0.291691 -0.230392 -0.062182 -0.079240 -0.197406 -0.151606
camera -0.236287 0.169344 0.064134 -0.147826 0.115263 0.356801 -0.140684 -0.205097 -0.107562 -0.266896 0.169203 0.106585 0.051408 0.048831 -0.100318 0.170670 0.033901 -0.127597 -0.140748 -0.210974 -0.147356
colleg 0.267227 0.200910 -0.144844 -0.305755 0.012689 -0.161991 -0.159631 -0.070213 -0.202800 -0.368566 -0.016486 0.105765 0.175771 0.166182 -0.012813 0.064908 0.161766 -0.085532 0.082860 -0.086550 -0.392486
fellow 0.088772 -0.137756 0.722138 0.367828 0.556635 0.400956 -0.086729 -0.356209 -0.321190 0.217710 0.276688 0.353678 0.174972 -0.020833 0.000219 0.315269 0.081819 0.226146 -0.765275 -0.157914 -0.798045
longer -0.367634 -0.118273 -0.190355 0.077714 0.072569 -0.100523 -0.117709 -0.235622 -0.168725 -0.026872 0.049956 0.016767 -0.079823 0.228711 -0.033528 -0.003314 -0.236474 -0.003678 0.168912 0.118527 -0.295132
show 0.058338 0.331547 0.079832 -0.023814 0.155959 -0.175093 -0.126064 -0.059445 -0.205246 -0.065054 -0.044163 0.193060 0.058790 -0.101361 -0.127266 0.043822 0.132281 -0.066601 -0.075650 0.059108 -0.262696
situat 0.078093 -0.030806 0.003262 -0.086132 -0.193485 0.043071 0.017740 -0.243813 -0.081658 -0.253005 0.158775 0.070851 0.017134 -0.000428 -0.072024 -0.059248 -0.050710 -0.112562 -0.009807 -0.295618 -0.165373
understood 0.098811 -0.365025 -0.096970 0.009332 -0.007136 -0.243662 0.145802 -0.004146 -0.179493 0.351525 -0.061053 -0.006580 -0.046731 -0.126713 0.070295 -0.035186 -0.236619 0.082736 -0.099990 -0.027513 -0.215205
add 0.105025 0.005174 -0.078575 0.071908 0.045543 0.012753 -0.117729 -0.174213 0.009146 -0.116996 -0.114061 0.003942 0.069942 0.084521 -0.293018 -0.115695 0.002835 -0.098962 -0.344010 0.007010 -0.219355
audio -0.180241 0.077106 -0.246262 -0.044402 -0.177617 -0.182128 0.192235 -0.121741 0.070369 0.022626 -0.174365 0.027230 -0.285198 -0.011492 0.007371 0.211457 0.116232 0.213938 0.334993 0.303880 0.010811
conduct 0.097631 0.387984 -0.243226 0.025209 0.302470 0.003249 -0.188699 -0.155001 -0.328340 -0.158463 0.005590 -0.061048 -0.125591 -0.000904 0.016542 0.076866 0.269526 0.039488 0.037179 0.164121 -0.407815
encourag 0.020526 0.016085 -0.002143 0.308558 0.180861 0.139351 0.126067 -0.300171 0.095229 -0.063653 0.138388 -0.169329 0.249368 0.115106 0.159396 -0.286566 0.274484 -0.036091 -0.118350 0.064701 -0.226115
instruct -0.232289 -0.042397 -0.122148 -0.027573 -0.016169 0.141425 0.235274 -0.026305 -0.093344 -0.052969 -0.000592 0.163326 -0.109982 -0.034608 -0.065293 -0.021847 -0.025953 0.074589 0.044663 -0.115209 -0.056397
passiv 0.422174 0.149903 0.055524 0.206748 0.112679 -0.338239 0.214055 -0.453051 -0.050334 -0.064367 -0.415689 0.052542 0.260101 -0.024288 -0.018273 -0.019924 0.253671 -0.091150 0.378402 0.382501 -0.510771
rememb 0.274747 -0.068150 0.203188 0.095699 0.235849 -0.447255 0.212961 -0.021515 -0.325752 0.266058 0.013179 0.231368 0.340866 -0.020993 -0.176510 -0.264160 -0.212213 0.175990 -0.108519 -0.194443 -0.423606
check -0.055984 -0.391466 -0.280459 0.066246 0.038774 -0.116405 0.083817 0.171957 -0.012251 -0.109434 -0.113546 0.088596 -0.180390 -0.035041 -0.018973 -0.021290 -0.371599 -0.098033 -0.045503 0.224951 -0.253530
clarifi 0.168985 -0.558363 -0.313919 -0.080762 0.066322 -0.021096 0.415847 -0.161749 -0.089760 0.094112 0.079983 0.170243 0.024477 -0.461776 -0.193251 -0.298607 -0.816310 0.064695 -0.316143 -0.330109 -0.496512
debat 0.185633 0.256488 0.054979 0.006804 0.029396 0.316511 -0.015145 -0.270238 -0.267717 0.022118 0.235987 0.266123 0.140573 -0.075604 0.037326 -0.105294 0.165460 0.002924 -0.354785 -0.125788 -0.452090
experienc -0.241668 0.305677 -0.132940 -0.227646 0.280504 0.147197 0.137451 0.027775 0.100815 -0.319931 0.209915 -0.066013 0.080504 0.075449 0.094589 -0.018663 0.198182 -0.043610 0.329334 -0.131037 -0.035697
kind 0.166006 0.072925 0.100981 0.053168 0.050024 0.134223 -0.003741 -0.130434 -0.003239 -0.126559 0.032496 0.013590 -0.065994 -0.049641 -0.087561 0.035806 0.213790 -0.077037 -0.354083 0.067493 -0.282542
lack 0.187718 0.261814 -0.043870 0.086989 0.052342 0.118952 -0.213792 -0.320892 -0.001680 -0.120825 0.094540 -0.269611 -0.042237 -0.072300 -0.104814 0.219579 0.359348 0.054719 -0.134330 0.263532 -0.323855
revisit -0.142795 -0.183257 -0.170250 0.143282 0.451451 -0.374045 -0.030721 0.095474 -0.073118 0.177032 -0.236354 -0.062885 -0.250008 -0.233674 0.102966 -0.009705 -0.125802 0.197623 0.055275 0.336877 -0.560803
technic -0.336173 0.163924 -0.218198 -0.137386 0.031679 0.266013 -0.232724 0.061193 0.021632 -0.221422 -0.015165 -0.503392 -0.301354 0.005691 0.104220 0.355774 0.235671 -0.196576 0.071276 -0.229187 0.193413
bad -0.094124 0.285585 -0.034366 -0.082626 -0.064342 0.219762 -0.401932 -0.003423 -0.102100 0.005557 -0.025876 -0.295026 -0.059312 -0.099088 0.192144 0.112158 0.223810 -0.225264 -0.104730 0.094119 -0.124708
bore -0.039006 0.170769 -0.083750 -0.119562 0.116329 -0.022381 -0.183516 0.048441 -0.189389 -0.270756 -0.118882 -0.001302 -0.320830 -0.007518 -0.191001 0.072457 0.244285 0.002893 0.213776 0.112350 -0.298679
doesnt -0.110068 -0.240694 0.004334 -0.115743 -0.050226 0.109472 -0.122118 -0.006874 -0.035270 -0.211085 -0.020795 0.021058 -0.068376 0.216298 0.026920 0.003738 -0.197941 -0.094757 0.057930 0.074208 0.003130
ensur -0.146208 -0.339917 0.009593 0.136920 0.017094 0.003620 0.083102 -0.239402 -0.067360 0.064203 -0.111208 0.093901 0.023574 0.177309 -0.164715 -0.144790 -0.305454 -0.066779 0.164607 0.223916 -0.310379
fact 0.045304 0.033587 -0.076209 0.108934 -0.005799 0.132040 0.009127 -0.071246 0.131839 -0.073595 -0.019560 -0.001420 0.034128 -0.002446 -0.068234 0.134607 0.048140 -0.058431 -0.112960 0.105318 -0.285162
instantli 0.066363 -0.293869 0.101862 -0.074277 0.155432 0.094204 0.047313 -0.127863 -0.049324 -0.113394 0.153303 0.282197 0.150706 -0.251679 0.125568 -0.368160 -0.377772 0.116584 -0.679891 -0.263211 -0.658467
isnt 0.002563 0.027408 -0.147757 -0.063098 0.033043 -0.075817 -0.038458 0.029531 -0.257028 -0.157577 -0.075928 0.083121 -0.071258 0.051055 -0.028996 0.008320 0.044771 -0.070733 0.017576 0.126354 -0.218492
move -0.040662 -0.246883 -0.105737 -0.000087 0.099285 -0.116352 0.143274 -0.041033 -0.068896 0.022754 -0.108191 -0.008567 -0.116912 0.066095 -0.069196 -0.227020 -0.361157 0.059113 0.077076 0.170758 -0.288781
retain 0.445799 -0.128881 0.211649 0.204679 -0.098964 -0.464786 0.133254 0.062033 -0.204460 0.318987 -0.311409 -0.170502 0.130527 0.099953 -0.317205 -0.423268 0.040036 0.297337 -0.108133 -0.152424 -0.303469
screen -0.054096 -0.049920 -0.025110 -0.096865 -0.060127 0.046574 -0.055417 -0.317769 0.044637 0.214323 -0.074746 0.164788 -0.105468 -0.135257 -0.082401 -0.031708 0.240464 0.180484 -0.208124 0.006965 -0.173611
team -0.101901 0.243503 -0.006064 0.107220 -0.293252 0.255924 0.053861 0.107110 -0.203827 -0.064484 -0.043922 -0.278168 -0.260839 -0.185368 0.538309 0.141307 0.451340 -0.165606 0.211034 -0.001724 0.206493
text -0.198148 -0.184781 -0.187185 -0.095149 -0.341065 0.053139 0.452905 -0.312817 -0.093850 0.034043 -0.041642 0.396910 0.006478 0.069906 -0.001791 -0.231468 -0.209118 0.006006 0.004068 0.127733 -0.252815
1 -0.286757 0.318282 0.069663 -0.051279 -0.010359 0.557052 -0.216363 -0.072785 0.032049 -0.373242 0.424809 -0.132799 0.110252 0.009926 0.130979 0.035623 0.181181 -0.066978 -0.297548 -0.548200 0.155577
clearer -0.190706 -0.370876 -0.079019 0.030414 -0.119396 0.106368 0.131303 -0.080125 -0.166352 0.395835 -0.062511 0.296433 -0.138922 -0.117543 -0.009971 -0.229627 -0.417451 0.262524 -0.169725 0.102427 -0.417677
exam -0.066646 -0.076452 -0.133941 -0.153094 -0.018258 0.106649 0.062643 -0.192496 -0.000545 -0.173033 -0.033892 -0.064732 -0.008251 -0.267621 0.083273 -0.057158 -0.079773 -0.214732 0.052419 -0.074581 -0.132336
front -0.267733 0.023186 0.143918 -0.039718 -0.016423 0.179973 -0.157647 -0.101842 -0.234869 -0.059574 -0.136304 0.008947 -0.041383 0.005314 -0.123846 -0.114106 -0.045452 0.002370 -0.157234 -0.143414 -0.049733
grasp -0.113821 -0.310639 -0.043870 0.294941 0.180001 -0.176909 0.239082 -0.135382 -0.488195 0.651451 -0.208254 0.004917 -0.109765 0.098767 -0.231163 0.068330 -0.136909 0.244724 0.007168 -0.252528 -0.330237
individu 0.020441 -0.102223 0.174526 0.131680 0.207147 0.078365 -0.094711 -0.143406 -0.135225 -0.155850 -0.071876 -0.100541 0.049353 0.038098 -0.037563 0.112000 -0.031133 -0.050722 0.105002 0.046243 -0.274617
order -0.036576 -0.230480 -0.142737 0.024516 -0.030958 -0.020944 0.142125 -0.116984 -0.305008 0.103748 -0.079623 0.163444 -0.053077 0.002373 -0.219238 -0.073597 -0.268737 -0.059674 -0.014848 0.222801 -0.402966
reason -0.018370 -0.074980 -0.115429 -0.094677 0.118154 -0.067730 -0.137337 -0.130978 0.037479 -0.124654 -0.090205 -0.067055 -0.168020 0.021549 -0.085501 -0.016396 -0.093166 -0.008175 0.007728 0.093267 -0.239407
wifi -0.185585 0.251253 -0.083138 -0.095918 0.005940 0.330922 -0.426449 -0.090762 -0.074690 -0.093847 0.148543 -0.248065 -0.274711 -0.146224 0.148835 0.342764 0.317029 -0.161599 -0.137416 0.047180 -0.086488
extra -0.126046 -0.176727 -0.048404 0.018395 0.247979 -0.046183 0.029093 -0.077913 -0.148959 -0.098826 -0.015916 -0.123118 -0.081691 0.006370 0.043600 -0.013070 -0.281365 -0.090056 0.144000 0.012032 -0.181258
greater 0.025327 -0.276345 0.166703 0.123386 -0.075321 0.151164 0.136578 -0.232569 0.007984 0.241182 -0.010707 0.082819 0.156097 0.067393 -0.189723 -0.095586 -0.128096 -0.063966 -0.071839 0.281891 -0.158080
increas 0.192175 0.035283 0.125711 0.144392 -0.005630 0.053388 -0.158047 -0.227867 0.072640 0.066683 -0.020087 -0.254291 0.005898 0.199595 -0.251228 -0.154824 0.116041 0.062017 -0.236112 0.321647 -0.316418
mental -0.178264 0.039246 0.402637 0.178414 -0.235327 0.486786 0.083761 -0.235337 -0.085525 -0.093507 0.211251 -0.096379 -0.136855 0.244254 -0.057111 0.124979 0.267408 0.006862 -0.116344 -0.349328 0.137912
multipl -0.086610 -0.272218 -0.265879 0.155543 0.151072 -0.220522 -0.168907 -0.170492 -0.059465 -0.006598 -0.272636 -0.277411 -0.129699 0.055697 -0.102058 0.219900 -0.365903 -0.128492 0.309234 0.438790 -0.467992
platform 0.063599 0.388936 -0.192744 -0.040159 0.113886 -0.020834 -0.104739 0.052307 -0.350178 -0.002561 0.051383 0.363465 -0.010199 0.258885 0.345048 -0.153745 0.330636 0.262423 -0.019296 0.071288 -0.621358
prepar -0.042622 0.102923 -0.143514 0.135155 0.014763 0.068159 -0.117046 -0.198434 -0.353227 -0.442831 0.027730 -0.372086 -0.158493 0.108357 -0.087664 0.094786 0.154311 -0.251236 -0.019517 -0.022705 -0.391298
quicker -0.166933 -0.279496 0.159594 0.255909 0.344177 -0.050512 -0.010217 -0.052502 -0.106090 -0.080534 0.185074 0.036829 0.054513 0.124752 0.032630 -0.290815 -0.252768 0.134163 -0.084287 -0.084701 -0.419562
sort 0.150263 0.310275 0.213066 0.050208 -0.034865 0.171472 -0.162310 -0.201224 0.024054 -0.338721 0.009794 0.026285 0.191083 -0.070417 -0.323925 0.028399 0.205715 -0.030794 -0.208976 0.006330 -0.276066
ive -0.109428 0.012593 -0.176902 -0.193838 0.008765 0.106849 -0.012909 -0.016366 0.085044 -0.004543 -0.030730 -0.067841 -0.160802 -0.016330 0.032592 -0.003975 0.078268 -0.077615 0.037772 0.061936 -0.113075
lockdown 0.059353 0.144132 0.040372 -0.017544 -0.065193 -0.040613 -0.158879 -0.114522 -0.136534 -0.088115 -0.047082 -0.161877 0.226324 0.236137 -0.360192 0.150090 -0.075400 -0.130462 0.100113 -0.011526 -0.372755
lost 0.142046 -0.158922 -0.024782 -0.157623 0.011015 -0.060771 -0.211830 -0.233832 -0.047546 -0.084460 -0.080134 0.006328 0.049930 0.059605 0.029931 0.154793 -0.108426 0.038505 -0.180764 0.177371 -0.463247
mate 0.209597 0.188456 0.179487 0.062863 0.149189 0.170389 0.031814 -0.307714 -0.468109 -0.124107 0.033036 0.091020 0.072420 -0.355311 0.060770 0.057751 0.403925 -0.028784 -0.534282 0.039931 -0.875781
natur 0.277021 0.033756 0.203905 -0.015301 -0.039045 0.252399 -0.070496 -0.292142 -0.071241 -0.311392 0.233463 0.039763 0.314657 0.081999 -0.064474 0.123677 0.158317 -0.157121 -0.243757 -0.176638 -0.360549
oblig 0.422127 0.264872 -0.119409 -0.192507 0.216252 -0.033737 -0.325779 -0.206652 -0.068319 -0.320070 -0.199277 0.017836 0.232626 0.209704 0.229146 0.094021 0.376191 -0.123890 -0.126072 0.184155 -0.457927
realtim 0.275168 -0.030879 -0.007485 0.108010 0.074735 0.188579 0.069958 -0.442467 0.094203 -0.178079 0.170549 -0.020955 0.335240 -0.043295 -0.031239 -0.290867 -0.137471 0.026073 -0.327068 0.061444 -0.590989
simpli -0.297235 -0.082539 -0.160753 0.042394 -0.211873 -0.257696 0.437860 -0.154310 -0.121109 0.068545 -0.026711 0.485726 0.028273 0.191013 0.216403 -0.097481 -0.012703 0.271683 0.115548 0.201439 -0.354894
space 0.146410 -0.158864 0.052332 0.268054 0.202713 0.163341 -0.094909 -0.317540 -0.060024 -0.275717 0.098340 -0.122950 0.213136 0.131307 0.040758 0.087647 -0.028496 -0.041253 -0.098646 0.092314 -0.666445
board 0.003192 0.464652 -0.239550 0.325630 0.038400 0.381872 0.277142 -0.336606 -0.133984 0.134814 0.293562 0.177055 -0.191678 -0.118330 0.345281 0.104006 0.107437 0.074044 -0.328681 0.078449 -0.560667
deeper 0.003992 -0.394205 -0.189217 0.026181 -0.048667 -0.036305 0.450185 -0.142371 -0.163699 0.647360 -0.043051 0.389818 0.007965 -0.133430 -0.013867 -0.176930 -0.509274 0.107848 0.088624 0.255747 -0.359889
difficulti -0.317476 0.278251 -0.002236 -0.081968 -0.047089 0.244598 -0.203569 0.014335 -0.010618 -0.213196 -0.045483 -0.340652 -0.196460 0.135104 -0.018634 0.170780 0.051144 -0.277002 0.086577 -0.000250 0.186633
document -0.493106 -0.144956 -0.351888 0.009755 -0.240262 -0.122595 0.406857 -0.047837 0.080440 0.095790 0.014165 0.424214 -0.269648 0.525254 0.234408 -0.045892 -0.131018 0.313822 -0.114437 0.193503 -0.244416
dynam 0.353350 0.121826 0.210740 -0.157251 -0.056081 -0.165926 0.136593 -0.168513 -0.174802 -0.160046 0.030091 0.229742 0.189055 -0.043903 -0.163635 -0.056582 0.028443 0.045300 0.071022 -0.145011 -0.519522
felt 0.147465 0.199294 -0.196464 -0.144836 -0.110569 0.088308 0.088565 -0.175704 -0.226088 -0.371171 0.119087 0.201394 -0.061207 -0.041079 -0.036377 0.041378 0.230877 -0.063306 0.104642 -0.014610 -0.259642
full -0.058799 -0.131063 -0.036144 0.155357 0.099182 0.024597 -0.001690 -0.090290 -0.166985 -0.031600 -0.031863 -0.020280 -0.028480 0.036858 -0.216713 0.018666 -0.173631 0.037885 0.068866 0.065397 -0.240442
havent -0.141768 -0.010939 -0.210717 -0.118204 -0.059853 0.048493 0.070865 0.127882 -0.064733 0.005675 -0.003922 0.137555 -0.253164 -0.007195 0.175113 0.060241 0.203600 -0.061285 0.066895 0.081568 -0.015484
interrupt -0.039585 0.049971 -0.081420 -0.136039 0.125482 0.018430 -0.209180 -0.078457 -0.038071 -0.010860 -0.087799 -0.031095 -0.106873 -0.084954 -0.028303 0.112712 -0.042179 -0.102267 -0.018795 0.077200 -0.115870
math 0.008322 -0.071719 -0.029039 -0.070602 0.033967 -0.114507 0.036365 0.015543 -0.239683 0.014038 -0.076128 -0.007662 0.105169 0.032684 0.127447 0.000346 -0.072200 -0.094524 0.072322 0.148930 -0.247887
rush -0.250716 -0.227748 0.016585 -0.081484 -0.013435 -0.185214 -0.029525 0.056899 0.064131 0.096118 -0.247454 -0.021878 -0.100948 0.200518 -0.078770 -0.035877 -0.427710 -0.143853 0.251984 0.263014 0.039046
textbook -0.264613 -0.262876 -0.125534 0.053490 -0.127874 -0.090047 0.296636 0.005422 0.002064 0.207180 -0.131574 0.142638 -0.058982 0.052701 -0.005171 -0.026314 -0.075333 0.186694 0.046083 0.315305 -0.247055
unlik -0.121925 0.225287 -0.335897 -0.038197 0.134898 0.019702 -0.286452 0.047459 -0.037936 -0.033187 0.078175 -0.022143 -0.271070 0.136414 0.204297 0.030118 0.072918 0.091735 0.013905 0.207295 -0.440912
absorb -0.066353 -0.343102 -0.066842 0.286041 0.193593 -0.538045 0.162534 -0.027450 -0.145783 0.292031 -0.463507 -0.365488 -0.095153 0.048175 -0.017223 -0.199362 -0.227394 0.159221 0.034681 0.055548 -0.451722
anxiou 0.463316 0.200142 -0.096559 -0.435126 -0.055381 -0.080976 -0.600532 -0.194811 -0.224081 0.133427 -0.095424 -0.185600 0.079879 0.262564 0.138262 0.194232 0.190387 0.173600 -0.088444 0.166159 -0.566454
control -0.046876 -0.086656 -0.006013 0.124106 0.128722 -0.123599 -0.028418 -0.020662 -0.073260 -0.126530 -0.122841 -0.124032 0.048787 0.209544 -0.093557 -0.076816 -0.072718 -0.035181 0.390853 0.028468 -0.416475
forget -0.011940 -0.055547 -0.184540 0.013942 0.017500 0.001764 -0.106685 0.104662 -0.006701 0.023228 -0.070887 -0.036904 -0.163931 -0.155571 0.053809 -0.131901 -0.295132 -0.046438 -0.063268 0.137336 -0.301501
lose 0.031342 -0.067989 -0.082239 -0.002316 -0.001523 -0.231469 -0.231819 -0.112734 -0.079790 -0.146318 -0.109039 -0.347604 0.194490 0.307178 -0.138791 0.101473 0.103734 -0.096475 -0.207167 0.262731 -0.359051
mimic 0.473889 0.181139 0.287705 -0.144124 -0.031099 -0.102879 -0.119866 -0.100536 -0.042272 -0.376355 0.519512 0.283606 0.319146 -0.132646 -0.330899 0.056997 0.048567 -0.100285 -0.203714 -0.198431 -0.638246
mind -0.020804 -0.152256 -0.298291 -0.061609 0.062868 0.039282 0.048996 0.058867 -0.034616 -0.232397 0.273754 0.179564 -0.130847 -0.168547 0.120653 -0.074464 -0.144252 0.165229 -0.155798 0.037879 -0.414145
post -0.143313 0.127533 -0.104777 -0.042604 0.354502 0.016668 -0.086516 0.022922 -0.149794 -0.091476 -0.025915 0.127784 -0.271450 -0.086654 -0.034741 0.074412 -0.031372 0.222362 -0.054929 0.131637 -0.396768
prof 0.166466 -0.138276 0.022963 0.225005 0.119245 0.117764 0.137095 -0.264186 0.051881 -0.111643 0.076429 0.019372 0.145549 -0.048205 -0.043500 0.085682 -0.076718 0.130914 -0.309200 0.331971 -0.477201
proper 0.233806 -0.011352 0.094188 0.003442 0.048967 -0.100770 0.163390 0.008274 -0.131659 -0.027826 0.073856 0.163688 0.235738 -0.067921 -0.000382 0.152900 -0.084835 0.113477 -0.170247 0.104933 -0.416851
turn -0.066206 0.064055 0.134909 -0.005696 -0.013293 0.225492 -0.053156 -0.101923 -0.232097 -0.155276 0.023390 -0.046227 -0.139016 -0.003547 -0.053852 0.194893 0.112820 -0.116654 -0.076804 -0.128777 -0.252235
worri 0.046079 -0.131787 -0.288906 -0.027840 0.125406 -0.241182 -0.140944 0.011326 -0.092775 -0.034910 -0.073764 -0.207232 -0.166118 0.025182 -0.202109 0.149257 -0.474462 -0.016776 0.153957 0.190726 -0.164856
bounc 0.139129 -0.170019 0.129914 0.219890 0.231542 0.394114 0.168165 -0.510751 -0.240003 0.268025 0.020834 -0.092630 0.172636 -0.501635 0.193081 -0.436887 0.049218 0.033570 -0.218037 -0.561373 -0.411186
closer 0.308578 0.194475 0.112575 -0.314171 -0.033052 -0.087379 -0.339641 -0.045791 -0.048339 -0.212401 0.287918 0.355822 0.232950 0.041645 -0.269089 0.041602 0.168608 -0.121955 0.018332 -0.132657 -0.447057
held 0.258913 0.330361 0.363552 0.089040 0.099624 -0.136160 -0.173462 -0.151994 -0.129301 -0.072123 0.063434 -0.325407 -0.111033 0.254864 -0.050925 -0.031776 0.296322 -0.188335 -0.298550 -0.248411 -0.556947
lone 0.377195 0.015872 0.189871 -0.511922 -0.123158 -0.153533 -0.251786 -0.133626 -0.121209 -0.275056 -0.146249 0.163967 0.413067 0.214971 -0.218085 0.357823 -0.195243 -0.211470 -0.043272 -0.227684 -0.405718
open 0.024652 0.304834 0.035484 0.138691 0.012600 0.284304 0.225143 -0.103008 -0.048576 -0.051450 0.223971 0.114192 -0.019115 -0.174412 0.247103 -0.046056 0.232756 -0.008966 -0.253640 -0.091500 -0.319160
term -0.161033 0.029083 0.080728 0.107561 0.025831 -0.033711 -0.027354 -0.056847 -0.113797 -0.122348 -0.125422 0.009838 0.108878 0.222565 -0.013740 -0.059063 0.102386 -0.103982 0.343722 -0.048538 -0.303710
think 0.024979 -0.158527 -0.018145 0.028837 -0.068230 0.215200 0.301693 -0.236472 0.002001 -0.059046 0.002683 -0.011811 0.059658 -0.128964 -0.024849 0.019668 -0.066129 -0.114472 -0.188332 -0.184732 -0.222073
usual 0.173358 0.375702 -0.035705 -0.357317 -0.065875 -0.127741 0.055420 0.011114 -0.155401 -0.560869 0.219202 0.143230 0.222835 -0.001025 -0.115723 -0.028477 0.017550 -0.175520 0.151188 -0.282271 -0.270845
basic 0.151334 0.116388 -0.000200 -0.119488 0.056939 -0.193154 -0.025597 -0.081197 -0.099145 -0.119238 -0.186890 -0.034058 -0.026767 -0.082409 -0.090894 -0.032045 0.070624 -0.071773 0.021339 -0.016726 -0.410712
date -0.195545 0.000859 -0.133493 0.066857 0.031537 0.215411 -0.137978 0.026563 0.140609 0.018631 -0.028656 -0.234566 -0.207400 -0.070534 0.107781 0.226477 0.087700 -0.147849 0.119232 0.110443 -0.026396
deadlin -0.195236 0.000224 0.028116 0.111702 0.064039 -0.094221 -0.162545 0.192689 -0.094903 -0.284940 -0.158652 -0.280182 -0.171838 0.237115 -0.047449 -0.006409 0.157018 -0.199755 0.208586 -0.084629 -0.381408
figur -0.075743 -0.137058 -0.036546 -0.048350 -0.054371 0.015624 0.097959 0.019487 -0.309380 -0.064442 0.078184 0.258236 -0.043603 0.004551 0.052060 -0.173651 -0.167817 0.032642 0.075436 -0.046543 -0.276289
health -0.048857 -0.114670 0.235582 0.252128 -0.149605 0.595158 0.102779 -0.103437 0.090495 -0.136129 0.072689 -0.015627 0.144099 0.016290 -0.094134 0.233371 0.148072 -0.008565 -0.155076 -0.418055 -0.129962
input -0.308858 0.006219 0.187795 0.037611 0.193327 0.124114 -0.020851 0.028501 -0.120522 0.145672 -0.140822 0.251820 -0.185935 -0.024134 -0.134217 -0.075572 -0.043540 0.111529 -0.310242 -0.022106 -0.351431
it 0.257290 0.083005 0.250404 0.175664 -0.030831 0.133129 -0.036099 -0.187282 -0.116257 -0.118153 0.122234 -0.030334 0.228034 -0.114756 -0.310201 0.073908 0.092740 0.099845 -0.257346 -0.078555 -0.162656
leav -0.284618 0.154153 -0.018855 0.032728 0.052737 0.124814 -0.094417 -0.125993 -0.200850 -0.059151 -0.325439 -0.096850 -0.150563 -0.001051 -0.192653 0.029856 0.087075 -0.227901 0.058962 0.037850 -0.234468
limit -0.120285 -0.024173 0.060785 0.172800 0.067065 -0.013074 -0.256850 -0.158969 0.026039 -0.216083 -0.024752 -0.302788 0.148765 0.092381 -0.201076 0.058837 -0.236682 -0.173678 0.129708 0.215267 -0.441125
qualiti -0.055703 0.085514 -0.070882 -0.080838 -0.061411 -0.058278 0.083354 0.033045 -0.087852 0.005224 -0.141925 0.104854 0.092558 -0.235993 0.149045 0.027294 0.037787 -0.003313 0.255724 0.250113 -0.132247
reli -0.095959 0.012957 0.093586 0.080560 0.001059 0.048280 -0.071204 0.021125 -0.183356 0.057918 0.009431 -0.105514 -0.123838 0.008162 -0.095228 -0.049664 0.085651 0.052952 -0.145407 -0.151289 -0.240861
rest -0.180251 0.203076 0.048673 -0.116303 0.106184 0.166844 -0.190819 -0.167391 -0.529971 -0.372282 -0.053193 0.008399 -0.095293 0.042642 -0.050506 0.100746 0.192091 -0.275865 -0.125294 -0.223249 -0.425083
stuck 0.083254 -0.183405 -0.097833 0.123094 0.065128 0.082577 0.048909 -0.190275 -0.019234 0.026981 0.038069 -0.018215 -0.069666 -0.212508 -0.124092 -0.290123 -0.280787 -0.011261 -0.200433 -0.104245 -0.399456
appli 0.018862 -0.102164 0.144627 0.215207 -0.094537 -0.182245 0.614415 -0.232992 -0.176002 0.026036 -0.107160 0.245965 0.223355 -0.186455 0.046067 -0.051139 -0.010791 0.002464 0.348056 0.017163 -0.292770
arent 0.057982 0.172238 0.063484 -0.132423 0.053757 0.002160 -0.130414 -0.050938 -0.329065 -0.035739 -0.062887 0.101465 -0.146396 -0.103029 0.027684 -0.073700 0.295563 -0.061898 -0.203160 -0.043977 -0.325936
continu 0.169511 0.169183 0.117061 0.066957 -0.007911 0.017103 0.070136 -0.155093 -0.173840 -0.046433 0.041658 0.074628 0.169464 0.137869 -0.097556 -0.041206 0.205351 0.015076 0.180367 0.037718 -0.303285
cover 0.028425 -0.271473 -0.013914 0.125446 0.222373 -0.522009 0.089818 0.014716 -0.461554 0.227235 -0.104642 0.115929 -0.132159 -0.039427 0.078040 -0.019870 0.176236 0.150182 -0.072270 -0.132506 -0.642501
covid 0.102091 0.152956 -0.035283 -0.037718 -0.044537 -0.100035 0.153749 -0.021841 0.127950 0.007895 -0.085226 -0.101757 0.000928 -0.140381 0.041567 0.161040 0.106374 0.000295 0.027750 0.160834 -0.155043
fall 0.001626 0.024354 -0.011586 0.038274 0.058582 -0.087706 -0.178130 0.035524 0.161244 -0.040952 -0.206000 -0.194559 -0.133681 0.061077 -0.243807 -0.007622 0.183470 -0.088292 0.090718 0.168334 -0.252546
famili -0.130688 -0.057401 0.019822 0.052483 -0.074877 0.110078 -0.143656 -0.052625 0.123721 -0.252251 0.030240 -0.127919 0.097111 0.147508 -0.016381 -0.091439 -0.038899 -0.220880 0.183382 -0.165574 -0.297357
format 0.067524 0.308019 -0.087841 -0.286173 -0.164196 -0.031897 0.038764 0.079190 -0.090201 -0.167627 0.150231 0.235329 0.087933 -0.064136 -0.008467 0.071218 0.055270 0.028165 0.155688 0.027285 -0.390555
forward -0.064426 -0.146930 -0.102171 -0.130448 -0.152101 -0.052023 0.126841 0.213700 0.178981 0.203947 -0.046429 -0.144170 -0.191878 -0.351490 -0.140423 0.218435 -0.111829 0.047605 0.201394 0.092396 0.243767
fun 0.047556 0.012656 0.062245 0.136694 0.093846 0.117329 0.065635 -0.244582 0.130566 0.042809 0.064184 -0.061878 0.043529 -0.034238 -0.000784 0.020033 0.096464 0.045683 -0.157209 0.085434 -0.261054
key -0.012037 0.072970 -0.014844 -0.009215 -0.174582 0.010304 0.144744 -0.106338 0.053856 -0.002142 -0.062799 -0.161918 0.045575 -0.058440 -0.118194 0.193654 -0.028622 -0.088238 0.049212 0.076748 -0.007197
people 0.045470 -0.026333 0.336995 0.086011 -0.160719 0.117640 0.366909 -0.178731 0.092367 0.154202 0.269049 0.203536 0.467633 -0.382072 -0.106649 0.009035 -0.143064 0.098953 -0.286287 -0.178577 -0.164025
simul 0.357708 0.272661 0.342903 -0.267815 -0.191869 -0.029962 -0.012923 0.012914 -0.056867 -0.251515 0.607972 0.400399 0.186782 -0.084447 -0.273083 -0.040685 0.091404 -0.089392 0.132523 -0.545753 -0.596744
uncomfort 0.188381 0.160034 -0.147476 -0.297650 -0.105546 -0.012961 -0.448506 -0.190174 -0.343167 0.010854 0.115741 0.078000 0.066412 0.258566 0.302969 0.121801 0.185829 0.113266 -0.120120 -0.070691 -0.633752
valuabl -0.098831 0.232571 -0.069708 0.252704 0.043548 0.016954 0.088479 -0.263229 -0.058561 -0.030067 -0.039778 0.111989 0.075356 -0.024196 0.110415 0.065539 -0.076316 -0.128431 0.156056 0.280383 -0.352080
aris 0.030302 -0.356783 -0.129278 0.111025 0.088807 0.154860 0.191846 -0.333124 -0.061495 -0.124182 0.218207 0.068248 0.160209 -0.208842 0.108535 -0.310524 -0.679970 0.038933 -0.445691 -0.137946 -0.789370
challeng 0.000777 -0.150103 -0.027188 0.133295 -0.003079 -0.046448 0.158727 -0.101274 -0.198059 0.128868 -0.065099 0.071983 -0.078470 -0.027224 0.202221 0.080815 0.041992 0.061314 -0.001526 0.045361 -0.510281
element 0.052733 -0.033422 0.166644 0.066375 -0.119316 0.133147 0.053607 -0.089855 0.103822 0.069760 -0.031680 0.069705 0.176980 -0.206053 -0.045039 0.086546 0.052256 -0.040321 -0.176485 0.146883 -0.210721
extrem 0.081193 0.213503 -0.081204 0.001483 -0.107603 0.015498 -0.017133 -0.244039 -0.109635 -0.086129 -0.097724 -0.005983 0.041290 -0.131859 0.119856 0.072450 0.121751 -0.069196 -0.058970 0.048417 -0.241424
let -0.018377 -0.182853 0.039070 0.146575 -0.068890 0.024317 0.073428 -0.198388 0.096194 -0.225304 0.036831 -0.053235 0.026573 0.222968 -0.020842 -0.079612 -0.096709 -0.038102 0.017919 0.113275 -0.490720
morn 0.015172 0.134035 0.038888 -0.135944 -0.115416 -0.022479 -0.053982 -0.058133 -0.160663 -0.193810 0.015293 -0.073888 -0.079124 0.078941 0.014389 -0.010818 0.282807 -0.160492 0.189504 -0.104476 -0.391763
relisten 0.104353 -0.139914 -0.195663 -0.015767 -0.104254 -0.181770 0.030318 0.290964 0.157962 0.141047 -0.126687 -0.041567 -0.213725 -0.218533 -0.101751 0.213422 -0.209906 -0.028970 0.029491 0.318136 -0.218622
respond -0.220748 -0.225884 0.129084 0.035149 0.134824 0.242363 -0.126089 -0.102373 -0.129974 0.192639 -0.055166 0.159907 0.034786 -0.135810 -0.186774 -0.204921 -0.406488 0.018573 -0.318261 -0.322973 -0.331063
style 0.208970 0.092060 0.166858 0.087760 -0.047448 -0.037888 0.304549 -0.263207 -0.174823 -0.205297 -0.207475 0.180822 0.189788 -0.125339 0.076375 0.062243 0.145382 -0.078126 0.501483 0.135390 -0.300552
aid 0.040691 -0.124496 -0.029762 0.078797 -0.107125 0.091556 0.307283 -0.279592 0.032283 0.143680 0.014618 0.167774 0.082679 -0.096221 -0.007195 -0.105538 -0.161869 -0.012395 0.044424 0.162647 -0.301543
auditori -0.108986 -0.016968 0.084901 0.227970 -0.263066 -0.162324 0.483869 -0.078408 0.022746 0.093100 -0.379509 0.038310 0.083150 -0.157178 0.128894 0.129177 0.315081 -0.084340 0.602427 0.158512 -0.109470
chang 0.027304 -0.132782 -0.105486 -0.012947 0.176584 -0.217737 -0.039234 0.173401 0.213200 0.083947 -0.214685 -0.167795 -0.179330 -0.183613 -0.296067 0.223761 -0.214225 -0.095675 0.324022 0.272141 -0.157634
differ -0.142897 -0.032980 0.061261 0.092019 0.026577 0.032172 -0.192655 -0.189880 -0.032490 -0.182851 -0.010790 -0.234970 0.035298 0.153950 -0.174425 0.200971 -0.002304 -0.024174 0.234066 0.025960 -0.220628
express 0.049849 -0.061933 -0.031192 0.223926 -0.003268 0.264747 0.168549 -0.257344 0.064087 0.161397 0.006217 -0.111841 0.027807 -0.139453 -0.254963 -0.099567 -0.148039 0.025941 -0.138561 -0.161399 -0.105226
finish -0.224764 -0.223209 -0.051698 0.128211 0.139242 0.046845 -0.052776 -0.026681 -0.076386 -0.155167 0.003668 -0.070390 -0.175109 -0.004372 -0.047015 0.024999 -0.052724 -0.100543 0.165000 0.001447 -0.261658
guidanc -0.402578 0.031624 0.047167 0.055147 0.106114 0.187767 0.005741 0.073044 0.022358 -0.028938 -0.056207 -0.058046 -0.061489 -0.026178 -0.037924 0.034107 -0.085263 -0.063456 0.084528 -0.170282 -0.099801
includ 0.077238 -0.002585 0.011836 0.028056 0.065187 -0.050351 -0.020732 0.010337 -0.124828 0.039525 0.038542 -0.017627 -0.028111 -0.027325 0.208767 0.222281 0.072415 0.140695 -0.110846 0.176982 -0.387687
know -0.141777 0.037709 -0.021745 0.051143 0.196521 0.136451 -0.242716 -0.136133 -0.074915 -0.020751 -0.003612 -0.044766 -0.094041 0.074352 -0.009769 -0.024767 -0.002827 0.087344 -0.185685 0.117156 -0.362908
realist 0.049514 -0.054423 0.020813 -0.126862 -0.068092 -0.049099 -0.138093 0.015467 0.007422 -0.195635 0.068747 0.075016 0.139496 0.123228 0.015140 0.053006 -0.091056 -0.138694 -0.093001 -0.080507 -0.222842
simpl -0.038104 -0.155802 -0.019541 0.028923 0.031572 -0.073585 0.100857 -0.010196 -0.002529 0.126332 0.118061 0.036569 -0.025043 0.073416 -0.062465 -0.082912 -0.086593 0.134039 0.088561 0.048210 -0.388537
suppos 0.198395 -0.084045 -0.127619 -0.064718 0.024323 -0.179978 0.088098 -0.040658 -0.083835 0.032826 -0.074804 0.196366 0.057793 -0.116608 -0.069053 0.007472 -0.080541 0.043595 0.076089 0.228127 -0.343354
tire 0.128705 0.074217 -0.175200 -0.079971 0.032306 -0.176215 -0.054182 0.070171 -0.202439 -0.166181 -0.080337 -0.180884 -0.155299 -0.040556 0.063813 0.060363 0.156102 -0.188817 0.029049 0.065340 -0.395272
word -0.212100 -0.351994 0.053670 0.065656 -0.072346 -0.062365 0.312902 0.108259 -0.016193 0.190205 -0.148383 -0.007795 -0.244464 -0.096499 0.024325 0.049133 -0.134713 0.001580 0.097007 0.072749 -0.167595
adjust 0.109034 0.018522 -0.039169 -0.094427 -0.031050 -0.202774 -0.117899 0.172604 0.240582 0.045265 -0.189441 0.036376 -0.141715 -0.094361 -0.118041 -0.023934 -0.033783 -0.042723 0.205420 0.367625 -0.320209
commit -0.134757 0.050258 0.017454 0.086189 0.098381 0.082339 -0.170884 -0.119049 -0.014663 -0.073142 -0.147903 -0.140782 -0.137247 0.041527 -0.132511 0.065721 0.126746 -0.111122 0.119164 0.083931 -0.294922
constantli -0.235007 -0.101119 0.029041 0.048809 -0.008994 0.013067 -0.101295 0.062183 -0.105228 0.015044 -0.175057 0.059536 0.014623 0.170300 -0.045804 0.005514 -0.174329 -0.032313 0.109371 -0.013160 -0.224112
digest -0.110332 -0.107930 0.023764 0.191532 0.285899 -0.356187 0.079032 0.035547 -0.149067 0.221744 -0.190627 -0.254873 0.002072 0.036326 -0.162029 0.031144 -0.253964 0.150790 0.096684 -0.170459 -0.573298
earli -0.224575 0.006382 -0.013181 0.026201 -0.078755 0.287215 -0.113624 -0.122344 -0.147980 -0.272695 0.079545 -0.107848 -0.040943 0.117027 0.012047 0.073636 0.082284 -0.208120 0.059034 -0.072522 -0.104419
essenti -0.156359 -0.057287 -0.024321 0.039740 -0.075314 0.020960 -0.064636 0.109736 0.070329 -0.197546 -0.047075 -0.060446 -0.174101 0.092559 0.130129 -0.055245 0.082105 -0.135503 0.006889 0.078201 -0.207471
freeli -0.015424 -0.269041 0.246811 0.234566 0.010808 0.106824 0.113496 -0.199156 0.146624 -0.049627 -0.079871 0.012043 0.239230 0.026708 0.005655 -0.143346 -0.171917 -0.000135 -0.199848 0.044695 -0.385324
larg -0.148007 0.137972 -0.111668 -0.043951 -0.061685 0.041200 -0.018974 0.020935 -0.050643 0.037648 -0.010745 -0.132203 -0.128733 -0.113681 0.162134 0.046630 0.139144 -0.168588 0.056793 0.168412 -0.258412
member 0.197569 0.136092 0.005971 -0.052733 -0.007641 0.076544 0.142152 -0.299603 -0.504062 -0.419832 0.011013 0.082915 -0.099377 -0.107109 0.152310 -0.049704 0.310359 -0.259430 -0.438102 -0.152284 -0.634906
messag -0.246134 -0.056685 0.001592 0.105806 0.187419 0.141046 0.179450 -0.001851 -0.180000 0.100382 0.055603 0.218440 -0.119841 -0.072276 0.055921 -0.055758 -0.114839 0.199886 -0.329786 -0.149688 -0.659892
mix -0.023149 0.219461 -0.132921 -0.009731 0.023100 0.094377 -0.040794 -0.022586 -0.035960 0.136893 0.136527 0.009436 -0.164868 -0.164198 0.073647 0.043558 0.134138 0.085382 -0.118497 0.050942 -0.242678
pretti -0.002273 0.213984 -0.111521 -0.158584 0.147474 -0.012484 -0.089260 0.047245 -0.126340 -0.138424 -0.027769 0.174161 -0.253516 -0.175149 -0.011645 0.052297 0.187699 0.084290 -0.046461 0.089748 -0.421439
section -0.169206 -0.202793 -0.234158 -0.035380 -0.093610 -0.064735 -0.033940 0.086366 -0.014487 0.197678 -0.179673 -0.021863 -0.210786 -0.039719 -0.152382 0.189449 -0.310500 -0.027810 0.197325 0.315181 -0.269276
normal 0.339700 0.199611 0.009650 -0.398209 -0.057400 -0.178513 -0.082388 -0.040409 -0.104257 -0.353998 -0.000538 0.085682 0.217380 0.114212 -0.130594 0.188115 -0.005245 -0.024191 -0.049298 -0.178295 -0.582421
affect -0.102221 0.220365 -0.092482 -0.153127 -0.063275 0.096794 -0.188600 -0.066160 0.069125 -0.174351 -0.139386 -0.139533 -0.251618 -0.093097 -0.097159 0.179473 0.295834 -0.073313 0.072232 0.103015 -0.492886
alongsid -0.167083 -0.102096 -0.146092 0.157538 0.032669 0.132422 -0.021368 -0.009943 -0.026019 -0.029786 0.050172 -0.056395 -0.158599 0.040182 -0.039390 0.020566 0.123178 0.060533 0.038002 0.087974 -0.337059
big 0.007627 0.132709 -0.039502 -0.051637 -0.239213 0.066853 0.179670 -0.067512 -0.049197 0.052858 -0.001027 0.029515 0.001542 -0.180204 0.125712 0.073696 0.049454 0.015058 0.126092 0.033489 -0.305355
bring 0.073956 0.274303 0.038454 -0.012643 -0.066830 -0.062006 -0.309959 0.062814 0.161095 -0.108720 -0.171610 -0.134568 0.111280 0.139955 -0.196501 -0.081116 0.111770 -0.131718 -0.087459 0.002343 -0.221918
care -0.007444 0.063396 0.111222 0.060646 0.107737 0.089215 -0.130013 -0.228589 -0.056946 -0.007335 -0.031288 0.031781 0.054045 0.153731 -0.137805 0.134711 0.071592 -0.031534 0.077732 -0.026940 -0.321326
chose -0.099637 0.109229 -0.162495 0.025679 0.132018 -0.099003 -0.278208 -0.027206 -0.038800 -0.164244 -0.132384 -0.103241 -0.300581 0.162649 0.075601 -0.035432 0.196156 0.043660 0.230422 0.340494 -0.827929
comprehend -0.086751 -0.068286 0.082687 0.220824 0.137726 -0.140983 0.099431 -0.038212 -0.242569 0.333452 -0.149409 -0.144606 -0.082418 0.279847 -0.373045 -0.010133 -0.183215 0.145871 0.128247 -0.171749 -0.698794
confid 0.225653 -0.080256 0.031612 -0.327707 0.018046 -0.212978 -0.120514 -0.071513 -0.194478 -0.115347 -0.056862 0.126581 0.256510 0.121549 -0.098468 0.212771 -0.196208 -0.071070 -0.043365 -0.089491 -0.592283
consum -0.336629 0.041398 -0.095091 0.179701 0.211823 0.024394 -0.112001 -0.157514 -0.081345 -0.173881 -0.102261 -0.325611 0.042886 0.076126 -0.211060 0.169051 -0.267698 -0.161784 0.314394 0.043952 -0.606481
copi -0.366666 -0.169873 0.009585 -0.110479 0.001617 -0.089427 0.218425 0.106670 0.235088 0.274122 -0.116977 0.086942 -0.161478 -0.066009 -0.016036 -0.022538 -0.222278 0.106229 0.193801 0.011940 -0.173551
delay -0.100853 -0.191157 -0.126233 0.068151 0.108405 0.162192 -0.030109 -0.185450 -0.052993 -0.165997 0.026500 -0.102990 -0.015516 -0.119478 0.182843 -0.166920 -0.334208 -0.050357 -0.241761 0.001252 -0.464995
develop 0.105667 -0.113123 0.108493 0.235718 -0.206597 0.135726 0.140688 -0.156823 -0.212138 0.407420 -0.205306 -0.006665 0.177721 -0.005542 -0.080778 -0.197934 0.132381 -0.024295 0.033994 -0.170360 -0.469499
exercis -0.162506 -0.137323 -0.103562 0.134637 -0.067271 0.124945 0.115116 -0.017591 0.036946 0.191897 0.146415 0.024082 -0.119640 0.016089 0.062899 0.079653 -0.109795 0.105856 -0.186615 -0.134236 -0.201267
flow -0.046931 0.019932 -0.003125 0.192598 0.005460 0.107258 0.130592 -0.144079 -0.014976 -0.001276 0.065771 -0.047851 -0.072608 -0.022997 0.102217 -0.133197 -0.009151 0.098089 0.003955 -0.217341 -0.178590
frame -0.384387 -0.138273 -0.228783 0.205235 0.095403 0.046594 -0.233413 -0.096630 -0.059599 -0.175776 -0.063716 -0.338041 -0.159212 0.142154 -0.011037 0.192626 -0.225973 -0.091817 0.373775 0.245331 -0.436963
homework 0.126250 0.038928 0.031775 -0.310049 -0.021844 -0.002219 -0.117045 -0.104135 -0.005758 -0.280431 0.068187 0.158167 0.088246 0.158007 0.069281 0.204004 0.098892 0.042369 -0.072905 -0.056813 -0.427748
job -0.294783 0.030011 -0.024304 0.087013 -0.039029 0.213537 0.023507 -0.093195 0.096947 -0.329593 -0.001300 -0.236519 -0.097241 -0.015364 -0.147862 0.245809 0.064392 -0.199270 0.370697 -0.022701 -0.174679
kinda 0.063221 0.099094 0.072395 -0.161499 -0.002968 -0.117333 -0.012196 0.117134 0.005869 -0.013751 0.007138 0.004173 0.035304 0.144468 -0.100370 -0.018342 -0.091783 0.103782 0.210361 -0.097873 -0.207858
microsoft -0.369880 0.171263 -0.005954 -0.291081 -0.304892 0.298993 0.075530 0.161624 0.151462 -0.121725 0.015094 -0.141879 -0.306152 0.050021 0.255858 0.138055 0.293030 -0.228705 0.282504 -0.122474 0.301435
minut -0.223684 0.031524 -0.093737 -0.147878 0.044585 0.032076 -0.132687 -0.007681 -0.046084 0.039350 -0.052744 -0.161220 -0.154293 -0.218872 0.045215 0.146780 -0.024327 -0.043009 0.007140 0.066171 -0.357769
music 0.123676 -0.016076 0.093630 0.066126 -0.015253 -0.154624 -0.002508 0.198827 0.178396 0.000965 0.022982 -0.238325 -0.072136 0.116312 0.021011 0.251437 -0.015495 0.004792 0.202229 0.208463 -0.192950
occur -0.028880 0.094695 -0.026948 0.103577 -0.142729 0.202028 0.192114 -0.017313 -0.117689 -0.027394 0.079303 0.177376 0.045502 -0.031493 0.190538 -0.109634 0.017465 -0.040158 -0.144435 -0.130894 -0.283925
perspect 0.024326 -0.077605 0.086712 0.055195 -0.024125 0.069729 0.096676 0.001376 -0.046107 0.027883 0.046663 0.055646 0.096764 -0.045707 0.059685 -0.079620 -0.060364 -0.122955 -0.012162 -0.197514 -0.409914
poor -0.184882 0.359997 0.108764 0.142929 0.010933 0.325060 -0.496761 -0.052464 0.041504 -0.040675 0.123981 -0.344620 -0.103967 -0.083478 0.156171 0.211510 0.249160 -0.014375 -0.062500 0.027634 -0.289575
readi 0.028214 0.004947 0.013429 -0.046359 -0.128093 -0.101235 -0.068313 0.073749 0.053955 -0.252472 -0.024690 -0.154489 0.015465 0.110399 0.040153 -0.039889 0.020844 -0.152797 0.216782 -0.029677 -0.095167
suitabl -0.232726 -0.014143 -0.107380 0.043226 0.126228 -0.020534 -0.165266 -0.074549 -0.051250 -0.134670 -0.074945 -0.353864 -0.066948 0.047640 -0.253829 0.248998 -0.155069 -0.102244 0.282772 0.108564 -0.403916
tradit 0.203177 0.286802 -0.081811 -0.388847 0.043719 -0.107254 0.013787 0.008055 0.011503 -0.118955 0.079587 0.239872 0.107392 -0.253938 -0.089489 0.043491 -0.012395 0.068859 -0.047529 -0.069620 -0.426606
